svm_type c_svc
kernel_type rbf
gamma 0.03125
nr_class 5
total_sv 44
rho 0.0908512 0.274521 0.0737177 -0.00257156 -0.452076 -0.492162 -0.978391 -0.0988389 -0.460356 0.217963
label 0 1 2 3 4
nr_sv 5 7 8 12 12
SV
0.001635004908205788 0 0 0 1:1 2:0.916667 3:0.896552 4:0.877863 5:0.918367 6:0.962963 7:1 8:0.968085 9:1 10:0.934884 11:0.963964 12:1 13:0.991667 14:0.942387 15:0.992032 16:0.969231 17:0.946768 18:1 19:0.978022 20:0.970696 21:0.923077 22:0.950877 23:0.986063 24:0.97931 25:0.881188 26:0.986577 27:0.907591 28:0.986799 29:0.929032 30:1 31:0.980456 32:0.967213 
0.9115740454423183 2 2 0.7620347522831581 1:0.68 2:0.8125 3:0.775862 4:0.847328 5:0.863946 6:0.876543 7:0.851429 8:0.87234 9:0.762376 10:0.869767 11:0.927928 12:0.895652 13:0.875 14:0.983539 15:0.976096 16:0.907692 17:0.961977 18:0.969925 19:0.912088 20:0.948718 21:0.937063 22:0.97193 23:0.986063 24:0.931034 25:0.966997 26:1 27:0.980198 28:1 29:0.83871 30:0.902597 31:0.941368 32:1 
0.6056686358595657 0 0 0 1:0.813333 2:0.916667 3:1 4:0.969466 5:0.972789 6:0.950617 7:0.965714 8:0.978723 9:0.970297 10:0.972093 11:0.990991 12:0.965217 13:0.958333 14:0.958848 15:0.920319 16:0.876923 17:0.961977 18:0.924812 19:0.904762 20:0.956044 21:0.909091 22:0.922807 23:0.923345 24:0.924138 25:0.894389 26:0.892617 27:0.920792 28:0.861386 29:0.832258 30:0.922078 31:0.960912 32:0.954098 
0.111148258004319 0 0.8613710476795888 0 1:0.733333 2:0.8125 3:0.793103 4:0.877863 5:0.85034 6:0.864198 7:0.885714 8:0.946809 9:0.910891 10:0.944186 11:0.900901 12:0.904348 13:0.875 14:0.950617 15:0.976096 16:0.961538 17:0.954373 18:1 19:0.96337 20:1 21:0.972028 22:1 23:0.986063 24:0.944828 25:0.947195 26:0.90604 27:1 28:0.980198 29:0.896774 30:0.896104 31:0.941368 32:1 
1.517268369590403 0.5243735425027849 0 0.455166126144695 1:0.973333 2:1 3:0.948276 4:0.984733 5:0.986395 6:0.950617 7:0.965714 8:1 9:0.891089 10:0.888372 11:0.918919 12:0.878261 13:0.9 14:0.925926 15:0.920319 16:0.876923 17:0.931559 18:0.954887 19:0.919414 20:0.919414 21:0.916084 22:0.936842 23:0.916376 24:0.958621 25:0.927393 26:0.892617 27:0.927393 28:0.887789 29:0.780645 30:0.915584 31:0.980456 32:0.954098 
-2 2 2 0.7662842059876154 1:0.893333 2:0.9375 3:0.913793 4:0.969466 5:0.945578 6:0.91358 7:0.942857 8:0.978723 9:0.930693 10:0.934884 11:0.954955 12:0.921739 13:0.908333 14:0.958848 15:0.960159 16:0.907692 17:0.946768 18:0.962406 19:0.941392 20:0.956044 21:0.937063 22:0.957895 23:0.930314 24:0.931034 25:0.90099 26:0.892617 27:0.927393 28:0.927393 29:0.877419 30:0.928571 31:0.973941 32:0.947541 
-0.603198585947927 1.103127871667209 2 2 1:0.786667 2:0.854167 3:0.827586 4:0.755725 5:-0.85034 6:-0.864198 7:-0.885714 8:-0.840426 9:-0.732673 10:-0.702326 11:-0.711712 12:-0.817391 13:-0.9 14:-0.909465 15:-0.928287 16:-0.946154 17:-0.961977 18:-0.947368 19:-0.992674 20:-0.970696 21:-0.958042 22:-0.950877 23:-0.958188 24:-0.993103 25:-0.947195 26:-1 27:-0.986799 28:-1 29:-1 30:-1 31:-1 32:-0.967213 
-0.5440957278568852 0 0 0 1:-0.92 2:-0.958333 3:-0.948276 4:-0.969466 5:-0.986395 6:-0.975309 7:-0.988571 8:-0.968085 9:-0.930693 10:-0.944186 11:-0.918919 12:-0.913043 13:-0.933333 14:-0.950617 15:-0.896414 16:-0.892308 17:-0.91635 18:-0.864662 19:-0.919414 20:-0.89011 21:-0.888112 22:-0.887719 23:-0.860627 24:-0.889655 25:-0.90099 26:-0.885906 27:-0.933993 28:-0.90099 29:-0.896774 30:-0.909091 31:-0.908795 32:-0.87541 
-0 0 0 2 1:-0.626667 2:-0.75 3:-0.793103 4:-0.78626 5:-0.782313 6:-0.876543 7:-0.862857 8:-0.851064 9:-0.851485 10:-0.804651 11:-0.855856 12:-0.869565 13:-0.808333 14:-0.893004 15:-0.808765 16:-0.884615 17:-0.91635 18:-0.902256 19:-0.882784 20:-0.934066 21:-0.923077 22:-0.873684 23:-0.930314 24:-0.958621 25:-0.933993 26:-0.966443 27:-0.966997 28:-0.973597 29:-0.974194 30:-0.967532 31:-0.967427 32:-0.954098 
-0 0.2341497997418074 0.9009066861445155 2 1:-0.813333 2:-0.895833 3:-0.87931 4:-0.89313 5:-0.931973 6:-0.925926 7:-0.942857 8:-0.914894 9:-0.881188 10:-0.906977 11:-0.891892 12:-0.878261 13:-0.875 14:-0.909465 15:-0.856574 16:-0.846154 17:-0.885932 18:-0.834586 19:-0.89011 20:-0.85348 21:-0.86014 22:-0.852632 23:-0.832753 24:-0.862069 25:-0.867987 26:-0.865772 27:-0.907591 28:-0.874587 29:-0.877419 30:-0.876623 31:-0.889251 32:-0.84918 
-0 0.9499226613746289 2 2 1:-0.36 2:-0.583333 3:-0.706897 4:-0.725191 5:-0.782313 6:-0.790123 7:-0.805714 8:-0.776596 9:-0.792079 10:-0.804651 11:-0.81982 12:-0.826087 13:-0.841667 14:-0.860082 15:-0.848606 16:-0.853846 17:-0.878327 18:-0.819549 19:-0.904762 20:-0.897436 21:-0.888112 22:-0.887719 23:-0.888502 24:-0.924138 25:-0.894389 26:-0.939597 27:-0.933993 28:-0.933993 29:-0.941935 30:-0.935065 31:-0.934853 32:-0.921311 
-0 0 0 0.6631885645383711 1:-0.866667 2:-0.916667 3:-0.87931 4:-0.923664 5:-0.891156 6:-0.938272 7:-0.92 8:-0.904255 9:-0.792079 10:-0.87907 11:-0.855856 12:-0.869565 13:-0.883333 14:-0.884774 15:-0.864542 16:-0.869231 17:-0.885932 18:-0.864662 19:-0.919414 20:-0.904762 21:-0.881119 22:-0.880702 23:-0.881533 24:-0.917241 25:-0.894389 26:-0.932886 27:-0.927393 28:-0.947195 29:-0.941935 30:-0.935065 31:-0.934853 32:-0.908197 
-0.53526750934446 -1.248490403260216 1.939357833156863 0.8785601466085559 1:-0.706667 2:-0.8125 3:-0.827586 4:-0.847328 5:-0.877551 6:-0.901235 7:-0.897143 8:-0.882979 9:-0.871287 10:-0.869767 11:-0.864865 12:-0.86087 13:-0.866667 14:-0.868313 15:-0.824701 16:-0.8 17:-0.673004 18:0.556391 19:0.92674 20:0.948718 21:0.965035 22:0.985965 23:0.937282 24:0.97931 25:0.933993 26:0.42953 27:0.438944 28:0.405941 29:0.412903 30:0.493506 31:0.413681 32:0.32459 
-1.989106033158325 -1.371317162160375 0 0 1:0.733333 2:0.729167 3:0.586207 4:0.496183 5:0.401361 6:0.296296 7:0.257143 8:0.223404 9:0.158416 10:0.116279 11:0.108108 12:0.0608696 13:0.0416667 14:0.0699588 15:0.87251 16:0.869231 17:0.8327 18:0.466165 19:0.179487 20:0.142857 21:0.048951 22:-0.00350877 23:-0.0452962 24:-0.0206897 25:0.0231023 26:0.00671141 27:0.0693069 28:0.029703 29:-0.0258065 30:-0.038961 31:-0.0358306 32:-0.0360656 
-0 -0 2 0 1:0.653333 2:0.604167 3:0.465517 4:0.419847 5:0.333333 6:0.246914 7:0.2 8:0.170213 9:0.128713 10:0.0976744 11:0.0900901 12:0.0434783 14:0.0205761 15:0.00398406 16:-0.0384615 17:-0.026616 18:-0.0300752 19:-0.0915751 20:-0.0622711 21:-0.0909091 22:-0.0666667 23:-0.087108 24:-0.124138 25:-0.0891089 26:-0.167785 27:-0.0957096 28:-0.181518 29:-0.187097 30:-0.181818 31:-0.166124 32:-0.114754 
-0 -1.667392767363055 2 2 1:0.653333 2:0.625 3:0.517241 4:0.450382 5:0.346939 6:0.246914 7:0.188571 8:0.117021 9:0.0693069 10:-0.0139535 11:0.018018 12:-0.026087 13:-0.025 14:-0.0534979 15:-0.0677291 16:-0.1 17:-0.095057 18:-0.112782 19:-0.135531 20:-0.135531 21:-0.13986 22:-0.14386 23:-0.170732 24:-0.172414 25:-0.155116 26:-0.208054 27:-0.168317 28:-0.207921 29:-0.212903 30:-0.194805 31:-0.166124 32:-0.180328 
-0 -0 0.9318511189695337 0 1:0.733333 2:0.645833 3:0.534483 4:0.465649 5:0.346939 6:0.259259 7:0.211429 8:0.170213 9:0.128713 10:0.0790698 11:0.0810811 12:0.0347826 13:0.00833333 14:0.00411523 15:0.0836653 16:-0.0461538 17:-0.0570342 18:-0.0676692 19:-0.0989011 20:-0.0915751 21:-0.104895 22:-0.045614 23:0.010453 24:-0.144828 25:-0.135314 26:-0.187919 27:-0.174917 28:-0.214521 29:-0.225806 30:-0.201299 31:-0.185668 32:-0.167213 
-0 -0 2 2 1:0.573333 2:0.5625 3:0.431034 4:0.389313 5:0.346939 6:0.283951 7:0.177143 8:0.180851 9:0.0990099 10:0.0697674 11:0.0630631 12:0.0173913 13:-0.025 14:0.0205761 15:-0.00398406 16:-0.0461538 17:-0.0494297 18:-0.0451128 19:-0.113553 20:-0.0915751 21:-0.0979021 22:-0.0947368 23:-0.114983 24:-0.165517 25:-0.128713 26:-0.201342 27:-0.155116 28:-0.214521 29:-0.212903 30:-0.207792 31:-0.172638 32:-0.114754 
-0 -0 2 0 1:0.653333 2:0.625 3:0.534483 4:0.419847 5:0.319728 6:0.234568 7:0.188571 8:0.148936 9:0.108911 10:0.0790698 11:0.0540541 12:0.026087 14:-0.0205761 15:-0.0199203 16:-0.0615385 17:-0.0570342 18:-0.0676692 19:-0.0989011 20:-0.120879 21:-0.0979021 22:-0.0947368 23:-0.12892 24:-0.144828 25:-0.128713 26:-0.174497 27:-0.161716 28:-0.181518 29:-0.193548 30:-0.12987 31:-0.120521 32:-0.101639 
-0 -0 2 0.6282926545060732 1:0.68 2:0.625 3:0.534483 4:0.435115 5:0.346939 6:0.246914 7:0.188571 8:0.148936 9:0.118812 10:0.0604651 11:0.036036 12:0.0521739 13:-0.00833333 14:-0.0452675 15:-0.0119522 16:-0.0307692 17:-0.095057 18:-0.0601504 19:-0.128205 20:-0.106227 21:-0.13986 22:-0.136842 23:-0.108014 24:-0.137931 25:-0.168317 26:-0.120805 27:-0.188119 28:-0.135314 29:-0.167742 30:-0.142857 31:-0.14658 32:-0.140984 
-2 -1.944895590354696 -2 0 1:0.653333 2:0.645833 3:0.517241 4:0.435115 5:0.346939 6:0.234568 7:0.188571 8:0.159574 9:0.0990099 10:0.0604651 11:0.0540541 12:0.026087 13:-0.00833333 14:-0.0205761 15:-0.0278884 16:0.915385 17:0.931559 18:0.924812 19:0.948718 20:0.934066 21:0.909091 22:0.929825 23:0.902439 24:0.903448 25:0.894389 26:0.885906 27:0.90099 28:0.854785 29:0.825806 30:0.902597 31:0.941368 32:0.914754 
-0.8613710476795889 -0 -2 0.2523709164708511 1:0.546667 2:0.416667 3:0.275862 4:0.206107 5:0.0884354 6:-0.0246914 7:-0.0514286 8:-0.106383 9:-0.158416 10:-0.172093 11:-0.171171 12:-0.217391 13:-0.241667 14:-0.251029 15:-0.258964 16:-0.315385 17:-0.292776 18:-0.278195 19:-0.347985 20:-0.347985 21:-0.34965 22:-0.361404 23:-0.38676 24:-0.4 25:-0.39934 26:-0.436242 27:-0.465347 28:-0.425743 29:-0.483871 30:-0.454545 31:-0.413681 32:-0.429508 
-0 -0 -1.46977582775623 2 1:0.28 2:0.1875 3:0.0689655 4:-0.0381679 5:-0.115646 6:-0.185185 7:-0.222857 8:-0.265957 9:-0.267327 10:-0.32093 11:-0.315315 12:-0.356522 13:-0.366667 14:-0.366255 15:-0.354582 16:-0.384615 17:-0.376426 18:-0.368421 19:-0.428571 20:-0.413919 21:-0.426573 22:-0.410526 23:-0.428571 24:-0.441379 25:-0.438944 26:-0.483221 27:-0.465347 28:-0.49835 29:-0.516129 30:-0.506494 31:-0.498371 32:-0.468852 
-0 -0 -1.401433124370167 2 1:0.36 2:0.270833 3:0.137931 4:0.0687023 5:-0.00680272 6:-0.148148 7:-0.188571 8:-0.212766 9:-0.247525 10:-0.134884 11:-0.297297 12:-0.313043 13:-0.341667 14:-0.366255 15:-0.370518 16:-0.392308 17:-0.429658 18:-0.428571 19:-0.465201 20:-0.465201 21:-0.461538 22:-0.466667 23:-0.491289 24:-0.489655 25:-0.491749 26:-0.52349 27:-0.531353 28:-0.531353 29:-0.554839 30:-0.525974 31:-0.52443 32:-0.527869 
-0 -2 -0 2 1:0.173333 2:0.104167 3:-0.0344828 4:-0.0839695 5:-0.170068 6:-0.222222 7:-0.257143 8:-0.308511 9:-0.29703 10:-0.35814 11:-0.36036 12:-0.356522 13:-0.4 14:-0.423868 15:-0.394422 16:-0.392308 17:-0.444867 18:-0.413534 19:-0.479853 20:-0.457875 21:-0.482517 22:-0.480702 23:-0.456446 24:-0.489655 25:-0.518152 26:-0.489933 27:-0.544554 28:-0.50495 29:-0.509677 30:-0.512987 31:-0.517915 32:-0.495082 
-0 -0.9560110957898195 -0 2 1:0.226667 2:0.145833 3:0.0344828 4:-0.0534351 5:-0.129252 6:-0.209877 7:-0.234286 8:-0.265957 9:-0.29703 10:-0.32093 11:-0.333333 12:-0.347826 13:-0.375 14:-0.390947 15:-0.394422 16:-0.415385 17:-0.422053 18:-0.428571 19:-0.465201 20:-0.465201 21:-0.454545 22:-0.459649 23:-0.484321 24:-0.482759 25:-0.485149 26:-0.516779 27:-0.511551 28:-0.590759 29:-0.580645 30:-0.558442 31:-0.550489 32:-0.540984 
-0 -0 -2 2 1:0.226667 2:0.145833 3:0.0344828 4:-0.0381679 5:-0.129252 6:-0.209877 7:-0.234286 8:-0.255319 9:-0.277228 10:-0.302326 11:-0.315315 12:-0.33913 13:-0.35 14:-0.325103 15:-0.338645 16:-0.369231 17:-0.368821 18:-0.37594 19:-0.413919 20:-0.406593 21:-0.405594 22:-0.410526 23:-0.400697 24:-0.448276 25:-0.425743 26:-0.47651 27:-0.471947 28:-0.49835 29:-0.522581 30:-0.487013 31:-0.485342 32:-0.47541 
-0 -2 -0 2 1:0.253333 2:0.166667 3:0.0689655 4:-0.0229008 5:-0.142857 6:-0.234568 7:-0.28 8:-0.297872 9:-0.316832 10:-0.348837 11:-0.351351 12:-0.391304 13:-0.416667 14:-0.415638 15:-0.40239 16:-0.430769 17:-0.437262 18:-0.443609 19:-0.479853 20:-0.472527 21:-0.468531 22:-0.452632 23:-0.477352 24:-0.496552 25:-0.465347 26:-0.536913 27:-0.491749 28:-0.524752 29:-0.541935 30:-0.493506 31:-0.517915 32:-0.47541 
-0 -0 -2 2 1:0.386667 2:0.270833 3:0.137931 4:0.0534351 5:-0.047619 6:-0.111111 7:-0.165714 8:-0.202128 9:-0.227723 10:-0.255814 11:-0.252252 12:-0.295652 13:-0.325 14:-0.358025 15:-0.354582 16:-0.384615 17:-0.38403 18:-0.398496 19:-0.435897 20:-0.406593 21:-0.440559 22:-0.438596 23:-0.43554 24:-0.468966 25:-0.471947 26:-0.489933 27:-0.491749 28:-0.50495 29:-0.529032 30:-0.493506 31:-0.491857 32:-0.495082 
-0 -0 -0 2 1:0.2 2:0.125 3:0.103448 4:-0.0381679 5:-0.129252 6:-0.123457 7:-0.234286 8:-0.265957 9:-0.257426 10:-0.237209 11:-0.324324 12:-0.321739 13:-0.358333 14:-0.390947 15:-0.354582 16:-0.361538 17:-0.429658 18:-0.383459 19:-0.465201 20:-0.435897 21:-0.468531 22:-0.459649 23:-0.43554 24:-0.468966 25:-0.49835 26:-0.47651 27:-0.531353 28:-0.491749 29:-0.496774 30:-0.493506 31:-0.504886 32:-0.47541 
-0 -0 -0 2 1:0.226667 2:0.1875 3:0.0862069 4:-0.00763359 5:-0.0884354 6:-0.17284 7:-0.2 8:-0.234043 9:-0.267327 10:-0.283721 11:-0.297297 12:-0.330435 13:-0.341667 14:-0.366255 15:-0.36255 16:-0.392308 17:-0.39924 18:-0.406015 19:-0.443223 20:-0.443223 21:-0.433566 22:-0.438596 23:-0.456446 24:-0.462069 25:-0.465347 26:-0.496644 27:-0.49835 28:-0.511551 29:-0.529032 30:-0.506494 31:-0.504886 32:-0.508197 
-0 -0 -2 2 1:0.28 2:0.1875 3:0.0689655 4:-0.00763359 5:-0.102041 6:-0.17284 7:-0.211429 8:-0.234043 9:-0.257426 10:-0.283721 11:-0.297297 12:-0.321739 13:-0.341667 14:-0.358025 15:-0.36255 16:-0.384615 17:-0.376426 18:-0.368421 19:-0.413919 20:-0.399267 21:-0.391608 22:-0.410526 23:-0.428571 24:-0.441379 25:-0.412541 26:-0.469799 27:-0.458746 28:-0.478548 29:-0.503226 30:-0.441558 31:-0.472313 32:-0.468852 
-1.217200878427853 -0 -2 -2 1:0.28 2:0.208333 3:0.0862069 4:0.00763359 5:-0.102041 6:-0.17284 7:-0.211429 8:-0.265957 9:-0.316832 10:-0.32093 11:-0.333333 12:-0.373913 13:-0.391667 14:-0.390947 15:-0.40239 16:-0.415385 17:-0.429658 18:-0.428571 19:-0.472527 20:-0.457875 21:-0.48951 22:-0.452632 23:-0.477352 24:-0.489655 25:-0.557756 26:-0.651007 27:-0.590759 28:-0.656766 29:-0.683871 30:-0.662338 31:-0.661238 32:-0.632787 
-0 -1.429472770525987 -0 -2 1:0.04 2:-0.0208333 3:-0.189655 4:-0.236641 5:-0.306122 6:-0.395062 7:-0.405714 8:-0.43617 9:-0.455446 10:-0.469767 11:-0.477477 12:-0.495652 13:-0.525 14:-0.547325 15:-0.545817 16:-0.561538 17:-0.581749 18:-0.586466 19:-0.59707 20:-0.604396 21:-0.601399 22:-0.621053 23:-0.630662 24:-0.606897 25:-0.617162 26:-0.66443 27:-0.663366 28:-0.669967 29:-0.683871 30:-0.668831 31:-0.661238 32:-0.659016 
-0 -2 -0 -0 1:-0.226667 2:-0.229167 3:-0.327586 4:-0.0992366 5:-0.442177 6:-0.45679 7:-0.474286 8:-0.510638 9:-0.485149 10:-0.525581 11:-0.522523 12:-0.530435 13:-0.558333 14:-0.580247 15:-0.537849 16:-0.546154 17:-0.612167 18:-0.56391 19:-0.641026 20:-0.611722 21:-0.636364 22:-0.62807 23:-0.595819 24:-0.634483 25:-0.656766 26:-0.637584 27:-0.69637 28:-0.650165 29:-0.651613 30:-0.649351 31:-0.661238 32:-0.632787 
-0 -2 -0 -2 1:-0.0933333 2:-0.166667 3:-0.241379 4:-0.312977 5:-0.37415 6:-0.444444 7:-0.451429 8:-0.468085 9:-0.485149 10:-0.497674 11:-0.513514 12:-0.521739 13:-0.541667 14:-0.555556 15:-0.553785 16:-0.569231 17:-0.581749 18:-0.578947 19:-0.611722 20:-0.611722 21:-0.601399 22:-0.607018 23:-0.623693 24:-0.627586 25:-0.623762 26:-0.651007 27:-0.656766 28:-0.663366 29:-0.670968 30:-0.655844 31:-0.667752 32:-0.672131 
-0 -0 -0 -2 1:-0.0666667 2:-0.145833 3:-0.241379 4:-0.29771 5:-0.360544 6:-0.419753 7:-0.451429 8:-0.457447 9:-0.475248 10:-0.488372 11:-0.486486 12:-0.504348 13:-0.525 14:-0.530864 15:-0.52988 16:-0.546154 17:-0.536122 18:-0.526316 19:-0.56044 20:-0.545788 21:-0.552448 22:-0.529825 23:-0.567944 24:-0.572414 25:-0.570957 26:-0.543624 27:-0.59736 28:-0.60396 29:-0.632258 30:-0.62987 31:-0.609121 32:-0.580328 
-0 -2 -0 -0.2523709164708511 1:-0.0666667 2:-0.145833 3:-0.224138 4:-0.29771 5:-0.360544 6:-0.419753 7:-0.474286 8:-0.5 9:-0.524752 10:-0.516279 11:-0.54955 12:-0.556522 13:-0.583333 14:-0.604938 15:-0.577689 16:-0.6 17:-0.589354 18:-0.609023 19:-0.641026 20:-0.604396 21:-0.615385 22:-0.614035 23:-0.651568 24:-0.627586 25:-0.617162 26:-0.657718 27:-0.617162 28:-0.676568 29:-0.658065 30:-0.571429 31:-0.661238 32:-0.62623 
-0 -0 -0 -2 1:0.173333 3:-0.0862069 4:-0.114504 5:-0.265306 6:-0.345679 7:-0.371429 8:-0.393617 9:-0.405941 10:-0.413953 11:-0.45045 12:-0.46087 13:-0.491667 14:-0.530864 15:-0.458167 16:-0.523077 17:-0.505703 18:-0.541353 19:-0.582418 20:-0.589744 21:-0.58042 22:-0.578947 23:-0.595819 24:-0.606897 25:-0.59736 26:-0.624161 27:-0.630363 28:-0.643564 29:-0.651613 30:-0.636364 31:-0.628664 32:-0.62623 
-0 -0 -0 -2 1:-0.0933333 2:-0.145833 3:-0.155172 4:-0.29771 5:-0.360544 6:-0.382716 7:-0.44 8:-0.446809 9:-0.405941 10:-0.47907 11:-0.378378 12:-0.478261 13:-0.508333 14:-0.539095 15:-0.498008 16:-0.507692 17:-0.56654 18:-0.526316 19:-0.604396 20:-0.575092 21:-0.594406 22:-0.592982 23:-0.560976 24:-0.606897 25:-0.623762 26:-0.597315 27:-0.656766 28:-0.617162 29:-0.619355 30:-0.623377 31:-0.628664 32:-0.6 
-0 -0 -0 -2 1:0.0133333 2:-0.0833333 3:-0.172414 4:-0.251908 5:-0.319728 6:-0.382716 7:-0.405714 8:-0.414894 9:-0.445545 10:-0.460465 11:-0.477477 12:-0.486957 13:-0.5 14:-0.522634 15:-0.521912 16:-0.530769 17:-0.551331 18:-0.548872 19:-0.582418 20:-0.582418 21:-0.573427 22:-0.578947 23:-0.602787 24:-0.606897 25:-0.590759 26:-0.630872 27:-0.636964 28:-0.643564 29:-0.658065 30:-0.642857 31:-0.641694 32:-0.672131 
-0 -0 -1.506852801114629 -2 1:0.04 2:-0.0833333 3:-0.172414 4:-0.236641 5:-0.319728 6:-0.382716 7:-0.405714 8:-0.414894 9:-0.435644 10:-0.451163 11:-0.459459 12:-0.478261 13:-0.5 14:-0.506173 15:-0.474104 16:-0.507692 17:-0.505703 18:-0.496241 19:-0.531136 20:-0.52381 21:-0.531469 22:-0.515789 23:-0.54007 24:-0.544828 25:-0.544554 26:-0.583893 27:-0.584158 28:-0.610561 29:-0.593548 30:-0.584416 31:-0.596091 32:-0.586885 
-0 -2 -0 -2 1:0.0133333 2:-0.0833333 3:-0.172414 4:-0.251908 5:-0.333333 6:-0.432099 7:-0.451429 8:-0.478723 9:-0.49505 10:-0.516279 11:-0.522523 12:-0.556522 13:-0.558333 14:-0.563786 15:-0.545817 16:-0.576923 17:-0.581749 18:-0.571429 19:-0.626374 20:-0.604396 21:-0.587413 22:-0.585965 23:-0.602787 24:-0.606897 25:-0.518152 26:-0.637584 27:-0.617162 28:-0.650165 29:-0.658065 30:-0.564935 31:-0.609121 32:-0.613115 
-0 -0 -2 -2 1:0.173333 2:0.0416667 3:-0.0862069 4:-0.114504 5:-0.238095 6:-0.308642 7:-0.337143 8:-0.37234 9:-0.386139 10:-0.432558 11:-0.432432 12:-0.452174 13:-0.475 14:-0.497942 15:-0.49004 16:-0.476923 17:-0.528517 18:-0.526316 19:-0.56044 20:-0.56044 21:-0.545455 22:-0.550877 23:-0.58885 24:-0.586207 25:-0.584158 26:-0.610738 27:-0.610561 28:-0.623762 29:-0.63871 30:-0.616883 31:-0.609121 32:-0.613115 
