svm_type c_svc
kernel_type rbf
gamma 0.125
nr_class 6
total_sv 123
rho 0.349874 0.131395 -0.0150018 0.18279 -0.269723 -1.31633 -3.56422 -1.87401 -5.67059 -0.817031 0.841912 0.815692 1.2014 1.00494 -5.76012
label 0 1 2 3 4 5
nr_sv 5 17 27 31 31 12
SV
0.1119885790295675 0 0 0 0 1:-0.602015 2:-0.41954 3:-0.24159 4:-0.0987654 5:-0.0151976 6:0.11465 7:0.16208 8:0.27619 9:0.361564 10:0.39185 11:0.42236 12:-0.914536 13:0.95082 14:0.984064 15:0.992248 16:0.940075 17:0.985294 18:0.992674 19:1 20:0.958333 21:0.927152 22:0.993127 23:0.927632 24:0.916667 25:0.942308 26:0.886792 27:0.899054 28:0.905956 29:0.843373 30:0.920732 31:0.915916 32:0.955272 
1.230703112568357 1.018512533312858 0.8836596998184209 1.061983909269809 0.6535293872597328 1:1 2:1 3:1 4:1 5:1 6:1 7:1 8:1 9:1 10:1 11:1 12:1 13:0.819672 14:0.840637 15:0.891473 16:0.850187 17:0.852941 18:0.948718 19:0.879859 20:0.9375 21:0.834437 22:0.958763 23:0.953947 24:0.846154 25:0.878205 26:0.918239 27:0.962145 28:0.981191 29:0.86747 30:0.865854 31:0.855856 32:1 
0 0.09554849912500195 0.2247681533330604 0 0.2325109224024032 1:-0.622166 2:-0.425287 3:-0.29052 4:-0.135802 5:-0.0516717 6:0.0828025 7:0.137615 8:0.263492 9:0.387622 10:0.38558 11:0.42236 12:-0.914909 13:0.942623 14:1 15:0.976744 16:0.910112 17:0.985294 18:1 19:0.985866 20:1 21:1 22:1 23:0.940789 24:0.903846 25:0.955128 26:0.767296 27:1 28:0.905956 29:0.861446 30:0.890244 31:0.87988 32:0.99361 
1.253795039444061 0 0 0 0 1:-0.632242 2:-0.477011 3:-0.321101 4:-0.197531 5:-0.12462 6:-0.0127389 7:0.0336391 8:0.136508 9:0.205212 10:0.241379 11:0.26087 12:-0.922747 13:0.770492 14:0.808765 15:0.736434 16:0.722846 17:0.794118 18:0.81685 19:0.830389 20:0.798611 21:0.781457 22:0.828179 23:0.789474 24:0.794872 25:0.814103 26:0.798742 27:0.810726 28:0.805643 29:0.674699 30:0.75 31:0.813814 32:0.808307 
0.8646559994973911 1.097757615844415 0.7716713680025169 1.319002622052833 0.4759045039525023 1:-0.627204 2:-0.477011 3:-0.321101 4:-0.185185 5:-0.191489 6:-0.0764331 7:-0.0397554 8:0.0666667 9:0.120521 10:0.153605 11:0.186335 12:-0.927972 13:0.663934 14:0.697211 15:0.666667 16:0.640449 17:0.727941 18:0.721612 19:0.759717 20:0.743056 21:0.768212 22:0.773196 23:0.736842 24:0.737179 25:0.884615 26:0.72327 27:0.772871 28:0.761755 29:0.692771 30:0.768293 31:0.795796 32:0.795527 
-1.761158413024982 2.163127561625265 0 0 0 1:-0.612091 2:-0.41954 3:-0.278287 4:-0.141975 5:-0.0516717 6:0.0828025 7:0.131498 8:0.238095 9:0.32899 10:0.38558 11:0.447205 12:-0.914536 13:0.942623 14:0.984064 15:0.914729 16:0.917603 17:0.970588 18:0.956044 19:0.915194 20:0.944444 21:0.887417 22:0.958763 23:0.894737 24:0.878205 25:0.865385 26:0.849057 27:0.0788644 28:-0.0219436 29:-0.138554 30:-0.146341 31:-0.183183 32:-0.220447 
-0.352203094449276 128 0 0 0 1:-0.753149 2:-0.649425 3:-0.541284 4:-0.462963 5:-0.428571 6:-0.388535 7:-0.406728 8:-0.390476 9:-0.394137 10:-0.410658 11:-0.409938 12:-0.965665 13:-0.204918 14:-0.211155 15:-0.271318 16:-0.220974 17:-0.242647 18:-0.245421 19:-0.250883 20:-0.256944 21:-0.258278 22:-0.250859 23:-0.263158 24:-0.294872 25:-0.282051 26:-0.301887 27:-0.287066 28:-0.297806 29:-0.331325 30:-0.323171 31:-0.309309 32:-0.309904 
-0 124.0265236419952 0 0 0 1:-0.768262 2:-0.678161 3:-0.602446 4:-0.512346 5:-0.50152 6:-0.458599 7:-0.455657 8:-0.434921 9:-0.400651 10:-0.38558 11:-0.434783 12:-0.966412 13:-0.270492 14:-0.298805 15:-0.317829 16:-0.325843 17:-0.352941 18:-0.326007 19:-0.363958 20:-0.375 21:-0.403974 22:-0.408935 23:-0.355263 24:-0.378205 25:-0.429487 26:-0.352201 27:-0.432177 28:-0.347962 29:-0.385542 30:-0.371951 31:-0.369369 32:-0.392971 
-0 30.89062610450433 128 0 0 1:-0.803526 2:-0.729885 3:-0.663609 4:-0.592593 5:-0.56231 6:-0.522293 7:-0.529052 8:-0.511111 9:-0.485342 10:-0.510972 11:-0.515528 12:-0.970517 13:-0.368852 14:-0.386454 15:-0.379845 16:-0.370787 17:-0.419118 18:-0.347985 19:-0.385159 20:-0.388889 21:-0.430464 22:-0.436426 23:-0.381579 24:-0.397436 25:-0.448718 26:-0.396226 27:-0.463722 28:-0.347962 29:-0.415663 30:-0.414634 31:-0.429429 32:-0.444089 
-0 128 128 0 0 1:-0.81864 2:-0.747126 3:-0.663609 4:-0.598765 5:-0.56231 6:-0.535032 7:-0.51682 8:-0.498413 9:-0.491857 10:-0.485893 11:-0.490683 12:-0.970144 13:-0.336066 14:-0.36255 15:-0.410853 16:-0.430712 17:-0.411765 18:-0.406593 19:-0.420495 20:-0.423611 21:-0.437086 22:-0.450172 23:-0.434211 24:-0.429487 25:-0.461538 26:-0.433962 27:-0.451104 28:-0.429467 29:-0.445783 30:-0.408537 31:-0.411411 32:-0.43131 
-0 58.05463152351026 0 0 0 1:-0.778338 2:-0.683908 3:-0.608563 4:-0.54321 5:-0.507599 6:-0.471338 7:-0.455657 8:-0.434921 9:-0.42671 10:-0.416928 11:-0.42236 12:-0.966785 13:-0.221311 14:-0.23506 15:-0.294574 16:-0.333333 17:-0.301471 18:-0.296703 19:-0.300353 20:-0.3125 21:-0.344371 22:-0.367698 23:-0.355263 24:-0.371795 25:-0.371795 26:-0.389937 27:-0.381703 28:-0.410658 29:-0.427711 30:-0.402439 31:-0.393393 32:-0.41853 
-0.4976034977716515 3.540423734185953 1.839888125252906 0 0 1:-0.63728 2:-0.465517 3:-0.321101 4:-0.179012 5:-0.0942249 6:0.0382166 7:0.0825688 8:0.187302 9:0.289902 10:0.291536 11:0.31677 12:-0.916402 13:0.860656 14:0.848606 15:0.751938 16:-0.977528 17:-1 18:-0.970696 19:-0.943463 20:-0.979167 21:-1 22:-0.993127 23:-0.894737 24:-0.871795 25:-0.897436 26:-0.779874 27:-0.804416 28:-0.736677 29:-0.819277 30:-0.878049 31:-0.927928 32:-0.968051 
-0.5379537453160597 0 0 0 0 1:-0.959698 2:-0.982759 3:-0.969419 4:-0.95679 5:-0.957447 6:-0.961783 7:-0.963303 8:-0.974603 9:-0.980456 10:-0.968652 11:-0.981366 12:-1 13:-1 14:-0.984064 15:-1 16:-1 17:-0.992647 18:-1 19:-1 20:-1 21:-0.980132 22:-1 23:-1 24:-1 25:-1 26:-1 27:-1 28:-1 29:-1 30:-1 31:-1 32:-0.99361 
-0 0 0 19.8438907229936 0 1:-0.949622 2:-0.965517 3:-0.938838 4:-0.901235 5:-0.902736 6:-0.866242 7:-0.896024 8:-0.904762 9:-0.90228 10:-0.899687 11:-0.913043 12:-0.995148 13:-0.901639 14:-0.896414 15:-0.922481 16:-0.857678 17:-0.897059 18:-0.875458 19:-0.886926 20:-0.881944 21:-0.89404 22:-0.917526 23:-0.835526 24:-0.891026 25:-0.923077 26:-0.90566 27:-0.930599 28:-0.880878 29:-0.783133 30:-0.908537 31:-0.90991 32:-0.968051 
-0 53.48678050131897 26.94775101183505 128 78.72392928015714 1:-0.919395 2:-0.931034 3:-0.902141 4:-0.876543 5:-0.87234 6:-0.859873 7:-0.865443 8:-0.860317 9:-0.863192 10:-0.868339 11:-0.875776 12:-0.993282 13:-0.811475 14:-0.800797 15:-0.868217 16:-0.872659 17:-0.860294 18:-0.831502 19:-0.830389 20:-0.847222 21:-0.847682 22:-0.890034 23:-0.855263 24:-0.858974 25:-0.807692 26:-0.849057 27:-0.899054 28:-0.868339 29:-0.885542 30:-0.871951 31:-0.87988 32:-0.904153 
-0 0 0 15.35474449247262 0 1:-0.904282 2:-0.867816 3:-0.902141 4:-0.888889 5:-0.890578 6:-0.898089 7:-0.859327 8:-0.904762 9:-0.90228 10:-0.912226 11:-0.931677 12:-0.996268 13:-0.918033 14:-0.920319 15:-0.937984 16:-0.932584 17:-0.919118 18:-0.897436 19:-0.90106 20:-0.902778 21:-0.89404 22:-0.924399 23:-0.894737 24:-0.884615 25:-0.916667 26:-0.899371 27:-0.917981 28:-0.893417 29:-0.903614 30:-0.878049 31:-0.897898 32:-0.942492 
-0.2863849447695593 9.737790749324034 0 0 0 1:-0.617128 2:-0.454023 3:-0.314985 4:-0.135802 5:-0.118541 6:-0.00636943 7:0.0336391 8:0.130159 9:0.205212 10:0.241379 11:0.267081 12:-0.922374 13:0.786885 14:0.848606 15:0.72093 16:0.730337 17:0.801471 18:0.794872 19:0.787986 20:0.229167 21:-0.0728477 22:-0.161512 23:-0.263158 24:-0.320513 25:-0.352564 26:-0.352201 27:-0.375394 28:-0.322884 29:-0.343373 30:-0.341463 31:-0.351351 32:-0.405751 
-0.02583903520784801 0 0 0 0 1:-0.838791 2:-0.781609 3:-0.688073 4:-0.617284 5:-0.586626 6:-0.541401 7:-0.535168 8:-0.511111 9:-0.478827 10:-0.485893 11:-0.490683 12:-0.968651 13:-0.278689 14:-0.306773 15:-0.294574 16:-0.273408 17:-0.316176 18:-0.282051 19:-0.300353 20:-0.305556 21:-0.337748 22:-0.32646 23:-0.263158 24:-0.288462 25:-0.346154 26:-0.295597 27:-0.356467 28:-0.304075 29:-0.301205 30:-0.335366 31:-0.369369 32:-0.405751 
-0 0 0 26.6322732107919 17.6001781365223 1:-0.86398 2:-0.821839 3:-0.761468 4:-0.722222 5:-0.68997 6:-0.656051 7:-0.639144 8:-0.612698 9:-0.602606 10:-0.573668 11:-0.583851 12:-0.975742 13:-0.418033 14:-0.426295 15:-0.457364 16:-0.475655 17:-0.448529 18:-0.428571 19:-0.40636 20:-0.388889 21:-0.437086 22:-0.429553 23:-0.427632 24:-0.410256 25:-0.435897 26:-0.320755 27:-0.444795 28:-0.398119 29:-0.463855 30:-0.420732 31:-0.405405 32:-0.463259 
-0 128 0 0 0 1:-0.81864 2:-0.764368 3:-0.700306 4:-0.62963 5:-0.610942 6:-0.55414 7:-0.565749 8:-0.555556 9:-0.550489 10:-0.53605 11:-0.534161 12:-0.972756 13:-0.385246 14:-0.386454 15:-0.426357 16:-0.438202 17:-0.411765 18:-0.377289 19:-0.392226 20:-0.395833 21:-0.403974 22:-0.388316 23:-0.381579 24:-0.384615 25:-0.403846 26:-0.45283 27:-0.432177 28:-0.429467 29:-0.451807 30:-0.432927 31:-0.429429 32:-0.469649 
-0 65.48016058207726 0 0 0 1:-0.763224 2:-0.729885 3:-0.669725 4:-0.574074 5:-0.586626 6:-0.55414 7:-0.541284 8:-0.52381 9:-0.517915 10:-0.479624 11:-0.503106 12:-0.971636 13:-0.319672 14:-0.36255 15:-0.426357 16:-0.41573 17:-0.375 18:-0.377289 19:-0.363958 20:-0.381944 21:-0.397351 22:-0.408935 23:-0.401316 24:-0.416667 25:-0.416667 26:-0.415094 27:-0.40694 28:-0.410658 29:-0.445783 30:-0.390244 31:-0.411411 32:-0.444089 
-0 128 103.2837720731341 0 0 1:-0.808564 2:-0.758621 3:-0.688073 4:-0.62963 5:-0.598784 6:-0.573248 7:-0.559633 8:-0.542857 9:-0.52443 10:-0.510972 11:-0.52795 12:-0.97201 13:-0.368852 14:-0.370518 15:-0.403101 16:-0.41573 17:-0.382353 18:-0.369963 19:-0.363958 20:-0.381944 21:-0.410596 22:-0.436426 23:-0.407895 24:-0.397436 25:-0.429487 26:-0.427673 27:-0.444795 28:-0.429467 29:-0.487952 30:-0.439024 31:-0.423423 32:-0.488818 
-0 -128 0 0 0 1:-0.853904 2:-0.781609 3:-0.712538 4:-0.604938 5:-0.586626 6:-0.547771 7:-0.529052 8:-0.504762 9:-0.491857 10:-0.479624 11:-0.490683 12:-0.96977 13:-0.327869 14:-0.330677 15:-0.372093 16:-0.370787 17:-0.352941 18:-0.347985 19:-0.342756 20:-0.361111 21:-0.370861 22:-0.381443 23:-0.381579 24:-0.378205 25:-0.403846 26:-0.396226 27:-0.425868 28:-0.373041 29:-0.415663 30:-0.371951 31:-0.375375 32:-0.41853 
-0.5141849394671306 -0 0 0 0 1:-0.813602 2:-0.712644 3:-0.51682 4:-0.283951 5:-0.0516717 6:0.0700637 7:0.11315 8:0.219048 9:0.322476 10:0.316614 11:0.347826 12:-0.919388 13:-0.0655738 14:-0.426295 15:-0.472868 16:-0.475655 17:-0.492647 18:-0.435897 19:-0.434629 20:-0.395833 21:-0.417219 22:-0.37457 23:-0.276316 24:-0.205128 25:-0.160256 26:0.0503145 27:-0.0914826 28:-0.0344828 29:-0.108434 30:-0.109756 31:-0.159159 32:-0.175719 
-0 -45.14270627096816 49.63741633587028 -0 0 1:-0.732997 2:-0.62069 3:-0.522936 4:-0.450617 5:-0.410334 6:-0.356688 7:-0.351682 8:-0.314286 9:-0.302932 10:-0.310345 11:-0.322981 12:-0.96044 13:-0.139344 14:-0.346614 15:-0.395349 16:-0.41573 17:-0.375 18:-0.355311 19:-0.314488 20:-0.354167 21:-0.324503 22:-0.292096 23:-0.269737 24:-0.269231 25:-0.346154 26:-0.36478 27:-0.388013 28:-0.373041 29:-0.427711 30:-0.396341 31:-0.375375 32:-0.405751 
-0 -71.10538530388955 0 0 0 1:-0.803526 2:-0.706897 3:-0.651376 4:-0.518519 5:-0.489362 6:-0.44586 7:-0.412844 8:-0.409524 9:-0.400651 10:-0.39185 11:-0.403727 12:-0.965292 13:-0.196721 14:-0.23506 15:-0.426357 16:-0.535581 17:-0.507353 18:-0.494505 19:-0.477032 20:-0.479167 21:-0.496689 22:-0.491409 23:-0.473684 24:-0.480769 25:-0.49359 26:-0.496855 27:-0.495268 28:-0.492163 29:-0.542169 30:-0.47561 31:-0.477477 32:-0.514377 
-0 -62.82086196496449 128 17.93962789707341 0 1:-0.793451 2:-0.712644 3:-0.633028 4:-0.574074 5:-0.556231 6:-0.528662 7:-0.541284 8:-0.536508 9:-0.530945 10:-0.548589 11:-0.559006 12:-0.975369 13:-0.45082 14:-0.426295 15:-0.457364 16:-0.483146 17:-0.455882 18:-0.450549 19:-0.462898 20:-0.465278 21:-0.476821 22:-0.484536 23:-0.486842 24:-0.5 25:-0.49359 26:-0.496855 27:-0.495268 28:-0.498433 29:-0.518072 30:-0.5 31:-0.513514 32:-0.533546 
-0 -128 109.2327110253325 0 0 1:-0.833753 2:-0.775862 3:-0.718654 4:-0.660494 5:-0.629179 6:-0.598726 7:-0.584098 8:-0.568254 9:-0.570033 10:-0.561129 11:-0.57764 12:-0.976488 13:-0.434426 14:-0.450199 15:-0.496124 16:-0.483146 17:-0.477941 18:-0.457875 19:-0.45583 20:-0.486111 21:-0.496689 22:-0.512027 23:-0.513158 24:-0.5 25:-0.525641 26:-0.515723 27:-0.526814 28:-0.504702 29:-0.524096 30:-0.481707 31:-0.471471 32:-0.501597 
-0 -0 128 128 0 1:-0.833753 2:-0.775862 3:-0.712538 4:-0.660494 5:-0.641337 6:-0.611465 7:-0.620795 8:-0.612698 9:-0.583062 10:-0.611285 11:-0.621118 12:-0.976861 13:-0.5 14:-0.52988 15:-0.527132 16:-0.520599 17:-0.544118 18:-0.501832 19:-0.561837 20:-0.555556 21:-0.589404 22:-0.601375 23:-0.532895 24:-0.551282 25:-0.602564 26:-0.553459 27:-0.608833 28:-0.54232 29:-0.542169 30:-0.54878 31:-0.54955 32:-0.584665 
-0 -14.52121640379585 128 0 0 1:-0.81864 2:-0.758621 3:-0.69419 4:-0.62963 5:-0.592705 6:-0.573248 7:-0.553517 8:-0.549206 9:-0.537459 10:-0.529781 11:-0.552795 12:-0.972756 13:-0.409836 14:-0.386454 15:-0.449612 16:-0.453184 17:-0.433824 18:-0.435897 19:-0.434629 20:-0.451389 21:-0.483444 22:-0.512027 23:-0.480263 24:-0.480769 25:-0.512821 26:-0.522013 27:-0.533123 28:-0.548589 29:-0.560241 30:-0.518293 31:-0.537538 32:-0.591054 
-0 -0 128 0 0 1:-0.828715 2:-0.770115 3:-0.712538 4:-0.666667 5:-0.647416 6:-0.624204 7:-0.620795 8:-0.6 9:-0.589577 10:-0.592476 11:-0.596273 12:-0.977235 13:-0.483607 14:-0.482072 15:-0.527132 16:-0.550562 17:-0.522059 18:-0.516484 19:-0.512367 20:-0.506944 21:-0.529801 22:-0.532646 23:-0.526316 24:-0.532051 25:-0.532051 26:-0.566038 27:-0.564669 28:-0.561129 29:-0.596386 30:-0.573171 31:-0.573574 32:-0.591054 
-0 -128 128 0 0 1:-0.828715 2:-0.781609 3:-0.712538 4:-0.660494 5:-0.641337 6:-0.624204 7:-0.608563 8:-0.612698 9:-0.609121 10:-0.598746 11:-0.608696 12:-0.976861 13:-0.483607 14:-0.49004 15:-0.51938 16:-0.543071 17:-0.507353 18:-0.501832 19:-0.484099 20:-0.486111 21:-0.503311 22:-0.512027 23:-0.493421 24:-0.49359 25:-0.50641 26:-0.509434 27:-0.520505 28:-0.504702 29:-0.542169 30:-0.5 31:-0.501502 32:-0.552716 
-0 -0 128 128 0 1:-0.838791 2:-0.787356 3:-0.724771 4:-0.67284 5:-0.665653 6:-0.636943 7:-0.64526 8:-0.657143 9:-0.654723 10:-0.667712 11:-0.68323 12:-0.980967 13:-0.590164 14:-0.609562 15:-0.620155 16:-0.602996 17:-0.625 18:-0.575092 19:-0.60424 20:-0.597222 21:-0.655629 22:-0.635739 23:-0.572368 24:-0.602564 25:-0.576923 26:-0.559748 27:-0.640379 28:-0.548589 29:-0.566265 30:-0.573171 31:-0.585586 32:-0.527157 
-0.8142452644869813 -1.734860433696354 0 1.165518526641404 1.04018261099261 1:-0.919395 2:-0.936782 3:-0.920489 4:-0.895062 5:-0.902736 6:-0.910828 7:-0.902141 8:-0.91746 9:-0.921824 10:-0.912226 11:-0.919255 12:-0.995522 13:-0.877049 14:-0.808765 15:-0.751938 16:-0.625468 17:-0.529412 18:0.860806 19:0.929329 20:0.916667 21:0.86755 22:0.945017 23:0.894737 24:0.878205 25:0.24359 26:0.132075 27:0.274448 28:0.109718 29:0.0361446 30:-0.0121951 31:-0.039039 32:-0.0670927 
-0.3338980250252077 -0 0 0 0 1:-0.642317 2:-0.522989 3:-0.425076 4:-0.358025 5:-0.331307 6:-0.292994 7:-0.29052 8:-0.257143 9:-0.237785 10:-0.23511 11:-0.248447 12:-0.955216 13:-0.00819672 14:-0.00398406 15:-0.0542636 16:-0.0861423 17:-0.0588235 18:-0.0695971 19:-0.0954064 20:-0.0902778 21:-0.125828 22:-0.106529 23:-0.125 24:-0.115385 25:-0.134615 26:-0.207547 27:-0.0599369 28:-0.172414 29:-0.174699 30:-0.170732 31:-0.165165 32:-0.188498 
-0 -113.0939202315676 0 0 0 1:-0.677582 2:-0.551724 3:-0.461774 4:-0.401235 5:-0.379939 6:-0.33121 7:-0.351682 8:-0.320635 9:-0.283388 10:-0.291536 11:-0.322981 12:-0.958201 13:-0.0901639 14:-0.131474 15:-0.116279 16:-0.131086 17:-0.161765 18:-0.120879 19:-0.159011 20:-0.166667 21:-0.192053 22:-0.202749 23:-0.157895 24:-0.185897 25:-0.224359 26:-0.169811 27:-0.223975 28:-0.166144 29:-0.204819 30:-0.189024 31:-0.201201 32:-0.252396 
-0 -76.67509318900811 46.99015227500204 0 0 1:-0.662469 2:-0.54023 3:-0.443425 4:-0.37037 5:-0.367781 6:-0.33121 7:-0.33945 8:-0.314286 9:-0.296417 10:-0.297806 11:-0.304348 12:-0.961187 13:-0.147541 14:-0.131474 15:-0.170543 16:-0.191011 17:-0.169118 18:-0.164835 19:-0.187279 20:-0.1875 21:-0.205298 22:-0.202749 23:-0.210526 24:-0.237179 25:-0.224359 26:-0.264151 27:-0.223975 28:-0.241379 29:-0.26506 30:-0.25 31:-0.255255 32:-0.233227 
-0 -71.22756401072103 19.1774533700362 0 0 1:-0.823678 2:-0.764368 3:-0.706422 4:-0.679012 5:-0.653495 6:-0.611465 7:-0.608563 8:-0.6 9:-0.596091 10:-0.579937 11:-0.621118 12:-0.975742 13:-0.467213 14:-0.40239 15:-0.379845 16:-0.355805 17:-0.264706 18:-0.260073 19:-0.279152 20:-0.319444 21:-0.364238 22:-0.340206 23:-0.203947 24:-0.448718 25:-0.487179 26:-0.509434 27:-0.564669 28:-0.54232 29:-0.542169 30:-0.567073 31:-0.525526 32:-0.559105 
-0 -0 128 128 43.65634827140349 1:-0.813602 2:-0.775862 3:-0.688073 4:-0.666667 5:-0.641337 6:-0.617834 7:-0.608563 8:-0.6 9:-0.589577 10:-0.611285 11:-0.627329 12:-0.977608 13:-0.5 14:-0.458167 15:-0.496124 16:-0.565543 17:-0.536765 18:-0.538462 19:-0.540636 20:-0.388889 21:-0.576159 22:-0.580756 23:-0.578947 24:-0.570513 25:-0.583333 26:-0.616352 27:-0.615142 28:-0.598746 29:-0.638554 30:-0.603659 31:-0.621622 32:-0.642173 
-0 -0 128 128 0 1:-0.874055 2:-0.83908 3:-0.804281 4:-0.753086 5:-0.708207 6:-0.681529 7:-0.700306 8:-0.688889 9:-0.680782 10:-0.661442 11:-0.670807 12:-0.980967 13:-0.57377 14:-0.569721 15:-0.596899 16:-0.610487 17:-0.573529 18:-0.567766 19:-0.575972 20:-0.583333 21:-0.602649 22:-0.601375 23:-0.598684 24:-0.583333 25:-0.589744 26:-0.597484 27:-0.589905 28:-0.592476 29:-0.608434 30:-0.597561 31:-0.57958 32:-0.610224 
-0 -0 128 128 128 1:-0.858942 2:-0.821839 3:-0.7737 4:-0.722222 5:-0.702128 6:-0.687898 7:-0.675841 8:-0.644444 9:-0.654723 10:-0.642633 11:-0.670807 12:-0.98022 13:-0.54918 14:-0.553785 15:-0.596899 16:-0.595506 17:-0.566176 18:-0.56044 19:-0.561837 20:-0.583333 21:-0.589404 22:-0.594502 23:-0.598684 24:-0.589744 25:-0.621795 26:-0.610063 27:-0.62776 28:-0.655172 29:-0.674699 30:-0.646341 31:-0.687688 32:-0.72524 
-0 -19.05845658993009 128 0 0 1:-0.86398 2:-0.827586 3:-0.779817 4:-0.728395 5:-0.720365 6:-0.694268 7:-0.69419 8:-0.688889 9:-0.667752 10:-0.680251 11:-0.68323 12:-0.979847 13:-0.540984 14:-0.553785 15:-0.51938 16:-0.535581 17:-0.551471 18:-0.509158 19:-0.540636 20:-0.527778 21:-0.562914 22:-0.553265 23:-0.506579 24:-0.538462 25:-0.570513 26:-0.522013 27:-0.564669 28:-0.492163 29:-0.554217 30:-0.536585 31:-0.573574 32:-0.565495 
-0.5494904193029562 -0 128 128 128 1:-0.86398 2:-0.83908 3:-0.792049 4:-0.771605 5:-0.768997 6:-0.757962 7:-0.749235 8:-0.739683 9:-0.752443 10:-0.730408 11:-0.745342 12:-0.985072 13:-0.672131 14:-0.673307 15:-0.697674 16:-0.722846 17:-0.676471 18:-0.67033 19:-0.646643 20:-0.659722 21:-0.655629 22:-0.66323 23:-0.638158 24:-0.602564 25:-0.679487 26:-0.622642 27:-0.602524 28:-0.630094 29:-0.650602 30:-0.603659 31:-0.615616 32:-0.661342 
-0 -0 128 128 0 1:-0.823678 2:-0.793103 3:-0.749235 4:-0.691358 5:-0.683891 6:-0.66242 7:-0.663609 8:-0.657143 9:-0.661238 10:-0.630094 11:-0.645963 12:-0.980593 13:-0.565574 14:-0.593625 15:-0.604651 16:-0.617978 17:-0.595588 18:-0.589744 19:-0.583039 20:-0.604167 21:-0.596026 22:-0.628866 23:-0.611842 24:-0.602564 25:-0.628205 26:-0.622642 27:-0.621451 28:-0.611285 29:-0.626506 30:-0.603659 31:-0.603604 32:-0.635783 
-0 -0 128 85.28634620233423 0 1:-0.86398 2:-0.83908 3:-0.810398 4:-0.753086 5:-0.738602 6:-0.713376 7:-0.669725 8:-0.688889 9:-0.680782 10:-0.667712 11:-0.664596 12:-0.98022 13:-0.57377 14:-0.553785 15:-0.589147 16:-0.602996 17:-0.566176 18:-0.56044 19:-0.561837 20:-0.5625 21:-0.543046 22:-0.587629 23:-0.572368 24:-0.583333 25:-0.596154 26:-0.610063 27:-0.596215 28:-0.598746 29:-0.608434 30:-0.597561 31:-0.603604 32:-0.629393 
-0 -0 128 128 98.62726521746913 1:-0.858942 2:-0.821839 3:-0.767584 4:-0.728395 5:-0.708207 6:-0.681529 7:-0.669725 8:-0.663492 9:-0.667752 10:-0.661442 11:-0.670807 12:-0.980593 13:-0.57377 14:-0.577689 15:-0.620155 16:-0.617978 17:-0.588235 18:-0.582418 19:-0.575972 20:-0.576389 21:-0.596026 22:-0.601375 23:-0.592105 24:-0.589744 25:-0.615385 26:-0.610063 27:-0.621451 28:-0.605016 29:-0.63253 30:-0.597561 31:-0.597598 32:-0.686901 
-0 -0 128 128 0 1:-0.853904 2:-0.827586 3:-0.7737 4:-0.722222 5:-0.720365 6:-0.687898 7:-0.681957 8:-0.68254 9:-0.654723 10:-0.673981 11:-0.677019 12:-0.980593 13:-0.590164 14:-0.601594 15:-0.581395 16:-0.580524 17:-0.588235 18:-0.531136 19:-0.55477 20:-0.534722 21:-0.569536 22:-0.573883 23:-0.532895 24:-0.551282 25:-0.596154 26:-0.540881 27:-0.602524 28:-0.54232 29:-0.566265 30:-0.54878 31:-0.561562 32:-0.578275 
-0 -0 128 128 128 1:-0.86398 2:-0.833333 3:-0.785933 4:-0.734568 5:-0.714286 6:-0.700637 7:-0.688073 8:-0.688889 9:-0.693811 10:-0.68652 11:-0.720497 12:-0.984325 13:-0.647541 14:-0.625498 15:-0.682171 16:-0.685393 17:-0.661765 18:-0.648352 19:-0.65371 20:-0.673611 21:-0.655629 22:-0.670103 23:-0.651316 24:-0.628205 25:-0.660256 26:-0.672956 27:-0.652997 28:-0.636364 29:-0.650602 30:-0.615854 31:-0.621622 32:-0.654952 
-0 -0 128 128 0 1:-0.823678 2:-0.787356 3:-0.737003 4:-0.697531 5:-0.683891 6:-0.656051 7:-0.651376 8:-0.638095 9:-0.635179 10:-0.630094 11:-0.652174 12:-0.979101 13:-0.532787 14:-0.521912 15:-0.55814 16:-0.580524 17:-0.551471 18:-0.545788 19:-0.547703 20:-0.5625 21:-0.576159 22:-0.580756 23:-0.559211 24:-0.570513 25:-0.583333 26:-0.597484 27:-0.589905 28:-0.598746 29:-0.578313 30:-0.585366 31:-0.57958 32:-0.616613 
-0 -0 -56.13994861456554 0 0 1:-0.788413 2:-0.741379 3:-0.688073 4:-0.635802 5:-0.617021 6:-0.592357 7:-0.590214 8:-0.574603 9:-0.583062 10:-0.586207 11:-0.590062 12:-0.974995 13:-0.483607 14:-0.498008 15:-0.534884 16:-0.543071 17:-0.522059 18:-0.509158 19:-0.5053 20:-0.555556 21:-0.562914 22:-0.573883 23:-0.552632 24:-0.519231 25:-0.519231 26:-0.509434 27:-0.545741 28:-0.561129 29:-0.614458 30:-0.585366 31:-0.591592 32:-0.642173 
-0 -0 -128 128 0 1:-0.853904 2:-0.810345 3:-0.743119 4:-0.703704 5:-0.68997 6:-0.66242 7:-0.663609 8:-0.663492 9:-0.635179 10:-0.661442 11:-0.670807 12:-0.98134 13:-0.57377 14:-0.569721 15:-0.589147 16:-0.588015 17:-0.544118 18:-0.545788 19:-0.547703 20:-0.5625 21:-0.582781 22:-0.580756 23:-0.572368 24:-0.564103 25:-0.583333 26:-0.578616 27:-0.577287 28:-0.573668 29:-0.614458 30:-0.591463 31:-0.591592 32:-0.635783 
-0 -0 -128 128 62.43102901415467 1:-0.838791 2:-0.793103 3:-0.730887 4:-0.691358 5:-0.677812 6:-0.66242 7:-0.675841 8:-0.669841 9:-0.667752 10:-0.667712 11:-0.677019 12:-0.982086 13:-0.614754 14:-0.593625 15:-0.627907 16:-0.64794 17:-0.610294 18:-0.611722 19:-0.611307 20:-0.611111 21:-0.622517 22:-0.61512 23:-0.618421 24:-0.615385 25:-0.634615 26:-0.654088 27:-0.659306 28:-0.630094 29:-0.686747 30:-0.670732 31:-0.651652 32:-0.654952 
-0 -0 -128 128 0 1:-0.833753 2:-0.787356 3:-0.737003 4:-0.685185 5:-0.665653 6:-0.643312 7:-0.639144 8:-0.631746 9:-0.628664 10:-0.611285 11:-0.614907 12:-0.977235 13:-0.491803 14:-0.505976 15:-0.527132 16:-0.543071 17:-0.522059 18:-0.516484 19:-0.519435 20:-0.520833 21:-0.562914 22:-0.56701 23:-0.552632 24:-0.538462 25:-0.557692 26:-0.559748 27:-0.55205 28:-0.554859 29:-0.590361 30:-0.567073 31:-0.60961 32:-0.623003 
-0 -0 -128 128 0 1:-0.874055 2:-0.844828 3:-0.798165 4:-0.759259 5:-0.75076 6:-0.713376 7:-0.724771 8:-0.726984 9:-0.700326 10:-0.717868 11:-0.720497 12:-0.982833 13:-0.647541 14:-0.665339 15:-0.651163 16:-0.632959 17:-0.639706 18:-0.582418 19:-0.611307 20:-0.611111 21:-0.642384 22:-0.649485 23:-0.572368 24:-0.583333 25:-0.653846 26:-0.584906 27:-0.646688 28:-0.586207 29:-0.596386 30:-0.597561 31:-0.603604 32:-0.629393 
-0 -0 -0 128 0 1:-0.798489 2:-0.752874 3:-0.718654 4:-0.67284 5:-0.665653 6:-0.643312 7:-0.639144 8:-0.619048 9:-0.635179 10:-0.630094 11:-0.645963 12:-0.979847 13:-0.557377 14:-0.561753 15:-0.596899 16:-0.602996 17:-0.580882 18:-0.575092 19:-0.568905 20:-0.583333 21:-0.589404 22:-0.608247 23:-0.598684 24:-0.589744 25:-0.628205 26:-0.610063 27:-0.602524 28:-0.586207 29:-0.626506 30:-0.597561 31:-0.60961 32:-0.654952 
-0 -0 -128 128 0 1:-0.838791 2:-0.798851 3:-0.761468 4:-0.703704 5:-0.683891 6:-0.66879 7:-0.657492 8:-0.650794 9:-0.648208 10:-0.630094 11:-0.639752 12:-0.979474 13:-0.557377 14:-0.537849 15:-0.573643 16:-0.588015 17:-0.580882 18:-0.553114 19:-0.55477 20:-0.5625 21:-0.589404 22:-0.587629 23:-0.572368 24:-0.557692 25:-0.576923 26:-0.578616 27:-0.570978 28:-0.567398 29:-0.596386 30:-0.567073 31:-0.567568 32:-0.578275 
-0 -0 -128 128 97.37275883137036 1:-0.833753 2:-0.775862 3:-0.712538 4:-0.67284 5:-0.659574 6:-0.643312 7:-0.64526 8:-0.638095 9:-0.628664 10:-0.642633 11:-0.63354 12:-0.979474 13:-0.54918 14:-0.537849 15:-0.565891 16:-0.580524 17:-0.558824 18:-0.553114 19:-0.561837 20:-0.555556 21:-0.589404 22:-0.61512 23:-0.611842 24:-0.641026 25:-0.634615 26:-0.641509 27:-0.640379 28:-0.648903 29:-0.674699 30:-0.664634 31:-0.651652 32:-0.667732 
-0 -0 -128 0 0 1:-0.838791 2:-0.793103 3:-0.749235 4:-0.703704 5:-0.68997 6:-0.66879 7:-0.64526 8:-0.625397 9:-0.628664 10:-0.623824 11:-0.621118 12:-0.977608 13:-0.508197 14:-0.52988 15:-0.55814 16:-0.558052 17:-0.536765 18:-0.52381 19:-0.5053 20:-0.520833 21:-0.529801 22:-0.546392 23:-0.539474 24:-0.532051 25:-0.564103 26:-0.578616 27:-0.583596 28:-0.567398 29:-0.590361 30:-0.567073 31:-0.561562 32:-0.616613 
-0 -0 -128 52.37775306941668 0 1:-0.879093 2:-0.833333 3:-0.785933 4:-0.740741 5:-0.708207 6:-0.694268 7:-0.688073 8:-0.669841 9:-0.654723 10:-0.667712 11:-0.670807 12:-0.980967 13:-0.540984 14:-0.577689 15:-0.55814 16:-0.558052 17:-0.580882 18:-0.516484 19:-0.575972 20:-0.569444 21:-0.589404 22:-0.601375 23:-0.532895 24:-0.564103 25:-0.608974 26:-0.54717 27:-0.621451 28:-0.554859 29:-0.572289 30:-0.567073 31:-0.585586 32:-0.610224 
-0 -0 -0 128 0 1:-0.81864 2:-0.770115 3:-0.724771 4:-0.679012 5:-0.647416 6:-0.643312 7:-0.64526 8:-0.638095 9:-0.615635 10:-0.642633 11:-0.664596 12:-0.977981 13:-0.565574 14:-0.577689 15:-0.581395 16:-0.617978 17:-0.588235 18:-0.582418 19:-0.583039 20:-0.583333 21:-0.609272 22:-0.621993 23:-0.592105 24:-0.589744 25:-0.615385 26:-0.597484 27:-0.621451 28:-0.605016 29:-0.650602 30:-0.634146 31:-0.63964 32:-0.686901 
-0 -0 -128 128 0 1:-0.838791 2:-0.810345 3:-0.755352 4:-0.716049 5:-0.702128 6:-0.687898 7:-0.681957 8:-0.67619 9:-0.680782 10:-0.673981 11:-0.68323 12:-0.982086 13:-0.598361 14:-0.577689 15:-0.620155 16:-0.625468 17:-0.595588 18:-0.589744 19:-0.575972 20:-0.583333 21:-0.589404 22:-0.601375 23:-0.578947 24:-0.576923 25:-0.596154 26:-0.597484 27:-0.577287 28:-0.529781 29:-0.560241 30:-0.536585 31:-0.543544 32:-0.591054 
-0.933858874918489 -5.364014825515981 -1.547203793211575 0.4206647840467905 2.275563357047566 1:-0.647355 2:-0.522989 3:-0.437309 4:-0.37037 5:-0.349544 6:-0.312102 7:-0.321101 8:-0.295238 9:-0.283388 10:-0.241379 11:0.329193 12:-0.919388 13:0.844262 14:0.896414 15:0.860465 16:0.827715 17:0.897059 18:0.882784 19:-0.427562 20:-0.465278 21:-0.496689 22:-0.5189 23:-0.493421 24:-0.467949 25:-0.5 26:-0.490566 27:-0.48265 28:-0.467085 29:-0.46988 30:-0.47561 31:-0.483483 32:-0.527157 
-0 -128 -128 0 0 1:-0.768262 2:-0.701149 3:-0.639144 4:-0.592593 5:-0.580547 6:-0.55414 7:-0.559633 8:-0.542857 9:-0.465798 10:-0.548589 11:-0.552795 12:-0.972383 13:-0.401639 14:-0.434263 15:-0.410853 16:-0.41573 17:-0.441176 18:-0.399267 19:-0.392226 20:-0.416667 21:-0.470199 22:-0.477663 23:-0.421053 24:-0.448718 25:-0.5 26:-0.433962 27:-0.501577 28:-0.429467 29:-0.451807 30:-0.45122 31:-0.471471 32:-0.488818 
-0 -0 -73.47481956298797 0 0 1:-0.72796 2:-0.649425 3:-0.590214 4:-0.549383 5:-0.544073 6:-0.528662 7:-0.529052 8:-0.51746 9:-0.517915 10:-0.517241 11:-0.52795 12:-0.972756 13:-0.393443 14:-0.40239 15:-0.44186 16:-0.453184 17:-0.426471 18:-0.428571 19:-0.427562 20:-0.4375 21:-0.456954 22:-0.463918 23:-0.453947 24:-0.455128 25:-0.461538 26:-0.471698 27:-0.463722 28:-0.442006 29:-0.475904 30:-0.445122 31:-0.465465 32:-0.482428 
-0 -0 -128 0 0 1:-0.72796 2:-0.649425 3:-0.590214 4:-0.530864 5:-0.50152 6:-0.503185 7:-0.504587 8:-0.485714 9:-0.452769 10:-0.485893 11:-0.503106 12:-0.97089 13:-0.344262 14:-0.370518 15:-0.403101 16:-0.423221 17:-0.411765 18:-0.399267 19:-0.40636 20:-0.423611 21:-0.443709 22:-0.443299 23:-0.447368 24:-0.442308 25:-0.435897 26:-0.465409 27:-0.476341 28:-0.454545 29:-0.493976 30:-0.47561 31:-0.465465 32:-0.507987 
-0 -0 -0 54.51897778013377 0 1:-0.72796 2:-0.649425 3:-0.590214 4:-0.555556 5:-0.544073 6:-0.528662 7:-0.535168 8:-0.52381 9:-0.517915 10:-0.504702 11:-0.52795 12:-0.973129 13:-0.401639 14:-0.394422 15:-0.426357 16:-0.445693 17:-0.419118 18:-0.443223 19:-0.491166 20:-0.465278 21:-0.476821 22:-0.498282 23:-0.5 24:-0.474359 25:-0.474359 26:-0.496855 27:-0.48265 28:-0.492163 29:-0.487952 30:-0.506098 31:-0.501502 32:-0.514377 
-0.1415042337983354 -88.23117887845038 -121.0649851023659 0 0 1:-0.717884 2:-0.637931 3:-0.571865 4:-0.469136 5:-0.50152 6:-0.477707 7:-0.486239 8:-0.473016 9:-0.459283 10:-0.460815 11:-0.478261 12:-0.969024 13:-0.303279 14:-0.330677 15:-0.325581 16:-0.378277 17:-0.375 18:-0.362637 19:-0.349823 20:-0.395833 21:-0.410596 22:-0.415808 23:-0.421053 24:-0.410256 25:-0.435897 26:-0.427673 27:-0.419558 28:-0.429467 29:-0.46988 30:-0.439024 31:-0.441441 32:-0.482428 
-0 -113.1677923431798 -70.1663847963831 0 0 1:-0.743073 2:-0.666667 3:-0.602446 4:-0.561728 5:-0.550152 6:-0.509554 7:-0.541284 8:-0.542857 9:-0.504886 10:-0.529781 11:-0.521739 12:-0.97089 13:-0.368852 14:-0.394422 15:-0.395349 16:-0.400749 17:-0.411765 18:-0.377289 19:-0.420495 20:-0.409722 21:-0.456954 22:-0.463918 23:-0.440789 24:-0.423077 25:-0.474359 26:-0.415094 27:-0.48265 28:-0.410658 29:-0.439759 30:-0.432927 31:-0.453453 32:-0.463259 
-0 -53.3084251630759 -128 0 38.8837908711834 1:-0.899244 2:-0.867816 3:-0.810398 4:-0.783951 5:-0.756839 6:-0.719745 7:-0.700306 8:-0.663492 9:-0.674267 10:-0.673981 11:-0.652174 12:-0.981713 13:-0.52459 14:-0.553785 15:-0.612403 16:-0.610487 17:-0.588235 18:-0.575092 19:-0.575972 20:-0.576389 21:-0.589404 22:-0.601375 23:-0.592105 24:-0.596154 25:-0.557692 26:-0.597484 27:-0.596215 28:-0.605016 29:-0.620482 30:-0.609756 31:-0.60961 32:-0.642173 
-0 -0 -28.70214508140446 128 0 1:-0.838791 2:-0.821839 3:-0.761468 4:-0.654321 5:-0.598784 6:-0.579618 7:-0.64526 8:-0.650794 9:-0.667752 10:-0.68652 11:-0.695652 12:-0.982086 13:-0.606557 14:-0.609562 15:-0.643411 16:-0.632959 17:-0.625 18:-0.619048 19:-0.618375 20:-0.631944 21:-0.642384 22:-0.649485 23:-0.638158 24:-0.628205 25:-0.647436 26:-0.628931 27:-0.652997 28:-0.630094 29:-0.674699 30:-0.640244 31:-0.645646 32:-0.693291 
-0 -0 -128 128 0 1:-0.853904 2:-0.810345 3:-0.761468 4:-0.722222 5:-0.720365 6:-0.700637 7:-0.700306 8:-0.701587 9:-0.674267 10:-0.705329 11:-0.714286 12:-0.982459 13:-0.622951 14:-0.641434 15:-0.627907 16:-0.617978 17:-0.647059 18:-0.604396 19:-0.632509 20:-0.625 21:-0.662252 22:-0.66323 23:-0.598684 24:-0.621795 25:-0.673077 26:-0.610063 27:-0.665615 28:-0.579937 29:-0.60241 30:-0.579268 31:-0.591592 32:-0.616613 
-0 -0 -0 128 128 1:-0.848866 2:-0.810345 3:-0.761468 4:-0.722222 5:-0.708207 6:-0.700637 7:-0.700306 8:-0.695238 9:-0.693811 10:-0.69279 11:-0.701863 12:-0.982833 13:-0.614754 14:-0.609562 15:-0.651163 16:-0.655431 17:-0.632353 18:-0.626374 19:-0.639576 20:-0.659722 21:-0.682119 22:-0.704467 23:-0.690789 24:-0.666667 25:-0.698718 26:-0.691824 27:-0.728707 28:-0.673981 29:-0.710843 30:-0.682927 31:-0.687688 32:-0.731629 
-0 -0 -128 0 0 1:-0.843829 2:-0.798851 3:-0.749235 4:-0.703704 5:-0.683891 6:-0.66242 7:-0.657492 8:-0.644444 9:-0.648208 10:-0.636364 11:-0.645963 12:-0.979474 13:-0.54918 14:-0.545817 15:-0.581395 16:-0.610487 17:-0.566176 18:-0.531136 19:-0.568905 20:-0.576389 21:-0.582781 22:-0.587629 23:-0.513158 24:-0.564103 25:-0.596154 26:-0.610063 27:-0.62776 28:-0.586207 29:-0.644578 30:-0.615854 31:-0.621622 32:-0.667732 
-0.566973712893708 -0 -128 128 128 1:-0.874055 2:-0.856322 3:-0.82263 4:-0.765432 5:-0.768997 6:-0.751592 7:-0.730887 8:-0.733333 9:-0.745928 10:-0.730408 11:-0.726708 12:-0.985445 13:-0.680328 14:-0.657371 15:-0.751938 16:-0.677903 17:-0.647059 18:-0.626374 19:-0.625442 20:-0.631944 21:-0.609272 22:-0.656357 23:-0.638158 24:-0.641026 25:-0.685897 26:-0.660377 27:-0.640379 28:-0.636364 29:-0.656627 30:-0.652439 31:-0.651652 32:-0.674121 
-0 -0 -0 128 0 1:-0.808564 2:-0.764368 3:-0.730887 4:-0.697531 5:-0.696049 6:-0.681529 7:-0.669725 8:-0.67619 9:-0.680782 10:-0.680251 11:-0.689441 12:-0.979101 13:-0.581967 14:-0.601594 15:-0.635659 16:-0.670412 17:-0.588235 18:-0.619048 19:-0.611307 20:-0.625 21:-0.642384 22:-0.642612 23:-0.625 24:-0.615385 25:-0.641026 26:-0.628931 27:-0.646688 28:-0.623824 29:-0.656627 30:-0.628049 31:-0.627628 32:-0.680511 
-0 -0 -1.942246055322537 128 88.98057478923471 1:-0.853904 2:-0.810345 3:-0.761468 4:-0.728395 5:-0.720365 6:-0.66242 7:-0.700306 8:-0.688889 9:-0.674267 10:-0.69279 11:-0.701863 12:-0.981713 13:-0.606557 14:-0.625498 15:-0.627907 16:-0.617978 17:-0.639706 18:-0.59707 19:-0.625442 20:-0.618056 21:-0.655629 22:-0.66323 23:-0.598684 24:-0.628205 25:-0.673077 26:-0.591195 27:-0.671924 28:-0.598746 29:-0.620482 30:-0.621951 31:-0.633634 32:-0.654952 
-0 -0 -0 128 128 1:-0.843829 2:-0.804598 3:-0.755352 4:-0.716049 5:-0.702128 6:-0.694268 7:-0.69419 8:-0.688889 9:-0.687296 10:-0.680251 11:-0.695652 12:-0.982459 13:-0.606557 14:-0.609562 15:-0.643411 16:-0.655431 17:-0.617647 18:-0.619048 19:-0.618375 20:-0.625 21:-0.642384 22:-0.656357 23:-0.638158 24:-0.621795 25:-0.641026 26:-0.641509 27:-0.671924 28:-0.667712 29:-0.722892 30:-0.676829 31:-0.681682 32:-0.731629 
-0 -0 -128 121.089497022825 0 1:-0.838791 2:-0.798851 3:-0.749235 4:-0.709877 5:-0.696049 6:-0.687898 7:-0.681957 8:-0.68254 9:-0.687296 10:-0.673981 11:-0.677019 12:-0.981713 13:-0.57377 14:-0.561753 15:-0.589147 16:-0.595506 17:-0.558824 18:-0.545788 19:-0.547703 20:-0.534722 21:-0.549669 22:-0.587629 23:-0.572368 24:-0.570513 25:-0.557692 26:-0.584906 27:-0.596215 28:-0.586207 29:-0.620482 30:-0.597561 31:-0.537538 32:-0.642173 
-0.2377623995434659 -0 -0 128 109.0417876981941 1:-0.848866 2:-0.804598 3:-0.755352 4:-0.746914 5:-0.744681 6:-0.745223 7:-0.737003 8:-0.739683 9:-0.739414 10:-0.736677 11:-0.751553 12:-0.985818 13:-0.688525 14:-0.673307 15:-0.689922 16:-0.700375 17:-0.661765 18:-0.655678 19:-0.660777 20:-0.652778 21:-0.655629 22:-0.608247 23:-0.526316 24:-0.641026 25:-0.641026 26:-0.654088 27:-0.646688 28:-0.573668 29:-0.656627 30:-0.646341 31:-0.633634 32:-0.674121 
-0 -0 -0 128 0 1:-0.808564 2:-0.758621 3:-0.712538 4:-0.679012 5:-0.665653 6:-0.649682 7:-0.651376 8:-0.638095 9:-0.654723 10:-0.648903 11:-0.670807 12:-0.980967 13:-0.516393 14:-0.577689 15:-0.620155 16:-0.625468 17:-0.617647 18:-0.604396 19:-0.60424 20:-0.618056 21:-0.635762 22:-0.642612 23:-0.625 24:-0.615385 25:-0.634615 26:-0.63522 27:-0.646688 28:-0.623824 29:-0.650602 30:-0.628049 31:-0.627628 32:-0.674121 
-0 -0 -90.09702664742117 -96.64675573240443 0 1:-0.843829 2:-0.804598 3:-0.743119 4:-0.709877 5:-0.68997 6:-0.675159 7:-0.675841 8:-0.669841 9:-0.674267 10:-0.667712 11:-0.677019 12:-0.982086 13:-0.606557 14:-0.585657 15:-0.565891 16:-0.535581 17:-0.492647 18:-0.472527 19:-0.462898 20:-0.479167 21:-0.509934 22:-0.560137 23:-0.565789 24:-0.576923 25:-0.576923 26:-0.534591 27:-0.413249 28:-0.253918 29:-0.337349 30:-0.439024 31:-0.465465 32:-0.501597 
-0 -0 -128 -128 128 1:-0.833753 2:-0.781609 3:-0.718654 4:-0.679012 5:-0.659574 6:-0.649682 7:-0.639144 8:-0.650794 9:-0.648208 10:-0.655172 11:-0.677019 12:-0.98022 13:-0.54918 14:-0.553785 15:-0.589147 16:-0.602996 17:-0.573529 18:-0.56044 19:-0.575972 20:-0.576389 21:-0.596026 22:-0.656357 23:-0.625 24:-0.608974 25:-0.641026 26:-0.63522 27:-0.652997 28:-0.636364 29:-0.668675 30:-0.628049 31:-0.651652 32:-0.674121 
-0 -0 -128 -128 128 1:-0.899244 2:-0.856322 3:-0.816514 4:-0.746914 5:-0.744681 6:-0.719745 7:-0.724771 8:-0.726984 9:-0.680782 10:-0.717868 11:-0.714286 12:-0.982459 13:-0.622951 14:-0.633466 15:-0.612403 16:-0.617978 17:-0.602941 18:-0.589744 19:-0.575972 20:-0.611111 21:-0.649007 22:-0.656357 23:-0.605263 24:-0.628205 25:-0.679487 26:-0.622642 27:-0.678233 28:-0.611285 29:-0.626506 30:-0.628049 31:-0.645646 32:-0.661342 
-0 -0 -95.09857050392993 -128 128 1:-0.828715 2:-0.804598 3:-0.7737 4:-0.722222 5:-0.714286 6:-0.707006 7:-0.706422 8:-0.707937 9:-0.700326 10:-0.68652 11:-0.695652 12:-0.982459 13:-0.614754 14:-0.61753 15:-0.651163 16:-0.64794 17:-0.625 18:-0.611722 19:-0.60424 20:-0.604167 21:-0.615894 22:-0.635739 23:-0.618421 24:-0.621795 25:-0.647436 26:-0.63522 27:-0.640379 28:-0.623824 29:-0.650602 30:-0.634146 31:-0.633634 32:-0.693291 
-0 -0 -128 -128 0 1:-0.848866 2:-0.816092 3:-0.755352 4:-0.709877 5:-0.696049 6:-0.675159 7:-0.669725 8:-0.657143 9:-0.661238 10:-0.655172 11:-0.670807 12:-0.980593 13:-0.565574 14:-0.569721 15:-0.604651 16:-0.617978 17:-0.588235 18:-0.582418 19:-0.575972 20:-0.583333 21:-0.596026 22:-0.587629 23:-0.565789 24:-0.570513 25:-0.576923 26:-0.572327 27:-0.570978 28:-0.561129 29:-0.596386 30:-0.573171 31:-0.573574 32:-0.635783 
-0 -0 -53.48451597556465 -128 84.78605490453418 1:-0.853904 2:-0.810345 3:-0.761468 4:-0.722222 5:-0.714286 6:-0.700637 7:-0.700306 8:-0.695238 9:-0.693811 10:-0.68652 11:-0.68323 12:-0.98134 13:-0.598361 14:-0.577689 15:-0.612403 16:-0.655431 17:-0.639706 18:-0.648352 19:-0.639576 20:-0.652778 21:-0.688742 22:-0.66323 23:-0.651316 24:-0.653846 25:-0.653846 26:-0.672956 27:-0.646688 28:-0.661442 29:-0.680723 30:-0.676829 31:-0.663664 32:-0.635783 
-0 -0 -74.4046169139426 -128 0 1:-0.798489 2:-0.741379 3:-0.69419 4:-0.641975 5:-0.635258 6:-0.617834 7:-0.614679 8:-0.619048 9:-0.62215 10:-0.617555 11:-0.627329 12:-0.978727 13:-0.52459 14:-0.537849 15:-0.550388 16:-0.505618 17:-0.551471 18:-0.56044 19:-0.561837 20:-0.576389 21:-0.589404 22:-0.608247 23:-0.605263 24:-0.583333 25:-0.615385 26:-0.603774 27:-0.615142 28:-0.592476 29:-0.608434 30:-0.591463 31:-0.597598 32:-0.642173 
-0 -0 -128 -128 80.31640814555018 1:-0.889169 2:-0.850575 3:-0.82263 4:-0.765432 5:-0.756839 6:-0.726115 7:-0.706422 8:-0.714286 9:-0.680782 10:-0.705329 11:-0.714286 12:-0.982459 13:-0.639344 14:-0.61753 15:-0.589147 16:-0.632959 17:-0.654412 18:-0.604396 19:-0.625442 20:-0.618056 21:-0.649007 22:-0.656357 23:-0.598684 24:-0.615385 25:-0.666667 26:-0.591195 27:-0.665615 28:-0.605016 29:-0.626506 30:-0.621951 31:-0.627628 32:-0.661342 
-0 -0 -128 -128 0 1:-0.838791 2:-0.793103 3:-0.749235 4:-0.697531 5:-0.677812 6:-0.656051 7:-0.663609 8:-0.669841 9:-0.674267 10:-0.667712 11:-0.677019 12:-0.98134 13:-0.581967 14:-0.585657 15:-0.612403 16:-0.617978 17:-0.595588 18:-0.575092 19:-0.575972 20:-0.590278 21:-0.609272 22:-0.61512 23:-0.605263 24:-0.589744 25:-0.615385 26:-0.603774 27:-0.608833 28:-0.586207 29:-0.626506 30:-0.609756 31:-0.60961 32:-0.654952 
-0 -0 -128 -128 0 1:-0.833753 2:-0.787356 3:-0.724771 4:-0.685185 5:-0.677812 6:-0.649682 7:-0.64526 8:-0.644444 9:-0.654723 10:-0.655172 11:-0.664596 12:-0.980593 13:-0.565574 14:-0.577689 15:-0.596899 16:-0.602996 17:-0.573529 18:-0.567766 19:-0.561837 20:-0.555556 21:-0.569536 22:-0.546392 23:-0.526316 24:-0.512821 25:-0.519231 26:-0.534591 27:-0.55836 28:-0.529781 29:-0.560241 30:-0.530488 31:-0.537538 32:-0.578275 
-0 -0 -128 -128 78.19197005531225 1:-0.843829 2:-0.793103 3:-0.743119 4:-0.703704 5:-0.68997 6:-0.675159 7:-0.675841 8:-0.663492 9:-0.674267 10:-0.648903 11:-0.645963 12:-0.980593 13:-0.590164 14:-0.601594 15:-0.635659 16:-0.662921 17:-0.617647 18:-0.6337 19:-0.632509 20:-0.625 21:-0.635762 22:-0.61512 23:-0.631579 24:-0.647436 25:-0.653846 26:-0.660377 27:-0.652997 28:-0.642633 29:-0.644578 30:-0.640244 31:-0.633634 32:-0.642173 
-0 -1.566473490440843 -128 -128 0 1:-0.803526 2:-0.741379 3:-0.688073 4:-0.62963 5:-0.617021 6:-0.598726 7:-0.602446 8:-0.606349 9:-0.589577 10:-0.605016 11:-0.621118 12:-0.977608 13:-0.5 14:-0.513944 15:-0.534884 16:-0.550562 17:-0.536765 18:-0.538462 19:-0.519435 20:-0.548611 21:-0.582781 22:-0.594502 23:-0.592105 24:-0.583333 25:-0.647436 26:-0.610063 27:-0.621451 28:-0.605016 29:-0.626506 30:-0.591463 31:-0.597598 32:-0.648562 
-0.6205227319596124 -5.162205012102858 -0 -0 0 1:-0.702771 2:-0.626437 3:-0.547401 4:-0.506173 5:-0.519757 6:-0.503185 7:-0.510703 8:-0.498413 9:-0.491857 10:-0.498433 11:-0.515528 12:-0.971263 13:-0.352459 14:-0.354582 15:-0.379845 16:-0.393258 17:-0.367647 18:-0.347985 19:-0.35689 20:-0.361111 21:-0.403974 22:-0.42268 23:-0.440789 24:-0.442308 25:-0.435897 26:0.748428 27:0.911672 28:0.887147 29:0.783133 30:-0.664634 31:-0.657658 32:-0.731629 
-0 -0 -0 -3.760136924017672 53.37040136714902 1:-0.813602 2:-0.775862 3:-0.737003 4:-0.709877 5:-0.702128 6:-0.694268 7:-0.700306 8:-0.695238 9:-0.700326 10:-0.68652 11:-0.701863 12:-0.983206 13:-0.631148 14:-0.609562 15:-0.682171 16:-0.700375 17:-0.683824 18:-0.677656 19:-0.681979 20:-0.680556 21:-0.682119 22:-0.676976 23:-0.684211 24:-0.685897 25:-0.673077 26:-0.698113 27:-0.697161 28:-0.673981 29:-0.710843 30:-0.682927 31:-0.645646 32:-0.661342 
-0 -0 -0 -128 0 1:-0.778338 2:-0.729885 3:-0.688073 4:-0.654321 5:-0.641337 6:-0.636943 7:-0.639144 8:-0.650794 9:-0.641694 10:-0.630094 11:-0.652174 12:-0.98022 13:-0.565574 14:-0.569721 15:-0.596899 16:-0.610487 17:-0.602941 18:-0.59707 19:-0.590106 20:-0.611111 21:-0.635762 22:-0.670103 23:-0.631579 24:-0.570513 25:-0.647436 26:-0.63522 27:-0.659306 28:-0.623824 29:-0.656627 30:-0.640244 31:-0.63964 32:-0.693291 
-0 -0 -0 -128 31.87572274951667 1:-0.843829 2:-0.793103 3:-0.767584 4:-0.728395 5:-0.726444 6:-0.700637 7:-0.706422 8:-0.701587 9:-0.700326 10:-0.705329 11:-0.701863 12:-0.981713 13:-0.565574 14:-0.641434 15:-0.635659 16:-0.617978 17:-0.647059 18:-0.604396 19:-0.639576 20:-0.625 21:-0.662252 22:-0.670103 23:-0.605263 24:-0.621795 25:-0.673077 26:-0.616352 27:-0.684543 28:-0.611285 29:-0.626506 30:-0.628049 31:-0.63964 32:-0.661342 
-0 -0 -0 -128 0 1:-0.778338 2:-0.764368 3:-0.730887 4:-0.685185 5:-0.683891 6:-0.675159 7:-0.669725 8:-0.67619 9:-0.674267 10:-0.673981 11:-0.689441 12:-0.982086 13:-0.606557 14:-0.609562 15:-0.643411 16:-0.64794 17:-0.625 18:-0.619048 19:-0.618375 20:-0.625 21:-0.642384 22:-0.649485 23:-0.638158 24:-0.621795 25:-0.641026 26:-0.641509 27:-0.652997 28:-0.636364 29:-0.656627 30:-0.640244 31:-0.63964 32:-0.686901 
-0 -0 -46.38505953981849 -128 0 1:-0.798489 2:-0.752874 3:-0.718654 4:-0.679012 5:-0.683891 6:-0.66879 7:-0.669725 8:-0.669841 9:-0.674267 10:-0.667712 11:-0.68323 12:-0.981713 13:-0.598361 14:-0.593625 15:-0.627907 16:-0.632959 17:-0.595588 18:-0.582418 19:-0.568905 20:-0.569444 21:-0.589404 22:-0.601375 23:-0.572368 24:-0.602564 25:-0.589744 26:-0.597484 27:-0.602524 28:-0.592476 29:-0.614458 30:-0.609756 31:-0.603604 32:-0.648562 
-0 -0 -0 -128 0 1:-0.813602 2:-0.770115 3:-0.724771 4:-0.691358 5:-0.68997 6:-0.66879 7:-0.688073 8:-0.650794 9:-0.661238 10:-0.680251 11:-0.689441 12:-0.98134 13:-0.606557 14:-0.61753 15:-0.612403 16:-0.610487 17:-0.639706 18:-0.589744 19:-0.625442 20:-0.611111 21:-0.655629 22:-0.656357 23:-0.598684 24:-0.615385 25:-0.666667 26:-0.610063 27:-0.671924 28:-0.605016 29:-0.620482 30:-0.615854 31:-0.63964 32:-0.654952 
-0 -0 -0 -128 116.5492886070837 1:-0.793451 2:-0.752874 3:-0.712538 4:-0.679012 5:-0.677812 6:-0.66879 7:-0.669725 8:-0.669841 9:-0.674267 10:-0.667712 11:-0.68323 12:-0.981713 13:-0.590164 14:-0.601594 15:-0.635659 16:-0.632959 17:-0.617647 18:-0.611722 19:-0.611307 20:-0.618056 21:-0.629139 22:-0.642612 23:-0.625 24:-0.615385 25:-0.641026 26:-0.63522 27:-0.665615 28:-0.617555 29:-0.692771 30:-0.664634 31:-0.66967 32:-0.71885 
-0 -0 -128 -128 0 1:-0.788413 2:-0.747126 3:-0.706422 4:-0.67284 5:-0.671733 6:-0.66242 7:-0.663609 8:-0.657143 9:-0.661238 10:-0.655172 11:-0.670807 12:-0.980593 13:-0.54918 14:-0.521912 15:-0.581395 16:-0.573034 17:-0.551471 18:-0.538462 19:-0.55477 20:-0.569444 21:-0.562914 22:-0.587629 23:-0.578947 24:-0.570513 25:-0.570513 26:-0.591195 27:-0.608833 28:-0.586207 29:-0.614458 30:-0.615854 31:-0.657658 32:-0.648562 
-1.010328219391493 -3.523443302702666 -0.9217030453722032 -0 0 1:-0.853904 2:-0.816092 3:-0.767584 4:-0.728395 5:-0.708207 6:-0.694268 7:-0.700306 8:-0.695238 9:-0.680782 10:-0.69279 11:-0.701863 12:-0.98134 13:-0.606557 14:-0.625498 15:-0.612403 16:-0.588015 17:-0.448529 18:0.304029 19:0.689046 20:0.743056 21:0.701987 22:0.800687 23:0.782895 24:0.782051 25:0.685897 26:0.811321 27:0.760252 28:0.918495 29:0.746988 30:0.847561 31:0.78979 32:0.801917 
-0.2402358274007335 -0 -0 -0 0 1:-0.642317 2:-0.488506 3:-0.351682 4:-0.240741 5:-0.446809 6:-0.56051 7:-0.69419 8:-0.733333 9:-0.758958 10:-0.761755 11:-0.782609 12:-0.987684 13:-0.721311 14:-0.721116 15:-0.744186 16:-0.745318 17:-0.720588 18:-0.714286 19:-0.710247 20:-0.722222 21:-0.735099 22:-0.75945 23:-0.743421 24:-0.717949 25:-0.737179 26:-0.72956 27:-0.741325 28:-0.736677 29:-0.759036 30:-0.743902 31:-0.72973 32:-0.814696 
-0 -0 -0 -128 90.39534118394124 1:-0.884131 2:-0.873563 3:-0.840979 4:-0.808642 5:-0.793313 6:-0.796178 7:-0.785933 8:-0.784127 9:-0.785016 10:-0.774295 11:-0.78882 12:-0.988057 13:-0.729508 14:-0.721116 15:-0.728682 16:-0.730337 17:-0.698529 18:-0.677656 19:-0.65371 20:-0.673611 21:-0.695364 22:-0.683849 23:-0.677632 24:-0.673077 25:-0.692308 26:-0.691824 27:-0.62776 28:-0.68652 29:-0.704819 30:-0.695122 31:-0.693694 32:-0.738019 
-0 -0 -0 -0 128 1:-0.853904 2:-0.83908 3:-0.810398 4:-0.765432 5:-0.775076 6:-0.757962 7:-0.767584 8:-0.75873 9:-0.758958 10:-0.780564 11:-0.782609 12:-0.988057 13:-0.745902 14:-0.705179 15:-0.751938 16:-0.775281 17:-0.75 18:-0.750916 19:-0.780919 20:-0.756944 21:-0.774834 22:-0.793814 23:-0.756579 24:-0.737179 25:-0.762821 26:-0.754717 27:-0.766562 28:-0.749216 29:-0.777108 30:-0.756098 31:-0.753754 32:-0.808307 
-0 -0 -0 -0 114.775371731363 1:-0.90932 2:-0.902299 3:-0.883792 4:-0.839506 5:-0.829787 6:-0.808917 7:-0.82263 8:-0.828571 9:-0.811075 10:-0.818182 11:-0.826087 12:-0.98955 13:-0.778689 14:-0.784861 15:-0.782946 16:-0.775281 17:-0.794118 18:-0.750916 19:-0.773852 20:-0.763889 21:-0.788079 22:-0.793814 23:-0.736842 24:-0.75641 25:-0.801282 26:-0.748428 27:-0.804416 28:-0.736677 29:-0.746988 30:-0.743902 31:-0.75976 32:-0.782748 
-0 -0 -0 -0 117.7394412555497 1:-0.899244 2:-0.890805 3:-0.859327 4:-0.833333 5:-0.823708 6:-0.821656 7:-0.810398 8:-0.822222 9:-0.81759 10:-0.811912 11:-0.826087 12:-0.990297 13:-0.778689 14:-0.784861 15:-0.806202 16:-0.812734 17:-0.779412 18:-0.78022 19:-0.766784 20:-0.777778 21:-0.788079 22:-0.800687 23:-0.776316 24:-0.762821 25:-0.788462 26:-0.779874 27:-0.785489 28:-0.774295 29:-0.813253 30:-0.804878 31:-0.843844 32:-0.878594 
-0 -0 -0 -0 128 1:-0.894207 2:-0.890805 3:-0.859327 4:-0.82716 5:-0.829787 6:-0.821656 7:-0.810398 8:-0.815873 9:-0.81759 10:-0.805643 11:-0.819876 12:-0.98955 13:-0.770492 14:-0.752988 15:-0.75969 16:-0.752809 17:-0.75 18:-0.721612 19:-0.717314 20:-0.715278 21:-0.715232 22:-0.731959 23:-0.703947 24:-0.711538 25:-0.737179 26:-0.72956 27:-0.741325 28:-0.711599 29:-0.740964 30:-0.72561 31:-0.723724 32:-0.782748 
-0.5098997525708038 -51.57878662101179 -0 -0 0 1:-0.904282 2:-0.902299 3:-0.877676 4:-0.851852 5:-0.854103 6:-0.866242 7:-0.87156 8:-0.853968 9:-0.882736 10:-0.874608 11:-0.881988 12:-0.994775 13:-0.877049 14:-0.888446 15:-0.883721 16:-0.88015 17:-0.838235 18:-0.831502 19:-0.85159 20:-0.826389 21:-0.807947 22:-0.828179 23:-0.809211 24:-0.807692 25:-0.775641 26:-0.830189 27:-0.810726 28:-0.780564 29:-0.807229 30:-0.79878 31:-0.78979 32:-0.833866 
-0 -0 -0 -0 128 1:-0.853904 2:-0.850575 3:-0.816514 4:-0.796296 5:-0.781155 6:-0.783439 7:-0.767584 8:-0.784127 9:-0.791531 10:-0.774295 11:-0.807453 12:-0.989177 13:-0.770492 14:-0.776892 15:-0.806202 16:-0.820225 17:-0.786765 18:-0.794872 19:-0.780919 20:-0.777778 21:-0.788079 22:-0.786942 23:-0.782895 24:-0.769231 25:-0.794872 26:-0.786164 27:-0.804416 28:-0.774295 29:-0.795181 30:-0.77439 31:-0.777778 32:-0.840256 
-0 -128 -0 -0 0 1:-0.899244 2:-0.896552 3:-0.87156 4:-0.839506 5:-0.835866 6:-0.834395 7:-0.828746 8:-0.834921 9:-0.837134 10:-0.824451 11:-0.838509 12:-0.991043 13:-0.803279 14:-0.800797 15:-0.821705 16:-0.827715 17:-0.801471 18:-0.794872 19:-0.787986 20:-0.798611 21:-0.801325 22:-0.821306 23:-0.796053 24:-0.788462 25:-0.807692 26:-0.792453 27:-0.804416 28:-0.793103 29:-0.807229 30:-0.792683 31:-0.801802 32:-0.878594 
-0.695070571002516 -0 -120.2445304906012 -128 -128 1:-0.884131 2:-0.844828 3:-0.798165 4:-0.728395 5:-0.708207 6:-0.681529 7:-0.681957 8:-0.669841 9:-0.648208 10:-0.655172 11:-0.658385 12:-0.974249 13:-0.47541 14:-0.466135 15:-0.457364 16:-0.505618 17:-0.529412 18:-0.487179 19:-0.484099 20:-0.458333 21:-0.509934 22:-0.594502 23:-0.578947 24:-0.647436 25:-0.685897 26:-0.622642 27:-0.671924 28:-0.617555 29:-0.638554 30:-0.640244 31:-0.657658 32:-0.686901 
-0 -0 -128 -128 -128 1:-0.853904 2:-0.816092 3:-0.779817 4:-0.734568 5:-0.726444 6:-0.726115 7:-0.724771 8:-0.726984 9:-0.732899 10:-0.724138 11:-0.73913 12:-0.985072 13:-0.672131 14:-0.673307 15:-0.705426 16:-0.707865 17:-0.683824 18:-0.684982 19:-0.674912 20:-0.6875 21:-0.682119 22:-0.676976 23:-0.644737 24:-0.641026 25:-0.666667 26:-0.666667 27:-0.684543 28:-0.661442 29:-0.686747 30:-0.646341 31:-0.651652 32:-0.71246 
-0 -0 -128 -128 -128 1:-0.848866 2:-0.816092 3:-0.779817 4:-0.746914 5:-0.732523 6:-0.719745 7:-0.712538 8:-0.707937 9:-0.70684 10:-0.69279 11:-0.701863 12:-0.982833 13:-0.606557 14:-0.601594 15:-0.635659 16:-0.640449 17:-0.595588 18:-0.582418 19:-0.547703 20:-0.569444 21:-0.576159 22:-0.56701 23:-0.565789 24:-0.570513 25:-0.583333 26:-0.584906 27:-0.602524 28:-0.579937 29:-0.614458 30:-0.603659 31:-0.603604 32:-0.648562 
-0 -0 -41.3575580227392 -128 -128 1:-0.86398 2:-0.833333 3:-0.7737 4:-0.728395 5:-0.714286 6:-0.675159 7:-0.700306 8:-0.714286 9:-0.726384 10:-0.724138 11:-0.732919 12:-0.984325 13:-0.680328 14:-0.633466 15:-0.689922 16:-0.692884 17:-0.669118 18:-0.655678 19:-0.667845 20:-0.666667 21:-0.675497 22:-0.683849 23:-0.651316 24:-0.660256 25:-0.692308 26:-0.704403 27:-0.697161 28:-0.68652 29:-0.704819 30:-0.695122 31:-0.6997 32:-0.72524 
-0 -0 -86.47009611598182 -128 -128 1:-0.81864 2:-0.775862 3:-0.730887 4:-0.691358 5:-0.68997 6:-0.675159 7:-0.675841 8:-0.669841 9:-0.667752 10:-0.680251 11:-0.701863 12:-0.982833 13:-0.614754 14:-0.625498 15:-0.635659 16:-0.707865 17:-0.654412 18:-0.655678 19:-0.660777 20:-0.666667 21:-0.688742 22:-0.697595 23:-0.684211 24:-0.673077 25:-0.698718 26:-0.685535 27:-0.709779 28:-0.68652 29:-0.710843 30:-0.689024 31:-0.693694 32:-0.744409 
-0 -0 -0 -0 -128 1:-0.869018 2:-0.856322 3:-0.82263 4:-0.783951 5:-0.768997 6:-0.757962 7:-0.761468 8:-0.752381 9:-0.732899 10:-0.749216 11:-0.763975 12:-0.985818 13:-0.696721 14:-0.721116 15:-0.697674 16:-0.700375 17:-0.727941 18:-0.677656 19:-0.70318 20:-0.6875 21:-0.721854 22:-0.731959 23:-0.671053 24:-0.692308 25:-0.737179 26:-0.685535 27:-0.747634 28:-0.680251 29:-0.692771 30:-0.695122 31:-0.6997 32:-0.72524 
-0 -0 -0 -0 -128 1:-0.869018 2:-0.844828 3:-0.810398 4:-0.777778 5:-0.768997 6:-0.764331 7:-0.761468 8:-0.75873 9:-0.765472 10:-0.755486 11:-0.770186 12:-0.986565 13:-0.696721 14:-0.705179 15:-0.736434 16:-0.745318 17:-0.720588 18:-0.714286 19:-0.70318 20:-0.715278 21:-0.721854 22:-0.731959 23:-0.730263 24:-0.730769 25:-0.769231 26:-0.767296 27:-0.77918 28:-0.761755 29:-0.789157 30:-0.756098 31:-0.75976 32:-0.801917 
-0 -0 -23.25161147054308 -128 -128 1:-0.86398 2:-0.83908 3:-0.804281 4:-0.759259 5:-0.756839 6:-0.745223 7:-0.737003 8:-0.720635 9:-0.713355 10:-0.69906 11:-0.677019 12:-0.983579 13:-0.622951 14:-0.649402 15:-0.658915 16:-0.670412 17:-0.625 18:-0.641026 19:-0.639576 20:-0.645833 21:-0.655629 22:-0.642612 23:-0.664474 24:-0.653846 25:-0.666667 26:-0.679245 27:-0.690852 28:-0.68652 29:-0.692771 30:-0.695122 31:-0.6997 32:-0.744409 
-0 -25.53741632428763 -0 -0 -128 1:-0.914358 2:-0.902299 3:-0.877676 4:-0.845679 5:-0.823708 6:-0.828025 7:-0.828746 8:-0.828571 9:-0.824104 10:-0.818182 11:-0.826087 12:-0.991043 13:-0.795082 14:-0.760956 15:-0.782946 16:-0.790262 17:-0.742647 18:-0.655678 19:-0.759717 20:-0.6875 21:-0.728477 22:-0.745704 23:-0.723684 24:-0.730769 25:-0.74359 26:-0.704403 27:-0.728707 28:-0.730408 29:-0.746988 30:-0.731707 31:-0.735736 32:-0.763578 
-0 -0 -0 -0 -128 1:-0.838791 2:-0.827586 3:-0.798165 4:-0.765432 5:-0.683891 6:-0.751592 7:-0.755352 8:-0.75873 9:-0.765472 10:-0.761755 11:-0.776398 12:-0.987311 13:-0.721311 14:-0.729084 15:-0.751938 16:-0.752809 17:-0.735294 18:-0.728938 19:-0.717314 20:-0.729167 21:-0.735099 22:-0.752577 23:-0.736842 24:-0.717949 25:-0.75 26:-0.735849 27:-0.760252 28:-0.736677 29:-0.759036 30:-0.743902 31:-0.741742 32:-0.795527 
-0 -0 -0 -14.98550456118475 -128 1:-0.874055 2:-0.856322 3:-0.816514 4:-0.783951 5:-0.781155 6:-0.764331 7:-0.767584 8:-0.771429 9:-0.765472 10:-0.774295 11:-0.782609 12:-0.986938 13:-0.721311 14:-0.737052 15:-0.728682 16:-0.722846 17:-0.75 18:-0.699634 19:-0.731449 20:-0.715278 21:-0.748344 22:-0.75945 23:-0.690789 24:-0.711538 25:-0.75641 26:-0.691824 27:-0.735016 28:-0.661442 29:-0.662651 30:-0.658537 31:-0.675676 32:-0.699681 
-0.6668742426121222 -70.78669109239179 -0 -0 -128 1:-0.879093 2:-0.862069 3:-0.828746 4:-0.796296 5:-0.787234 6:-0.783439 7:-0.779817 8:-0.784127 9:-0.791531 10:-0.786834 11:-0.795031 12:-0.988431 13:-0.737705 14:-0.737052 15:-0.767442 16:-0.76779 17:-0.772059 18:-0.787546 19:-0.780919 20:-0.798611 21:-0.801325 22:-0.814433 23:-0.796053 24:-0.775641 25:-0.814103 26:-0.805031 27:-0.77918 28:-0.786834 29:-0.807229 30:-0.786585 31:-0.783784 32:-0.833866 
