svm_type c_svc
kernel_type rbf
gamma 0.0078125
nr_class 4
total_sv 26
rho 0 -7.14455e-05 0.113069 0.0506516 1.73728 5.79836
label 0 1 2 3
nr_sv 2 4 11 9
SV
11.14711854316604 0.05170350537960371 2.623822039520465 1:0.857143 2:0.826923 3:0.8 4:0.81457 5:0.833333 6:0.826087 7:0.829146 8:0.831776 9:0.811659 10:0.810345 11:0.809129 12:0.836735 13:0.835294 14:0.824427 15:0.870229 16:0.875 17:0.913357 18:0.907143 19:0.923611 20:0.930796 21:0.945578 22:0.979661 23:0.918089 24:0.946667 25:0.928339 26:0.909385 27:0.954248 28:0.891374 29:0.890323 30:0.923567 31:0.942308 32:0.929032 
0 2.547100871152848 0 1:0.8 2:0.769231 3:0.753846 4:0.788079 5:0.797619 6:0.826087 7:0.809045 8:0.813084 9:0.865471 10:0.818966 11:0.825726 12:0.893878 13:0.87451 14:0.854962 15:0.916031 16:0.933824 17:0.877256 18:0.907143 19:0.888889 20:0.903114 21:0.897959 22:0.891525 23:0.952218 24:0.94 25:0.869707 26:0.961165 27:0.882353 28:0.942492 29:0.967742 30:0.955414 31:0.942308 32:0.941935 
-11.14711854316604 0 0 1:0.828571 2:0.807692 3:0.769231 4:0.774834 5:0.809524 6:0.804348 7:0.809045 8:0.813084 9:0.811659 10:0.836207 11:0.850622 12:0.836735 13:0.835294 14:0.832061 15:0.870229 16:0.830882 17:0.877256 18:0.864286 19:0.875 20:0.889273 21:0.891156 22:0.179661 23:0.0170648 24:-0.00666667 25:-0.0749186 26:-0.119741 27:-0.130719 28:-0.194888 29:-0.212903 30:-0.210191 31:-0.237179 32:-0.225806 
-0 15.67731106106457 4.698184353290142 1:-0.314286 2:-0.269231 3:-0.276923 4:-0.271523 5:-0.27381 6:-0.293478 7:-0.316583 8:-0.327103 9:-0.35426 10:-0.353448 11:-0.369295 12:-0.395918 13:-0.388235 14:-0.40458 15:-0.40458 16:-0.397059 17:-0.371841 18:-0.371429 19:-0.354167 20:-0.356401 21:-0.353741 22:-0.362712 23:-0.392491 24:-0.373333 25:-0.348534 26:-0.378641 27:-0.359477 28:-0.392971 29:-0.387097 30:-0.375796 31:-0.378205 32:-0.374194 
-0 4.313377356405595 0 1:-0.428571 2:-0.365385 3:-0.338462 4:-0.324503 5:-0.321429 6:-0.326087 7:-0.346734 8:-0.327103 9:-0.345291 10:-0.353448 11:-0.369295 12:-0.363265 13:-0.364706 14:-0.40458 15:-0.389313 16:-0.367647 17:-0.350181 18:-0.357143 19:-0.333333 20:-0.321799 21:-0.312925 22:-0.315254 23:-0.351536 24:-0.326667 25:-0.355049 26:-0.365696 27:-0.379085 28:-0.386581 29:-0.387097 30:-0.375796 31:-0.378205 32:-0.374194 
-0 32 32 1:-0.285714 2:-0.25 3:-0.261538 4:-0.258278 5:-0.27381 6:-0.293478 7:-0.316583 8:-0.317757 9:-0.345291 10:-0.344828 11:-0.352697 12:-0.395918 13:-0.396078 14:-0.412214 15:-0.419847 16:-0.441176 17:-0.429603 18:-0.442857 19:-0.430556 20:-0.418685 21:-0.414966 22:-0.39661 23:-0.433447 24:-0.413333 25:-0.407166 26:-0.436893 27:-0.418301 28:-0.4377 29:-0.406452 30:-0.401274 31:-0.403846 32:-0.387097 
-2.598804376532452 -32 0 1:-0.428571 2:-0.365385 3:-0.353846 4:-0.311258 5:-0.321429 6:-0.326087 7:-0.346734 8:-0.336449 9:-0.345291 10:-0.327586 11:-0.369295 12:-0.379592 13:-0.388235 14:-0.40458 15:-0.381679 16:-0.389706 17:-0.364621 18:-0.3 19:-0.368056 20:-0.411765 21:-0.44898 22:-0.586441 23:-0.740614 24:-0.726667 25:-0.745928 26:-0.760518 27:-0.784314 28:-0.782748 29:-0.774194 30:-0.77707 31:-0.788462 32:-0.780645 
-0 -0 32 1:-0.514286 2:-0.557692 3:-0.630769 4:-0.642384 5:-0.702381 6:-0.717391 7:-0.758794 8:-0.747664 9:-0.73991 10:-0.784483 11:-0.784232 12:-0.779592 13:-0.803922 14:-0.816794 15:-0.78626 16:-0.764706 17:-0.805054 18:-0.778571 19:-0.798611 20:-0.771626 21:-0.802721 22:-0.79661 23:-0.774744 24:-0.78 25:-0.811075 26:-0.760518 27:-0.823529 28:-0.769968 29:-0.754839 30:-0.783439 31:-0.807692 32:-0.767742 
-0 -0 32 1:-0.542857 2:-0.576923 3:-0.630769 4:-0.655629 5:-0.702381 6:-0.717391 7:-0.748744 8:-0.738318 9:-0.757848 10:-0.767241 11:-0.775934 12:-0.787755 13:-0.788235 14:-0.801527 15:-0.801527 16:-0.786765 17:-0.783394 18:-0.785714 19:-0.777778 20:-0.764706 21:-0.761905 22:-0.755932 23:-0.767918 24:-0.74 25:-0.732899 26:-0.734628 27:-0.738562 28:-0.744409 29:-0.754839 30:-0.726115 31:-0.75 32:-0.709677 
-0 -0 32 1:-0.6 2:-0.596154 3:-0.661538 4:-0.682119 5:-0.714286 6:-0.73913 7:-0.768844 8:-0.757009 9:-0.775785 10:-0.784483 11:-0.792531 12:-0.804082 13:-0.803922 14:-0.816794 15:-0.839695 16:-0.838235 17:-0.805054 18:-0.835714 19:-0.819444 20:-0.820069 21:-0.823129 22:-0.823729 23:-0.877133 24:-0.833333 25:-0.824104 26:-0.825243 27:-0.803922 28:-0.846645 29:-0.819355 30:-0.840764 31:-0.839744 32:-0.819355 
-0 -0 32 1:-0.8 2:-0.711538 3:-0.753846 4:-0.761589 5:-0.785714 6:-0.815217 7:-0.829146 8:-0.813084 9:-0.811659 10:-0.844828 11:-0.809129 12:-0.812245 13:-0.819608 14:-0.824427 15:-0.824427 16:-0.808824 17:-0.805054 18:-0.807143 19:-0.791667 20:-0.778547 21:-0.755102 22:-0.783051 23:-0.802048 24:-0.773333 25:-0.778502 26:-0.773463 27:-0.784314 28:-0.782748 29:-0.787097 30:-0.770701 31:-0.794872 32:-0.787097 
-0 -0 32 1:-0.428571 2:-0.5 3:-0.6 4:-0.642384 5:-0.690476 6:-0.706522 7:-0.748744 8:-0.747664 9:-0.748879 10:-0.784483 11:-0.792531 12:-0.795918 13:-0.803922 14:-0.824427 15:-0.793893 16:-0.764706 17:-0.812274 18:-0.778571 19:-0.798611 20:-0.771626 21:-0.802721 22:-0.79661 23:-0.78157 24:-0.786667 25:-0.81759 26:-0.760518 27:-0.823529 28:-0.776358 29:-0.754839 30:-0.783439 31:-0.814103 32:-0.774194 
-0 -0 32 1:-0.542857 2:-0.576923 3:-0.630769 4:-0.668874 5:-0.702381 6:-0.728261 7:-0.758794 8:-0.747664 9:-0.766816 10:-0.775862 11:-0.784232 12:-0.787755 13:-0.796078 14:-0.801527 15:-0.801527 16:-0.794118 17:-0.790614 18:-0.792857 19:-0.777778 20:-0.771626 21:-0.768707 22:-0.769492 23:-0.795222 24:-0.773333 25:-0.771987 26:-0.773463 27:-0.784314 28:-0.769968 29:-0.774194 30:-0.77707 31:-0.782051 32:-0.754839 
-0 -0 32 1:-0.571429 2:-0.576923 3:-0.646154 4:-0.668874 5:-0.714286 6:-0.728261 7:-0.758794 8:-0.757009 9:-0.775785 10:-0.784483 11:-0.792531 12:-0.804082 13:-0.796078 14:-0.801527 15:-0.816794 16:-0.801471 17:-0.797834 18:-0.8 19:-0.791667 20:-0.778547 21:-0.77551 22:-0.783051 23:-0.8157 24:-0.753333 25:-0.80456 26:-0.812298 27:-0.803922 28:-0.833866 29:-0.83871 30:-0.821656 31:-0.858974 32:-0.83871 
-0 -11.8494560836916 18.52689709093895 1:-0.542857 2:-0.557692 3:-0.615385 4:-0.668874 5:-0.690476 6:-0.717391 7:-0.748744 8:-0.738318 9:-0.757848 10:-0.767241 11:-0.767635 12:-0.771429 13:-0.764706 14:-0.748092 15:-0.740458 16:-0.742647 17:-0.732852 18:-0.735714 19:-0.722222 20:-0.716263 21:-0.693878 22:-0.715254 23:-0.74744 24:-0.74 25:-0.726384 26:-0.7411 27:-0.718954 28:-0.757188 29:-0.748387 30:-0.745223 31:-0.782051 32:-0.703226 
-0 -0 32 1:-0.6 2:-0.596154 3:-0.661538 4:-0.682119 5:-0.714286 6:-0.771739 7:-0.809045 8:-0.803738 9:-0.811659 10:-0.836207 11:-0.842324 12:-0.844898 13:-0.858824 14:-0.870229 15:-0.870229 16:-0.852941 17:-0.848375 18:-0.835714 19:-0.833333 20:-0.820069 21:-0.823129 22:-0.823729 23:-0.849829 24:-0.813333 25:-0.785016 26:-0.786408 27:-0.810458 28:-0.808307 29:-0.793548 30:-0.796178 31:-0.807692 32:-0.780645 
-0 -8.141232333778563 0 1:-0.342857 2:-0.423077 3:-0.492308 4:-0.549669 5:-0.630952 6:-0.608696 7:-0.688442 8:-0.691589 9:-0.686099 10:-0.732759 11:-0.73444 12:-0.714286 13:-0.756863 14:-0.801527 15:-0.748092 16:-0.735294 17:-0.790614 18:-0.75 19:-0.784722 20:-0.716263 21:-0.782313 22:-0.715254 23:-0.754266 24:-0.74 25:-0.791531 26:-0.786408 27:-0.810458 28:-0.769968 29:-0.748387 30:-0.77707 31:-0.807692 32:-0.76129 
-1.052567061456401 -11.72210710342543 -24.86100124865041 1:-0.742857 2:-0.730769 3:-0.753846 4:-0.748344 5:-0.77381 6:-0.76087 7:-0.778894 8:-0.775701 9:-0.784753 10:-0.793103 11:-0.792531 12:-0.804082 13:-0.803922 14:-0.80916 15:-0.763359 16:-0.794118 17:-0.740072 18:-0.792857 19:-0.777778 20:-0.785467 21:-0.768707 22:-0.769492 23:-0.795222 24:-0.773333 25:-0.771987 26:-0.754045 27:-0.679739 28:-0.482428 29:0.116129 30:0.713376 31:0.948718 32:0.954839 
-1.571254978064064 -14.32550049369148 -32 1:0.771429 2:0.75 3:0.692308 4:0.708609 5:0.714286 6:0.706522 7:0.688442 8:-0.0747664 9:-0.139013 10:-0.732759 11:-0.767635 12:-0.795918 13:-0.803922 14:-0.816794 15:-0.847328 16:-0.845588 17:-0.841155 18:-0.842857 19:-0.833333 20:-0.820069 21:-0.802721 22:-0.789831 23:-0.795222 24:-0.76 25:-0.752443 26:-0.760518 27:-0.738562 28:-0.71246 29:-0.709677 30:-0.719745 31:-0.833333 32:-0.832258 
-0 -0 -32 1:-0.885714 2:-0.846154 3:-0.846154 4:-0.84106 5:-0.845238 6:-0.826087 7:-0.859296 8:-0.831776 9:-0.847534 10:-0.853448 11:-0.842324 12:-0.869388 13:-0.87451 14:-0.870229 15:-0.877863 16:-0.860294 17:-0.855596 18:-0.864286 19:-0.868056 20:-0.861592 21:-0.857143 22:-0.857627 23:-0.890785 24:-0.88 25:-0.863192 26:-0.883495 27:-0.882353 28:-0.872204 29:-0.870968 30:-0.866242 31:-0.878205 32:-0.832258 
-0 -0 -32 1:-0.914286 2:-0.903846 3:-0.907692 4:-0.907285 5:-0.916667 6:-0.923913 7:-0.929648 8:-0.906542 9:-0.919283 10:-0.922414 11:-0.925311 12:-0.934694 13:-0.913725 14:-0.938931 15:-0.938931 16:-0.919118 17:-0.898917 18:-0.921429 19:-0.902778 20:-0.889273 21:-0.884354 22:-0.898305 23:-0.945392 24:-0.926667 25:-0.934853 26:-0.954693 27:-0.960784 28:-0.948882 29:-0.948387 30:-0.980892 31:-0.967949 32:-0.954839 
-0 -10.65057675617323 -32 1:-0.914286 2:-0.884615 3:-0.892308 4:-0.89404 5:-0.904762 6:-0.891304 7:-0.929648 8:-0.906542 9:-0.865471 10:-0.887931 11:-0.875519 12:-0.869388 13:-0.87451 14:-0.89313 15:-0.854962 16:-0.816176 17:-0.870036 18:-0.835714 19:-0.861111 20:-0.83391 21:-0.857143 22:-0.850847 23:-0.836177 24:-0.84 25:-0.869707 26:-0.825243 27:-0.856209 28:-0.840256 29:-0.819355 30:-0.821656 31:-0.884615 32:-0.845161 
-0 -0 -32 1:-0.714286 2:-0.769231 3:-0.815385 4:-0.827815 5:-0.845238 6:-0.858696 7:-0.879397 8:-0.869159 9:-0.892377 10:-0.87931 11:-0.900415 12:-0.926531 13:-0.937255 14:-0.923664 15:-0.954198 16:-0.926471 17:-0.920578 18:-0.921429 19:-0.909722 20:-0.896194 21:-0.904762 22:-0.925424 23:-0.924915 24:-0.913333 25:-0.908795 26:-0.909385 27:-0.921569 28:-0.923323 29:-0.916129 30:-0.923567 31:-0.935897 32:-0.916129 
-0 -0 -32 1:-1 2:-1 3:-1 4:-0.986755 5:-0.988095 6:-0.967391 7:-0.98995 8:-0.962617 9:-0.964126 10:-0.965517 11:-0.950207 12:-0.934694 13:-0.968627 14:-0.961832 15:-0.961832 16:-0.948529 17:-0.935018 18:-0.935714 19:-0.923611 20:-0.910035 21:-0.904762 22:-0.905085 23:-0.938567 24:-0.913333 25:-0.908795 26:-0.915858 27:-0.915033 28:-0.936102 29:-0.922581 30:-0.936306 31:-0.955128 32:-0.916129 
-0 -0 -25.66589584228855 1:-0.971429 2:-0.942308 3:-0.938462 4:-0.960265 5:-0.964286 6:-0.956522 7:-0.98995 8:-0.981308 9:-0.946188 10:-0.991379 11:-0.983402 12:-0.97551 13:-0.976471 14:-1 15:-0.961832 16:-0.933824 17:-0.978339 18:-0.935714 19:-0.958333 20:-0.930796 21:-0.945578 22:-0.884746 23:-0.897611 24:-0.9 25:-0.934853 26:-0.87055 27:-0.915033 28:-0.878594 29:-0.83871 30:-0.878981 31:-0.903846 32:-0.864516 
-0 -0 -32 1:-0.914286 2:-0.903846 3:-0.907692 4:-0.880795 5:-0.892857 6:-0.902174 7:-0.919598 8:-0.88785 9:-0.847534 10:-0.905172 11:-0.900415 12:-0.918367 13:-0.929412 14:-0.916031 15:-0.916031 16:-0.919118 17:-0.906137 18:-0.914286 19:-0.888889 20:-0.882353 21:-0.877551 22:-0.810169 23:-0.918089 24:-0.9 25:-0.90228 26:-0.909385 27:-0.915033 28:-0.929712 29:-0.909677 30:-0.923567 31:-0.942308 32:-0.909677 
