svm_type c_svc
kernel_type rbf
gamma 8
nr_class 4
total_sv 45
rho -0.0478116 0.179448 -0.0490525 0.245358 0.0024301 -0.280756
label 0 1 2 3
nr_sv 11 10 12 12
SV
0.2348514168581017 0.3454318965674706 0.2342574223654459 1:0.79661 2:0.772152 3:0.827957 4:0.771429 5:0.733333 6:0.79845 7:0.798561 8:0.826667 9:0.886076 10:0.797619 11:0.805714 12:0.932961 13:0.873684 14:0.819095 15:0.940594 16:0.95122 17:0.843318 18:0.916667 19:0.875556 20:0.875 21:0.878788 22:0.880342 23:0.949153 24:0.949153 25:0.885246 26:1 27:0.903614 28:0.952941 29:0.968254 30:0.984436 31:0.915709 32:0.9375 
0.1917088961171316 0.2778519288093141 0.1919320475059279 1:0.864407 2:1 3:0.935484 4:0.904762 5:0.866667 6:0.860465 7:0.841727 8:0.88 9:0.873418 10:0.857143 11:0.874286 12:0.888268 13:0.884211 14:0.869347 15:0.881188 16:0.912195 17:0.880184 18:0.935185 19:0.875556 20:0.928571 21:0.852814 22:0.880342 23:0.855932 24:0.864407 25:0.860656 26:0.88 27:0.903614 28:0.811765 29:0.857143 30:0.883268 31:0.869732 32:0.921875 
0.1762430660030785 0.2605284378888251 0.1752187279681995 1:0.830508 2:0.873418 3:0.827957 4:0.847619 5:0.85 6:0.813953 7:0.856115 8:0.853333 9:0.860759 10:0.892857 11:0.874286 12:0.865922 13:0.831579 14:0.869347 15:0.891089 16:0.912195 17:0.870968 18:0.935185 19:0.893333 20:0.9375 21:0.922078 22:0.931624 23:0.90678 24:0.898305 25:0.942623 26:0.832 27:0.807229 28:0.803922 29:0.896825 30:0.859922 31:0.83908 32:0.992188 
0.4544872076215747 0.5 0.4543286698794975 1:0.898305 2:0.746835 3:0.698925 4:0.714286 5:0.75 6:0.751938 7:0.769784 8:0.8 9:0.78481 10:0.857143 11:0.782857 12:0.832402 13:0.821053 14:0.819095 15:0.772277 16:0.853659 17:0.834101 18:0.898148 19:0.928889 20:0.946429 21:0.965368 22:0.965812 23:0.957627 24:1 25:0.959016 26:0.912 27:0.991968 28:0.890196 29:0.952381 30:0.961089 31:0.961686 32:0.96875 
0.3566314122918644 0.4586645073438126 0.3560035657147904 1:0.830508 2:0.949367 3:0.784946 4:0.809524 5:0.816667 6:0.906977 7:0.884892 8:0.906667 9:0.962025 10:0.845238 11:0.874286 12:0.988827 13:0.884211 14:0.889447 15:0.930693 16:1 17:0.870968 18:0.953704 19:0.884444 20:0.928571 21:0.91342 22:0.897436 23:0.966102 24:0.974576 25:0.893443 26:1 27:0.951807 28:1 29:1 30:1 31:0.954023 32:1 
0.5 0.5 0.5 1:0.898305 2:0.949367 3:1 4:1 5:1 6:1 7:1 8:1 9:1 10:1 11:1 12:1 13:1 14:1 15:1 16:1 17:1 18:1 19:1 20:1 21:1 22:1 23:1 24:0.991525 25:1 26:0.928 27:1 28:0.913725 29:0.944444 30:0.961089 31:0.961686 32:0.960938 
0.5 0.5 0.5 1:0.864407 2:0.924051 3:0.956989 4:0.961905 5:0.916667 6:0.891473 7:0.884892 8:0.813333 9:0.835443 10:0.77381 11:0.805714 12:0.810056 13:0.768421 14:0.879397 15:0.831683 16:0.834146 17:0.806452 18:0.861111 19:0.84 20:0.875 21:0.878788 22:0.863248 23:0.847458 24:0.855932 25:0.918033 26:0.8 27:0.903614 28:0.772549 29:0.801587 30:0.844358 31:0.862069 32:0.882812 
0.5 0.5 0.5 1:0.864407 2:0.772152 3:0.763441 4:0.771429 5:0.8 6:0.782946 7:0.71223 8:0.733333 9:0.759494 10:0.714286 11:0.771429 12:0.787709 13:0.726316 14:0.839196 15:0.792079 16:0.804878 17:0.741935 18:0.824074 19:0.786667 20:0.875 21:0.878788 22:0.940171 23:0.881356 24:0.847458 25:0.942623 26:0.824 27:0.927711 28:0.890196 29:0.888889 30:0.828794 31:0.816092 32:0.945312 
0.5 0.5 0.5 1:0.79661 2:0.873418 3:0.677419 4:0.714286 5:0.716667 6:0.72093 7:0.784173 8:0.84 9:0.822785 10:0.821429 11:0.817143 12:0.877095 13:0.936842 14:0.969849 15:0.940594 16:0.931707 17:0.907834 18:0.944444 19:0.973333 20:0.964286 21:0.939394 22:0.948718 23:0.966102 24:0.974576 25:0.983607 26:0.896 27:0.975904 28:0.890196 29:0.928571 30:0.976654 31:1 32:0.960938 
0.4445065615000888 0.5 0.443991276050576 1:1 2:0.873418 3:0.935484 4:0.942857 5:0.9 6:0.937984 7:0.884892 8:0.893333 9:0.949367 10:0.880952 11:0.874286 12:0.988827 13:0.936842 14:0.879397 15:0.940594 16:0.980488 17:0.889401 18:0.953704 19:0.92 20:0.928571 21:0.887446 22:0.871795 23:0.932203 24:0.940678 25:0.844262 26:0.976 27:0.88755 28:0.937255 29:0.97619 30:0.961089 31:0.931034 32:0.929688 
0.06374141588406519 0.1302557474926125 0.06285825061482693 1:0.898305 2:0.873418 3:0.956989 4:0.92381 5:0.916667 6:0.875969 7:0.884892 8:0.906667 9:0.898734 10:0.880952 11:0.897143 12:0.910615 13:0.863158 14:0.929648 15:0.90099 16:0.912195 17:0.907834 18:0.935185 19:0.937778 20:0.964286 21:0.948052 22:0.931624 23:0.923729 24:1 25:0.92623 26:0.864 27:0.951807 28:0.858824 29:0.904762 30:0.898833 31:0.931034 32:0.945312 
-0.5 0.5 0.5 1:0.762712 2:0.772152 3:0.763441 4:0.771429 5:0.766667 6:0.767442 7:0.769784 8:0.813333 9:0.772152 10:0.797619 11:0.805714 12:0.810056 13:0.126316 14:-0.00502513 15:-0.0990099 16:-0.112195 17:-0.24424 18:-0.222222 19:-0.226667 20:-0.241071 21:-0.177489 22:-0.222222 23:-0.254237 24:-0.279661 25:-0.303279 26:-0.368 27:-0.349398 28:-0.411765 29:-0.412698 30:-0.400778 31:-0.425287 32:-0.4375 
-0.5 0.5 0.5 1:-0.220339 2:-0.240506 3:-0.290323 4:-0.238095 5:-0.316667 6:-0.193798 7:-0.410072 8:-0.386667 9:-0.417722 10:-0.464286 11:-0.451429 12:-0.463687 13:-0.505263 14:-0.477387 15:-0.485149 16:-0.492683 17:-0.511521 18:-0.490741 19:-0.511111 20:-0.517857 21:-0.541126 22:-0.555556 23:-0.567797 24:-0.644068 25:-0.622951 26:-0.632 27:-0.62249 28:-0.654902 29:-0.650794 30:-0.657588 31:-0.662835 32:-0.617188 
-0 0.04822415120185732 0 1:-0.457627 2:-0.443038 3:-0.397849 4:-0.428571 5:-0.416667 6:-0.488372 7:-0.496403 8:-0.48 9:-0.493671 10:-0.52381 11:-0.542857 12:-0.519553 13:-0.536842 14:-0.507538 15:-0.554455 16:-0.560976 17:-0.56682 18:-0.555556 19:-0.555556 20:-0.580357 21:-0.575758 22:-0.547009 23:-0.567797 24:-0.567797 25:-0.57377 26:-0.544 27:-0.566265 28:-0.592157 29:-0.555556 30:-0.564202 31:-0.54023 32:-0.5625 
-0.4470954945968628 0.5 0.4219469714321313 1:-0.491525 2:-0.443038 3:-0.44086 4:-0.428571 5:-0.433333 6:-0.472868 7:-0.52518 8:-0.506667 9:-0.481013 10:-0.559524 11:-0.577143 12:-0.553073 13:-0.610526 14:-0.638191 15:-0.613861 16:-0.590244 17:-0.686636 18:-0.62037 19:-0.644444 20:-0.642857 21:-0.662338 22:-0.649573 23:-0.610169 24:-0.669492 25:-0.704918 26:-0.52 27:-0.670683 28:-0.678431 29:-0.579365 30:-0.603113 31:-0.624521 32:-0.601562 
-0.5 0.5 0.5 1:-0.186441 2:-0.139241 3:-0.247312 4:-0.333333 5:-0.333333 6:-0.395349 7:-0.395683 8:-0.373333 9:-0.417722 10:-0.440476 11:-0.451429 12:-0.452514 13:-0.484211 14:-0.497487 15:-0.514851 16:-0.521951 17:-0.539171 18:-0.509259 19:-0.493333 20:-0.553571 21:-0.558442 22:-0.564103 23:-0.584746 24:-0.610169 25:-0.655738 26:-0.576 27:-0.590361 28:-0.615686 29:-0.603175 30:-0.595331 31:-0.601533 32:-0.59375 
-0.4481542268473958 0.5 0.4258244058617669 1:-0.59322 2:-0.544304 3:-0.505376 4:-0.352381 5:-0.466667 6:-0.488372 7:-0.496403 8:-0.48 9:-0.493671 10:-0.511905 11:-0.531429 12:-0.519553 13:-0.526316 14:-0.517588 15:-0.524752 16:-0.541463 17:-0.557604 18:-0.537037 19:-0.537778 20:-0.553571 21:-0.549784 22:-0.57265 23:-0.576271 24:-0.601695 25:-0.590164 26:-0.576 27:-0.614458 28:-0.615686 29:-0.603175 30:-0.603113 31:-0.609195 32:-0.585938 
-0.5 0.5 0.4780498979076844 1:-0.389831 2:-0.392405 3:-0.397849 4:-0.409524 5:-0.4 6:-0.457364 7:-0.482014 8:-0.466667 9:-0.468354 10:-0.52381 11:-0.508571 12:-0.47486 13:-0.494737 14:-0.497487 15:-0.49505 16:-0.502439 17:-0.520737 18:-0.5 19:-0.475556 20:-0.517857 21:-0.515152 22:-0.521368 23:-0.533898 24:-0.559322 25:-0.565574 26:-0.528 27:-0.550201 28:-0.6 29:-0.587302 30:-0.571984 31:-0.586207 32:-0.59375 
-0.5 0.5 0.5 1:-0.457627 2:-0.518987 3:-0.612903 4:-0.52381 5:-0.583333 6:-0.534884 7:-0.582734 8:-0.6 9:-0.556962 10:-0.642857 11:-0.634286 12:-0.575419 13:-0.610526 14:-0.638191 15:-0.574257 16:-0.55122 17:-0.612903 18:-0.564815 19:-0.591111 20:-0.598214 21:-0.619048 22:-0.632479 23:-0.550847 24:-0.618644 25:-0.655738 26:-0.544 27:-0.662651 28:-0.592157 29:-0.563492 30:-0.587549 31:-0.616858 32:-0.585938 
-0.0846059449946758 0.2136244644606475 0.0656401447268555 1:-0.254237 2:-0.341772 3:-0.354839 4:-0.390476 5:-0.4 6:-0.44186 7:-0.467626 8:-0.453333 9:-0.468354 10:-0.511905 11:-0.485714 12:-0.530726 13:-0.547368 14:-0.517588 15:-0.554455 16:-0.560976 17:-0.576037 18:-0.564815 19:-0.564444 20:-0.589286 21:-0.584416 22:-0.589744 23:-0.610169 24:-0.618644 25:-0.622951 26:-0.608 27:-0.62249 28:-0.654902 29:-0.626984 30:-0.626459 31:-0.624521 32:-0.632812 
-0.4423143098369705 0.5 0.427449708167807 1:-0.423729 2:-0.443038 3:-0.419355 4:-0.447619 5:-0.45 6:-0.488372 7:-0.52518 8:-0.493333 9:-0.506329 10:-0.547619 11:-0.542857 12:-0.564246 13:-0.610526 14:-0.557789 15:-0.554455 16:-0.580488 17:-0.585253 18:-0.592593 19:-0.582222 20:-0.625 21:-0.636364 22:-0.649573 23:-0.652542 24:-0.694915 25:-0.631148 26:-0.664 27:-0.662651 28:-0.701961 29:-0.674603 30:-0.712062 31:-0.685824 32:-0.640625 
-0.5 -0.5 0.4697212510853959 1:-0.322034 2:-0.291139 3:-0.376344 4:-0.314286 5:-0.35 6:-0.395349 7:-0.42446 8:-0.36 9:-0.405063 10:-0.333333 11:-0.108571 12:0.0949721 13:0.0315789 14:-0.0753769 15:-0.148515 16:-0.180488 17:-0.299539 18:-0.351852 19:-0.377778 20:-0.357143 21:-0.290043 22:-0.282051 23:-0.152542 24:-0.169492 25:-0.42623 26:-0.552 27:-0.694779 28:-0.772549 29:-0.785714 30:-0.81323 31:-0.846743 32:-0.835938 
-0.5 -0.5 0.5 1:-0.830508 2:-0.822785 3:-0.870968 4:-0.828571 5:-0.85 6:-0.844961 7:-0.841727 8:-0.826667 9:-0.746835 10:-0.821429 11:-0.817143 12:-0.787709 13:-0.810526 14:-0.798995 15:-0.752475 16:-0.717073 17:-0.788018 18:-0.712963 19:-0.76 20:-0.758929 21:-0.792208 22:-0.777778 23:-0.711864 24:-0.788136 25:-0.811475 26:-0.712 27:-0.799197 28:-0.756863 29:-0.738095 30:-0.774319 31:-0.785441 32:-0.75 
-0.5 -0.479124964180419 0.4258098207619823 1:-0.59322 2:-0.670886 3:-0.634409 4:-0.657143 5:-0.683333 6:-0.736434 7:-0.769784 8:-0.746667 9:-0.759494 10:-0.77381 11:-0.748571 12:-0.709497 13:-0.726316 14:-0.738693 15:-0.762376 16:-0.804878 17:-0.815668 18:-0.796296 19:-0.777778 20:-0.785714 21:-0.774892 22:-0.760684 23:-0.754237 24:-0.762712 25:-0.762295 26:-0.696 27:-0.726908 28:-0.756863 29:-0.746032 30:-0.743191 31:-0.739464 32:-0.757812 
-0.5 -0.5 0.5 1:-0.457627 2:-0.544304 3:-0.548387 4:-0.580952 5:-0.616667 6:-0.689922 7:-0.683453 8:-0.666667 9:-0.670886 10:-0.690476 11:-0.725714 12:-0.731844 13:-0.736842 14:-0.738693 15:-0.742574 16:-0.736585 17:-0.723502 18:-0.712963 19:-0.688889 20:-0.714286 21:-0.714286 22:-0.726496 23:-0.779661 24:-0.779661 25:-0.786885 26:-0.768 27:-0.791165 28:-0.803922 29:-0.801587 30:-0.789883 31:-0.793103 32:-0.804688 
-0.1648060495448924 -0.1514000731977194 0.5 1:-0.661017 2:-0.721519 3:-0.698925 4:-0.714286 5:-0.8 6:-0.844961 7:-0.870504 8:-0.866667 9:-0.860759 10:-0.892857 11:-0.828571 12:-0.888268 13:-0.894737 14:-0.859296 15:-0.881188 16:-0.882927 17:-0.889401 18:-0.787037 19:-0.866667 20:-0.883929 21:-0.844156 22:-0.863248 23:-0.864407 24:-0.898305 25:-0.852459 26:-0.792 27:-0.863454 28:-0.898039 29:-0.865079 30:-0.883268 31:-0.89272 32:-0.851562 
-0.2500317892758143 -0.201623940062059 0.5 1:-0.423729 2:-0.594937 3:-0.591398 4:-0.67619 5:-0.6 6:-0.705426 7:-0.784173 8:-0.773333 9:-0.78481 10:-0.821429 11:-0.817143 12:-0.798883 13:-0.842105 14:-0.849246 15:-0.861386 16:-0.853659 17:-0.870968 18:-0.851852 19:-0.848889 20:-0.866071 21:-0.87013 22:-0.871795 23:-0.872881 24:-0.889831 25:-0.885246 26:-0.848 27:-0.863454 28:-0.87451 29:-0.865079 30:-0.859922 31:-0.862069 32:-0.867188 
-0.2375099616012023 -0.2198054270216085 0.5 1:-0.661017 2:-0.670886 3:-0.698925 4:-0.733333 5:-0.766667 6:-0.79845 7:-0.841727 8:-0.813333 9:-0.78481 10:-0.833333 11:-0.828571 12:-0.810056 13:-0.852632 14:-0.879397 15:-0.841584 16:-0.834146 17:-0.917051 18:-0.861111 19:-0.902222 20:-0.892857 21:-0.922078 22:-0.923077 23:-0.855932 24:-0.923729 25:-0.95082 26:-0.8 27:-0.895582 28:-0.811765 29:-0.793651 30:-0.828794 31:-0.846743 32:-0.835938 
-0.3137227571827627 -0.2868341611708704 0.5 1:-0.694915 2:-0.746835 3:-0.763441 4:-0.809524 5:-0.833333 6:-0.875969 7:-0.899281 8:-0.88 9:-0.886076 10:-0.916667 11:-0.92 12:-0.910615 13:-0.905263 14:-0.889447 15:-0.910891 16:-0.931707 17:-0.926267 18:-0.916667 19:-0.928889 20:-0.955357 21:-0.991342 22:-0.965812 23:-0.974576 24:-0.991525 25:-0.991803 26:-1 27:-0.935743 28:-0.945098 29:-1 30:-0.914397 31:-0.915709 32:-0.921875 
-0.5 -0.5 0.5 1:-0.322034 2:-0.56962 3:-0.634409 4:-0.657143 5:-0.666667 6:-0.72093 7:-0.726619 8:-0.746667 9:-0.708861 10:-0.77381 11:-0.771429 12:-0.810056 13:-0.831579 14:-0.839196 15:-0.841584 16:-0.863415 17:-0.870968 18:-0.842593 19:-0.857778 20:-0.875 21:-0.922078 22:-0.905983 23:-0.915254 24:-0.915254 25:-0.934426 26:-0.888 27:-0.919679 28:-0.937255 29:-0.920635 30:-0.922179 31:-0.923372 32:-0.921875 
-0.4254276054971377 -0.39124737057581 0.5 1:-0.79661 2:-0.848101 3:-0.892473 4:-0.866667 5:-0.85 6:-0.875969 7:-0.841727 8:-0.88 9:-0.860759 10:-0.928571 11:-0.942857 12:-0.921788 13:-0.926316 14:-0.889447 15:-0.891089 16:-0.892683 17:-0.889401 18:-0.861111 19:-0.875556 20:-0.866071 21:-0.878788 22:-0.888889 23:-0.889831 24:-0.940678 25:-0.918033 26:-0.904 27:-0.911647 28:-0.945098 29:-0.920635 30:-0.937743 31:-0.938697 32:-0.898438 
-0.2853422264049073 -0.2641996189007085 0.5 1:-0.694915 2:-0.746835 3:-0.741935 4:-0.771429 5:-0.8 6:-0.860465 7:-0.884892 8:-0.866667 9:-0.886076 10:-0.916667 11:-0.931429 12:-0.921788 13:-0.926316 14:-0.939698 15:-0.930693 16:-0.941463 17:-0.935484 18:-0.916667 19:-0.911111 20:-0.919643 21:-0.939394 22:-0.940171 23:-0.966102 24:-0.957627 25:-0.959016 26:-0.936 27:-0.959839 28:-1 29:-1 30:-0.984436 31:-0.984674 32:-0.984375 
-0.2958921285953185 -0.2676130605533099 0.5 1:-0.661017 2:-0.721519 3:-0.72043 4:-0.752381 5:-0.783333 6:-0.813953 7:-0.870504 8:-0.826667 9:-0.78481 10:-0.857143 11:-0.84 12:-0.787709 13:-0.821053 14:-0.839196 15:-0.722772 16:-0.77561 17:-0.861751 18:-0.796296 19:-0.84 20:-0.839286 21:-0.878788 22:-0.897436 23:-0.830508 24:-0.898305 25:-0.942623 26:-0.856 27:-0.951807 28:-0.898039 29:-0.880952 30:-0.891051 31:-0.969349 32:-0.875 
-0.5 -0.5 -0.5 1:-1 2:-1 3:-1 4:-1 5:-1 6:-1 7:-0.971223 8:-1 9:-1 10:-1 11:-0.977143 12:-0.977654 13:-0.957895 14:-0.939698 15:-0.940594 16:-0.941463 17:-0.97235 18:-0.925926 19:-0.92 20:-0.9375 21:-0.922078 22:-0.871795 23:-0.923729 24:-0.932203 25:-0.885246 26:-0.808 27:-0.799197 28:-0.788235 29:-0.706349 30:-0.696498 31:-0.701149 32:-0.734375 
-0.5 -0.5 -0.5 1:-0.491525 2:-0.316456 3:-0.698925 4:-0.67619 5:-0.733333 6:-0.79845 7:-0.798561 8:-0.84 9:-0.860759 10:-0.892857 11:-0.908571 12:-0.910615 13:-0.926316 14:-0.909548 15:-0.920792 16:-0.921951 17:-0.935484 18:-0.916667 19:-0.911111 20:-0.9375 21:-0.948052 22:-0.948718 23:-0.957627 24:-0.974576 25:-0.967213 26:-0.936 27:-0.959839 28:-0.976471 29:-0.960317 30:-0.961089 31:-0.961686 32:-0.953125 
-0 -0 -0.5 1:-0.59322 2:-0.64557 3:-0.655914 4:-0.733333 5:-0.733333 6:-0.829457 7:-0.870504 8:-0.84 9:-0.873418 10:-0.892857 11:-0.885714 12:-0.910615 13:-0.915789 14:-0.889447 15:-0.90099 16:-0.912195 17:-0.907834 18:-0.888889 19:-0.884444 20:-0.892857 21:-0.878788 22:-0.863248 23:-0.881356 24:-0.915254 25:-0.877049 26:-0.864 27:-0.863454 28:-0.921569 29:-0.873016 30:-0.898833 31:-0.900383 32:-0.867188 
-0.5 -0.5 -0.5 1:-0.694915 2:-0.696203 3:-0.72043 4:-0.771429 5:-0.8 6:-0.875969 7:-0.899281 8:-0.88 9:-0.898734 10:-0.928571 11:-0.977143 12:-0.96648 13:-0.989474 14:-0.979899 15:-1 16:-1 17:-1 18:-1 19:-1 20:-1 21:-1 22:-1 23:-1 24:-1 25:-1 26:-0.944 27:-0.967871 28:-0.968627 29:-0.936508 30:-0.945525 31:-0.984674 32:-0.945312 
-0.5 -0.5 -0.5 1:-0.389831 2:-0.443038 3:-0.569892 4:-0.6 5:-0.65 6:-0.72093 7:-0.784173 8:-0.773333 9:-0.734177 10:-0.857143 11:-0.874286 12:-0.854749 13:-0.894737 14:-0.889447 15:-0.871287 16:-0.804878 17:-0.935484 18:-0.888889 19:-0.92 20:-0.919643 21:-0.95671 22:-0.923077 23:-0.90678 24:-0.957627 25:-0.983607 26:-0.888 27:-0.983936 28:-0.929412 29:-0.896825 30:-0.929961 31:-0.94636 32:-0.914062 
-0.1249290418878648 -0.1127103631254392 -0.5 1:-0.728814 2:-0.721519 3:-0.806452 4:-0.752381 5:-0.8 6:-0.875969 7:-0.870504 8:-0.853333 9:-0.860759 10:-0.892857 11:-0.908571 12:-0.899441 13:-0.905263 14:-0.889447 15:-0.910891 16:-0.912195 17:-0.926267 18:-0.907407 19:-0.911111 20:-0.919643 21:-0.922078 22:-0.931624 23:-0.915254 24:-0.949153 25:-0.95082 26:-0.904 27:-0.927711 28:-0.945098 29:-0.928571 30:-0.922179 31:-0.931034 32:-0.921875 
-0.1320981703295654 -0.10803441448732 -0.5 1:-0.59322 2:-0.620253 3:-0.655914 4:-0.714286 5:-0.75 6:-0.829457 7:-0.856115 8:-0.853333 9:-0.873418 10:-0.904762 11:-0.92 12:-0.899441 13:-0.926316 14:-0.909548 15:-0.920792 16:-0.921951 17:-0.926267 18:-0.916667 19:-0.911111 20:-0.928571 21:-0.930736 22:-0.940171 23:-0.949153 24:-0.991525 25:-1 26:-0.96 27:-1 28:-0.984314 29:-1 30:-1 31:-1 32:-1 
-0.5 -0.5 -0.5 1:-0.59322 2:-0.594937 3:-0.612903 4:-0.695238 5:-0.733333 6:-0.79845 7:-0.827338 8:-0.786667 9:-0.797468 10:-0.821429 11:-0.805714 12:-0.821229 13:-0.831579 14:-0.819095 15:-0.821782 16:-0.834146 17:-0.861751 18:-0.824074 19:-0.84 20:-0.848214 21:-0.852814 22:-0.854701 23:-0.864407 24:-0.932203 25:-0.901639 26:-0.872 27:-0.911647 28:-0.937255 29:-0.912698 30:-0.937743 31:-0.94636 32:-0.914062 
-0.5 -0.5 -0.5 1:-0.932203 2:-0.772152 3:-0.849462 4:-0.885714 5:-0.916667 6:-0.953488 7:-1 8:-0.96 9:-0.962025 10:-0.97619 11:-0.977143 12:-0.944134 13:-0.947368 14:-0.939698 15:-0.940594 16:-0.931707 17:-0.9447 18:-0.916667 19:-0.928889 20:-0.928571 21:-0.930736 22:-0.931624 23:-0.932203 24:-0.949153 25:-0.95082 26:-0.904 27:-0.943775 28:-0.945098 29:-0.928571 30:-0.922179 31:-0.931034 32:-0.9375 
-0 -0 -0.3955310718473782 1:-0.59322 2:-0.620253 3:-0.677419 4:-0.714286 5:-0.766667 6:-0.813953 7:-0.870504 8:-0.853333 9:-0.835443 10:-0.916667 11:-0.92 12:-0.888268 13:-0.915789 14:-0.929648 15:-0.891089 16:-0.873171 17:-0.953917 18:-0.888889 19:-0.937778 20:-0.919643 21:-0.95671 22:-0.957265 23:-0.90678 24:-0.966102 25:-0.991803 26:-0.88 27:-0.983936 28:-0.929412 29:-0.904762 30:-0.937743 31:-0.954023 32:-0.921875 
-0.4472906205237848 -0.4135184352261241 -0.5 1:-0.627119 2:-0.64557 3:-0.655914 4:-0.714286 5:-0.733333 6:-0.829457 7:-0.856115 8:-0.84 9:-0.860759 10:-0.880952 11:-0.897143 12:-0.899441 13:-0.905263 14:-0.889447 15:-0.90099 16:-0.902439 17:-0.917051 18:-0.898148 19:-0.893333 20:-0.883929 21:-0.87013 22:-0.871795 23:-0.847458 24:-0.872881 25:-0.893443 26:-0.856 27:-0.871486 28:-0.890196 29:-0.84127 30:-0.867704 31:-0.846743 32:-0.882812 
-0.2142721273580492 -0.1846479152573619 -0.5 1:-0.694915 2:-0.670886 3:-0.698925 4:-0.733333 5:-0.783333 6:-0.844961 7:-0.884892 8:-0.893333 9:-0.924051 10:-0.964286 11:-1 12:-1 13:-1 14:-1 15:-0.970297 16:-1 17:-0.990783 18:-0.972222 19:-0.982222 20:-0.991071 21:-0.95671 22:-0.982906 23:-0.974576 24:-0.983051 25:-0.97541 26:-0.904 27:-0.943775 28:-0.968627 29:-0.944444 30:-0.945525 31:-0.94636 32:-0.921875 
