svm_type c_svc
kernel_type rbf
gamma 0.0078125
nr_class 5
total_sv 31
rho 0.115967 0 0.00553444 0 -0.140116 -1.1629 5.21803 0 13.8172 2.30689
label 0 1 2 3 4
nr_sv 2 6 9 6 8
SV
6.273094446843547 0 0 0 1:0.5 2:0.72973 3:0.882353 4:0.850746 5:0.896104 6:0.888889 7:0.784314 8:0.767857 9:0.696 10:0.811024 11:0.833333 12:0.77305 13:0.751634 14:0.852349 15:0.870968 16:0.780488 17:0.831325 18:0.843373 19:0.671795 20:0.831461 21:0.900552 22:0.868852 23:0.847826 24:0.833333 25:0.84375 26:0.728643 27:0.910448 28:0.778894 29:0.742268 30:0.833333 31:0.892157 32:0.865285 
0 2.448501569023154 10.88940679863495 13.69092544143832 1:-0.0833333 2:0.351351 3:0.490196 4:0.492537 5:0.636364 6:0.688889 7:0.686275 8:0.732143 9:0.68 10:0.779528 11:0.833333 12:0.744681 13:0.751634 14:0.838926 15:0.858065 16:0.731707 17:0.855422 18:0.843373 19:0.692308 20:0.853933 21:0.889503 22:0.901639 23:0.880435 24:0.84375 25:0.895833 26:0.778894 27:0.860697 28:0.798995 29:0.886598 30:0.862745 31:0.852941 32:0.88601 
-5.752810245311278 0 8.907503344083471 12.95649353275969 1:0.833333 2:0.783784 3:0.764706 4:0.761194 5:0.844156 6:0.844444 7:0.862745 8:0.839286 9:0.84 10:0.905512 11:0.893939 12:0.843972 13:0.79085 14:0.798658 15:0.806452 16:0.695122 17:0.674699 18:0.325301 19:-0.2 20:-0.292135 21:-0.325967 22:-0.387978 23:-0.445652 24:-0.510417 25:-0.416667 26:-0.517588 27:-0.432836 28:-0.547739 29:-0.453608 30:-0.480392 31:-0.441176 32:-0.46114 
-0 0 14.64509252323211 0 1:-0.25 2:-0.351351 3:-0.45098 4:-0.492537 5:-0.506494 6:-0.488889 7:-0.529412 8:-0.535714 9:-0.52 10:-0.590551 11:-0.575758 12:-0.531915 13:-0.51634 14:-0.503356 15:-0.522581 16:-0.463415 17:-0.542169 18:-0.53012 19:-0.528205 20:-0.494382 21:-0.480663 22:-0.508197 23:-0.445652 24:-0.4375 25:-0.458333 26:-0.356784 27:-0.442786 28:-0.276382 29:-0.340206 30:-0.303922 31:-0.313725 32:-0.409326 
-0 112.3869748190046 0 21.68437945509009 1:-1 2:-0.837838 3:-0.803922 4:-0.761194 5:-0.74026 6:-0.711111 7:-0.686275 8:-0.607143 9:-0.696 10:-0.685039 11:-0.666667 12:-0.673759 13:-0.647059 14:-0.624161 15:-0.496774 16:-0.560976 17:-0.566265 18:-0.554217 19:-0.579487 20:-0.494382 21:-0.469613 22:-0.464481 23:-0.478261 24:-0.510417 25:-0.4375 26:-0.537688 27:-0.412935 28:-0.527638 29:-0.43299 30:-0.470588 31:-0.431373 32:-0.388601 
-0.5202842015322707 0 0 0 1:-0.583333 2:-0.567568 3:-0.607843 4:-0.671642 5:-0.662338 6:-0.6 7:-0.647059 8:-0.660714 9:-0.632 10:-0.669291 11:-0.621212 12:-0.631206 13:-0.647059 14:-0.610738 15:-0.548387 16:-0.573171 17:-0.542169 18:-0.506024 19:-0.548718 20:-0.438202 21:-0.414365 22:-0.431694 23:-0.413043 24:-0.53125 25:-0.375 26:-0.507538 27:-0.353234 28:-0.477387 29:-0.381443 30:-0.421569 31:-0.421569 32:-0.295337 
-0 36.4085005695184 0 50.93389761852387 1:-0.416667 2:-0.513514 3:-0.607843 4:-0.641791 5:-0.61039 6:-0.688889 7:-0.705882 8:-0.696429 9:-0.712 10:-0.700787 11:-0.727273 12:-0.730496 13:-0.686275 14:-0.677852 15:-0.612903 16:-0.670732 17:-0.626506 18:-0.638554 19:-0.589744 20:-0.561798 21:-0.524862 22:-0.519126 23:-0.521739 24:-0.53125 25:-0.458333 26:-0.60804 27:-0.442786 28:-0.547739 29:-0.474227 30:-0.441176 31:-0.431373 32:-0.409326 
-0 5.038311562227868 0 58.51116086766982 1:-0.416667 2:-0.513514 3:-0.568627 4:-0.58209 5:-0.61039 6:-0.6 7:-0.607843 8:-0.607143 9:-0.632 10:-0.637795 11:-0.621212 12:-0.617021 13:-0.620915 14:-0.597315 15:-0.574194 16:-0.573171 17:-0.542169 18:-0.542169 19:-0.548718 20:-0.494382 21:-0.469613 22:-0.486339 23:-0.48913 24:-0.5625 25:-0.46875 26:-0.567839 27:-0.462687 28:-0.557789 29:-0.453608 30:-0.529412 31:-0.5 32:-0.450777 
-2.448501569023154 -153.7118528244785 8.184191450149612 0 1:-0.833333 2:-0.837838 3:-0.882353 4:-0.850746 5:-0.844156 6:-0.755556 7:-0.745098 8:-0.75 9:-0.776 10:-0.748031 11:-0.621212 12:-0.702128 13:-0.673203 14:-0.651007 15:-0.625806 16:-0.658537 17:-0.710843 18:-0.590361 19:-0.6 20:-0.539326 21:-0.524862 22:-0.420765 23:-0.532609 24:-0.541667 25:-0.489583 26:-0.668342 27:-0.721393 28:-0.778894 29:-0.783505 30:-0.794118 31:-0.813725 32:-0.803109 
-0 -0.1219341262724146 0 0 1:-0.25 2:-0.459459 3:-0.411765 4:-0.641791 5:-0.714286 6:-0.711111 7:-0.72549 8:-0.767857 9:-0.744 10:-0.874016 11:-0.893939 12:-0.815603 13:-0.843137 14:-0.919463 15:-0.845161 16:-0.841463 17:-0.891566 18:-0.891566 19:-0.835897 20:-0.865169 21:-0.845304 22:-0.857923 23:-0.858696 24:-0.802083 25:-0.84375 26:-0.798995 27:-0.830846 28:-0.758794 29:-0.835052 30:-0.72549 31:-0.754902 32:-0.865285 
-0 -0 0 512 1:-0.583333 2:-0.675676 3:-0.803922 4:-0.791045 5:-0.818182 6:-0.866667 7:-0.862745 8:-0.875 9:-0.872 10:-0.889764 11:-0.909091 12:-0.914894 13:-0.908497 14:-0.932886 15:-0.883871 16:-0.890244 17:-0.891566 18:-0.879518 19:-0.85641 20:-0.831461 21:-0.823204 22:-0.836066 23:-0.836957 24:-0.84375 25:-0.760417 26:-0.919598 27:-0.671642 28:-0.879397 29:-0.814433 30:-0.823529 31:-0.803922 32:-0.772021 
-0 -0 0 512 1:-0.416667 2:-0.567568 3:-0.686275 4:-0.731343 5:-0.792208 6:-0.8 7:-0.803922 8:-0.839286 9:-0.856 10:-0.889764 11:-0.863636 12:-0.900709 13:-0.882353 14:-0.946309 15:-1 16:-0.939024 17:-0.927711 18:-0.987952 19:-0.917949 20:-0.865169 21:-0.878453 22:-0.879781 23:-0.902174 24:-1 25:-0.864583 26:-0.969849 27:-0.870647 28:-0.969849 29:-0.886598 30:-0.862745 31:-0.911765 32:-0.854922 
-0 -0 0 512 1:-0.833333 2:-1 3:-1 4:-0.940299 5:-0.922078 6:-0.8 7:-0.882353 8:-0.892857 9:-0.904 10:-0.889764 11:-0.924242 12:-0.914894 13:-0.882353 14:-0.946309 15:-0.896774 16:-0.865854 17:-0.915663 18:-0.903614 19:-0.876923 20:-0.853933 21:-0.834254 22:-0.846995 23:-0.869565 24:-0.875 25:-0.822917 26:-0.909548 27:-0.800995 28:-0.899497 29:-0.896907 30:-0.843137 31:-0.833333 32:-0.834197 
-0 -0 0 512 1:-0.5 2:-0.567568 3:-0.686275 4:-0.731343 5:-0.792208 6:-0.8 7:-0.823529 8:-0.875 9:-0.84 10:-0.952756 11:-0.939394 12:-0.971631 13:-0.895425 14:-0.946309 15:-0.948387 16:-0.963415 17:-0.951807 18:-0.939759 19:-0.928205 20:-0.842697 21:-0.889503 22:-0.89071 23:-0.891304 24:-0.9375 25:-0.770833 26:-0.939698 27:-0.830846 28:-0.949749 29:-0.876289 30:-0.911765 31:-0.872549 32:-0.834197 
-0 -0 0 512 1:-0.0833333 2:-0.405405 3:-0.568627 4:-0.58209 5:-0.662338 6:-0.666667 7:-0.72549 8:-0.767857 9:-0.792 10:-0.795276 11:-0.818182 12:-0.829787 13:-0.843137 14:-0.852349 15:-0.806452 16:-0.853659 17:-0.831325 18:-0.819277 19:-0.805128 20:-0.786517 21:-0.790055 22:-0.748634 23:-0.782609 24:-0.895833 25:-0.78125 26:-0.879397 27:-0.771144 28:-0.889447 29:-0.814433 30:-0.882353 31:-0.892157 32:-0.782383 
-0 -0 0 84.28922904499987 1:-0.166667 2:-0.459459 3:-0.529412 4:-0.791045 5:-0.87013 6:-0.888889 7:-0.882353 8:-0.875 9:-0.888 10:-0.905512 11:-0.924242 12:-0.914894 13:-0.895425 14:-0.932886 15:-0.883871 16:-0.926829 17:-0.915663 18:-0.891566 19:-0.876923 20:-0.831461 21:-0.834254 22:-0.825137 23:-0.847826 24:-0.864583 25:-0.822917 26:-0.909548 27:-0.800995 28:-0.919598 29:-0.824742 30:-0.852941 31:-0.803922 32:-0.823834 
-0 -0 0 512 1:-0.333333 2:-0.513514 3:-0.647059 4:-0.641791 5:-0.766234 6:-0.755556 7:-0.803922 8:-0.821429 9:-0.808 10:-0.92126 11:-0.909091 12:-0.843972 13:-0.856209 14:-0.932886 15:-0.870968 16:-0.878049 17:-0.903614 18:-0.891566 19:-0.876923 20:-0.876404 21:-0.867403 22:-0.868852 23:-0.880435 24:-0.8125 25:-0.864583 26:-0.809045 27:-0.880597 28:-0.738693 29:-0.907216 30:-0.784314 31:-0.813725 32:-0.927461 
-3.439969115911353 -0 -0 0 1:-0.166667 2:0.027027 3:-0.0588235 4:0.0447761 5:0.0909091 6:0.0666667 7:0.0980392 8:0.0892857 9:0.04 10:0.0708661 11:0.106061 12:0.0921986 13:0.0326797 14:0.100671 15:0.135484 16:0.0731707 17:0.156627 18:0.192771 19:0.0769231 20:0.213483 21:0.171271 22:0.234973 23:0.206522 24:0.197917 25:0.21875 26:0.125628 27:0.323383 28:0.165829 29:0.278351 30:0.254902 31:0.27451 32:0.34715 
-6.757020873267789 -0 -0 26.32000665557317 1:0.166667 2:0.0810811 3:-0.0196078 4:-0.0149254 5:-0.012987 6:0.0222222 7:0.0196078 8:0.0178571 9:0.024 10:0.023622 11:0.0909091 12:0.0780142 13:0.0196078 14:0.114094 15:0.2 16:0.121951 17:0.168675 18:0.192771 19:0.0974359 20:0.258427 21:0.281768 22:0.322404 23:0.271739 24:0.145833 25:0.3125 26:0.145729 27:0.313433 28:0.155779 29:0.28866 30:0.215686 31:0.245098 32:0.378238 
-0.6924168094558086 -0 -0 0 1:-0.416667 2:-0.189189 3:-0.176471 4:-0.164179 5:-0.0909091 6:-0.0666667 9:-0.024 10:0.0551181 11:0.0909091 12:0.0638298 13:0.0980392 14:0.154362 15:0.16129 16:0.109756 17:0.180723 18:0.204819 19:0.117949 20:0.280899 21:0.270718 22:0.278689 23:0.271739 24:0.239583 25:0.3125 26:0.20603 27:0.303483 28:0.21608 29:0.28866 30:0.294118 31:0.372549 32:0.357513 
-0 -0 -0 12.47757152108558 1:-0.833333 2:-0.513514 3:-0.490196 4:-0.343284 5:-0.246753 6:-0.133333 7:-0.176471 8:-0.125 9:-0.168 10:-0.102362 11:-0.106061 12:-0.0780142 13:-0.0588235 14:0.0201342 15:0.0709677 16:0.0243902 17:0.13253 18:0.108434 19:0.0358974 20:0.168539 21:0.18232 22:0.169399 23:0.23913 24:0.197917 25:0.270833 26:0.135678 27:0.273632 28:0.19598 29:0.268041 30:0.254902 31:0.235294 32:0.336788 
-0 -23.55259586731558 -0 0 2:-0.189189 3:-0.0980392 4:-0.0746269 5:-0.038961 7:-0.0196078 8:-0.0357143 9:-0.008 10:-0.023622 12:0.0496454 13:0.0457516 14:0.033557 15:0.122581 16:0.121951 17:0.0843373 18:0.0843373 19:-0.00512821 20:0.101124 21:0.104972 22:0.125683 23:0.152174 24:0.208333 25:0.125 26:0.236181 27:0.124378 28:0.276382 29:0.257732 30:0.313725 31:0.254902 32:0.19171 
-0 -0 -8.184191450149612 0 1:-0.75 2:-0.513514 3:-0.568627 4:-0.373134 5:-0.298701 6:-0.288889 7:-0.176471 8:-0.142857 9:-0.152 10:-0.102362 11:-0.0606061 12:-0.0921986 13:-0.0588235 14:0.0201342 15:0.0193548 16:-0.0243902 17:0.0722892 18:0.120482 19:0.0358974 20:0.157303 21:0.19337 22:0.202186 23:0.206522 24:0.166667 25:0.239583 26:0.125628 27:0.353234 28:0.175879 29:0.257732 30:0.27451 31:0.284314 32:0.326425 
-13.69092544143832 -33.63273771509824 -45.08526266183382 -28.33607641872224 1:0.0833333 2:-0.027027 3:-0.0588235 4:-0.104478 5:-0.038961 8:-0.0178571 9:0.024 10:0.00787402 11:0.151515 12:0.219858 13:0.503268 14:0.812081 15:0.96129 16:0.841463 17:0.891566 18:0.975904 19:0.692308 20:0.876404 21:0.845304 22:0.814208 23:0.75 24:0.645833 25:0.677083 26:0.477387 27:0.472637 28:0.226131 29:0.0618557 30:-0.0784314 31:-0.264706 32:-0.357513 
-0 -0 -512 -0 1:-0.666667 2:-0.72973 3:-0.764706 4:-0.820896 5:-0.844156 6:-0.822222 7:-0.862745 8:-0.857143 9:-0.904 10:-0.905512 11:-0.924242 12:-0.943262 13:-0.921569 14:-0.973154 15:-0.935484 16:-0.95122 17:-0.987952 18:-0.939759 19:-0.917949 20:-0.910112 21:-0.878453 22:-0.89071 23:-0.923913 24:-0.927083 25:-0.885417 26:-0.949749 27:-0.870647 28:-0.939698 29:-0.907216 30:-0.872549 31:-0.852941 32:-0.84456 
-0 -110.4531937589452 -467.0204265926879 -10.46150175793652 1:-0.583333 2:-0.567568 3:-0.686275 4:-0.731343 5:-0.714286 6:-0.755556 7:-0.745098 8:-0.785714 9:-0.76 10:-0.779528 11:-0.712121 12:-0.858156 13:-0.869281 14:-0.879195 15:-0.845161 16:-0.890244 17:-0.86747 18:-0.855422 19:-0.846154 20:-0.842697 21:-0.823204 22:-0.737705 23:-0.869565 24:-0.885417 25:-0.84375 26:-0.939698 27:-0.810945 28:-0.909548 29:-0.876289 30:-0.901961 31:-0.901961 32:-0.875648 
-0 -0 -195.6452094370538 -0 1:-0.25 2:-0.459459 3:-0.607843 4:-0.432836 5:-0.558442 6:-0.711111 7:-0.803922 8:-0.857143 9:-0.84 10:-0.92126 11:-0.893939 12:-0.900709 13:-0.934641 14:-0.932886 15:-0.870968 16:-0.926829 17:-0.927711 18:-0.903614 19:-0.917949 20:-0.865169 21:-0.867403 22:-0.79235 23:-0.891304 24:-0.96875 25:-0.864583 26:-0.979899 27:-0.840796 28:-0.979899 29:-0.896907 30:-0.970588 31:-0.990196 32:-0.875648 
-0 -0 -402.9215723702982 -0 1:-0.666667 2:-0.675676 3:-0.803922 4:-0.820896 5:-0.87013 6:-0.866667 7:-0.862745 8:-0.875 9:-0.92 10:-0.937008 11:-0.954545 12:-0.943262 13:-0.934641 14:-0.986577 15:-0.935484 16:-0.97561 17:-0.963855 18:-0.963855 19:-0.917949 20:-0.910112 21:-0.900552 22:-0.901639 23:-0.923913 24:-0.895833 25:-0.895833 26:-0.969849 27:-0.870647 28:-0.959799 29:-0.896907 30:-0.941176 31:-0.862745 32:-0.865285 
-0 -0 -512 -0 1:-0.416667 2:-0.675676 3:-0.647059 4:-0.731343 5:-0.766234 6:-0.777778 7:-0.745098 8:-0.785714 9:-0.84 10:-0.84252 11:-0.863636 12:-0.829787 13:-0.856209 14:-0.90604 15:-0.858065 16:-0.902439 17:-0.891566 18:-0.855422 19:-0.866667 20:-0.842697 21:-0.845304 22:-0.846995 23:-0.869565 24:-0.895833 25:-0.854167 26:-0.899497 27:-0.840796 28:-0.959799 29:-0.917526 30:-0.911765 31:-0.901961 32:-0.896373 
-0 -0 -509.6167579831263 -0 1:-0.166667 2:-0.297297 3:-0.647059 4:-0.701493 5:-0.74026 6:-0.711111 7:-0.784314 8:-0.839286 9:-0.808 10:-0.874016 11:-0.893939 12:-0.900709 13:-0.934641 14:-0.932886 15:-0.870968 16:-0.914634 17:-0.927711 18:-0.903614 19:-0.917949 20:-0.865169 21:-0.878453 22:-0.857923 23:-0.869565 24:-0.96875 25:-0.875 26:-0.959799 27:-0.860697 28:-0.979899 29:-0.907216 30:-1 31:-1 32:-0.865285 
-0 -0 -512 -0 1:-0.666667 2:-0.72973 3:-0.843137 4:-0.820896 5:-0.87013 6:-0.888889 7:-0.901961 8:-0.892857 9:-0.904 10:-0.952756 11:-0.954545 12:-0.957447 13:-0.934641 14:-0.986577 15:-0.922581 16:-0.97561 17:-0.951807 18:-0.975904 19:-0.917949 20:-0.910112 21:-0.900552 22:-0.901639 23:-0.923913 24:-0.9375 25:-0.895833 26:-0.939698 27:-0.820896 28:-0.959799 29:-0.865979 30:-0.911765 31:-0.882353 32:-0.88601 
