svm_type c_svc
kernel_type rbf
gamma 2
nr_class 4
total_sv 31
rho 0.315768 0.352531 0.0982172 -0.129419 -0.290325 -0.946736
label 0 1 2 3
nr_sv 4 7 11 9
SV
0.5983214432061765 0.6139651667284411 0.4987864539714323 1:0.793103 2:1 3:1 4:0.980198 5:0.982143 6:0.984 7:0.970149 8:0.986301 9:0.974522 10:0.987879 11:1 12:0.98895 13:0.936842 14:1 15:0.98995 16:0.99 17:0.962963 18:1 19:1 20:1 21:0.991416 22:1 23:1 24:0.934694 25:1 26:0.879518 27:0.96124 28:0.795455 29:0.951417 30:0.83908 31:0.883721 32:0.96063 
0.2680740280013708 0.2751088933317597 0.2238156178826053 1:1 2:1 3:0.954545 4:0.920792 5:0.946429 6:0.952 7:0.985075 8:1 9:0.936306 10:0.963636 11:0.954023 12:0.966851 13:0.978947 14:0.958763 15:0.939698 16:0.94 17:0.916667 18:0.962441 19:0.981818 20:0.936937 21:0.922747 22:0.965957 23:0.91453 24:0.918367 25:0.976 26:0.919679 27:0.968992 28:0.863636 29:0.951417 30:0.931034 31:0.984496 32:0.968504 
0.2925105602262574 0.3020297216042843 0.2440647364573777 1:0.689655 2:0.890411 3:0.863636 4:0.841584 5:0.892857 6:0.888 7:0.895522 8:0.945205 9:0.910828 10:0.939394 11:0.931034 12:0.922652 13:0.926316 14:0.989691 15:1 16:0.98 17:0.953704 18:0.962441 19:0.990909 20:1 21:1 22:0.991489 23:0.957265 24:1 25:0.992 26:1 27:1 28:0.840909 29:0.94332 30:0.938697 31:0.968992 32:0.952756 
0.8845521639485282 0.9092414336916891 0.7389391942585586 1:0.724138 2:0.835616 3:0.886364 4:0.881188 5:0.875 6:0.92 7:0.895522 8:0.876712 9:0.834395 10:0.781818 11:0.770115 12:0.878453 13:0.842105 14:0.793814 15:0.819095 16:0.93 17:0.777778 18:0.849765 19:0.836364 20:0.810811 21:0.819742 22:0.855319 23:0.863248 24:0.902041 25:0.84 26:0.919679 27:0.790698 28:0.916667 29:0.991903 30:0.900383 31:0.922481 32:0.913386 
-0.6838394467876863 1.015913447072995 0.7099184544961648 1:0.827586 2:0.945205 3:0.909091 4:0.861386 5:0.910714 6:0.872 7:0.940299 8:0.931507 9:0.859873 10:0.890909 11:0.885057 12:0.856354 13:0.884211 14:0.865979 15:-0.0452261 16:-0.14 17:-0.240741 18:-0.305164 19:-0.363636 20:-0.459459 21:-0.459227 22:-0.46383 23:-0.529915 24:-0.428571 25:-0.528 26:-0.638554 27:-0.612403 28:-0.69697 29:-0.724696 30:-0.754789 31:-0.728682 32:-0.748031 
-0.4404130584917273 0 1.034798541956672 1:-0.896552 2:-0.890411 3:-0.818182 4:-0.762376 5:-0.732143 6:-0.696 7:-0.686567 8:-0.643836 9:-0.656051 10:-0.648485 11:-0.62069 12:-0.646409 13:-0.621053 14:-0.649485 15:-0.678392 16:-0.7 17:-0.685185 18:-0.699531 19:-0.690909 20:-0.711712 21:-0.67382 22:-0.676596 23:-0.735043 24:-0.689796 25:-0.68 26:-0.742972 27:-0.682171 28:-0.757576 29:-0.757085 30:-0.739464 31:-0.72093 32:-0.732283 
-0.1131386483342646 3.458536228712873 0 1:-0.758621 2:-0.671233 3:-0.590909 4:-0.643564 5:-0.607143 6:-0.616 7:-0.626866 8:-0.616438 9:-0.605096 10:-0.636364 11:-0.643678 12:-0.624309 13:-0.610526 14:-0.649485 15:-0.658291 16:-0.67 17:-0.666667 18:-0.671362 19:-0.645455 20:-0.648649 21:-0.596567 22:-0.591489 23:-0.632479 24:-0.57551 25:-0.56 26:-0.590361 27:-0.55814 28:-0.651515 29:-0.659919 30:-0.64751 31:-0.627907 32:-0.661417 
-0.521734156284934 4.047620323229541 0.3545462600206099 1:-0.448276 2:-0.424658 3:-0.409091 4:-0.465347 5:-0.428571 6:-0.424 7:-0.462687 8:-0.465753 9:-0.477707 10:-0.490909 11:-0.505747 12:-0.513812 13:-0.505263 14:-0.484536 15:-0.577889 16:-0.59 17:-0.611111 18:-0.605634 19:-0.590909 20:-0.648649 21:-0.613734 22:-0.617021 23:-0.606838 24:-0.608163 25:-0.576 26:-0.662651 27:-0.589147 28:-0.704545 29:-0.692308 30:-0.678161 31:-0.666667 32:-0.685039 
-0 2.318655575472455 0 1:-0.551724 2:-0.452055 3:-0.568182 4:-0.584158 5:-0.589286 6:-0.568 7:-0.597015 8:-0.60274 9:-0.592357 10:-0.624242 11:-0.62069 12:-0.646409 13:-0.642105 14:-0.649485 15:-0.668342 16:-0.69 17:-0.675926 18:-0.671362 19:-0.690909 20:-0.720721 21:-0.67382 22:-0.668085 23:-0.717949 24:-0.689796 25:-0.656 26:-0.742972 27:-0.666667 28:-0.75 29:-0.740891 30:-0.777778 31:-0.744186 32:-0.716535 
-0.2843328854837205 0 1.080305252429012 1:-0.62069 2:-0.589041 3:-0.545455 4:-0.584158 5:-0.589286 6:-0.6 7:-0.61194 8:-0.630137 9:-0.592357 10:-0.660606 11:-0.666667 12:-0.624309 13:-0.642105 14:-0.701031 15:-0.678392 16:-0.68 17:-0.759259 18:-0.7277 19:-0.781818 20:-0.792793 21:-0.785408 22:-0.787234 23:-0.760684 24:-0.722449 25:-0.76 26:-0.742972 27:-0.751938 28:-0.75 29:-0.781377 30:-0.770115 31:-0.775194 32:-0.76378 
-0 0 0.2118288283232744 1:-0.827586 2:-0.753425 3:-0.727273 4:-0.722772 5:-0.714286 6:-0.696 7:-0.701493 8:-0.684932 9:-0.694268 10:-0.684848 11:-0.666667 12:-0.646409 13:-0.652632 14:-0.680412 15:-0.698492 16:-0.71 17:-0.722222 18:-0.680751 19:-0.663636 20:-0.684685 21:-0.656652 22:-0.651064 23:-0.735043 24:-0.632653 25:-0.624 26:-0.686747 27:-0.604651 28:-0.689394 29:-0.708502 30:-0.701149 31:-0.682171 32:-0.685039 
-0.63409951939664 -7.946442106174636 0.1486032524763816 1:-0.482759 2:-0.479452 3:-0.522727 4:-0.524752 5:-0.535714 6:-0.552 7:-0.567164 8:-0.561644 9:-0.579618 10:-0.612121 11:-0.597701 12:-0.60221 13:-0.621053 14:-0.628866 15:-0.648241 16:-0.64 17:-0.592593 18:-0.586854 19:-0.581818 20:-0.594595 21:-0.553648 22:-0.565957 23:-0.623932 24:-0.6 25:-0.552 26:-0.654618 27:-0.534884 28:-0.651515 29:-0.643725 30:-0.655172 31:-0.658915 32:-0.637795 
-0.5418464024887477 -1.182222806152066 0 1:-0.551724 2:-0.506849 3:-0.454545 4:-0.50495 5:-0.5 6:-0.52 7:-0.552239 8:-0.575342 9:-0.617834 10:-0.648485 11:-0.712644 12:-0.834254 13:-0.831579 14:-0.886598 15:-0.919598 16:-0.93 17:-0.925926 18:-0.934272 19:-0.936364 20:-0.954955 21:-0.914163 22:-0.914894 23:-0.957265 24:-0.885714 25:-0.88 26:-0.935743 27:-0.875969 28:-0.924242 29:-0.935223 30:-0.900383 31:-0.899225 32:-0.913386 
-0 -0 0.5011139646551958 1:-0.758621 2:-0.753425 3:-0.727273 4:-0.80198 5:-0.839286 6:-0.84 7:-0.910448 8:-0.90411 9:-0.872611 10:-0.927273 11:-0.931034 12:-0.900552 13:-0.905263 14:-0.969072 15:-0.939698 16:-0.94 17:-0.981481 18:-0.943662 19:-0.981818 20:-0.981982 21:-1 22:-1 23:-0.991453 24:-0.95102 25:-0.992 26:-0.983936 27:-0.953488 28:-0.977273 29:-0.975709 30:-0.984674 31:-1 32:-0.992126 
-0.08292031492968119 -0.5070241421596466 19.07288327411428 1:-0.724138 2:-0.69863 3:-0.681818 4:-0.762376 5:-0.785714 6:-0.776 7:-0.791045 8:-0.780822 9:-0.796178 10:-0.793939 11:-0.827586 12:-0.834254 13:-0.810526 14:-0.896907 15:-0.879397 16:-0.88 17:-0.87037 18:-0.896714 19:-0.890909 20:-0.873874 21:-0.879828 22:-0.880851 23:-0.931624 24:-0.877551 25:-0.872 26:-0.927711 27:-0.906977 28:-0.939394 29:-0.959514 30:-0.94636 31:-0.937984 32:-0.96063 
-0 -0 20.89581325264347 1:-0.965517 2:-0.972603 3:-0.977273 4:-0.980198 5:-0.982143 6:-1 7:-0.985075 8:-0.986301 9:-1 10:-1 11:-1 12:-0.966851 13:-0.947368 14:-0.979381 15:-0.98995 16:-0.99 17:-0.972222 18:-0.971831 19:-0.963636 20:-0.990991 21:-0.939914 22:-0.923404 23:-0.974359 24:-0.926531 25:-0.904 26:-0.959839 27:-0.899225 28:-0.954545 29:-0.983806 30:-0.969349 31:-0.96124 32:-0.968504 
-0 -0 20.77453486950287 1:-0.793103 2:-0.753425 3:-0.75 4:-0.821782 5:-0.839286 6:-0.872 7:-0.895522 8:-0.890411 9:-0.88535 10:-0.915152 11:-0.931034 12:-0.900552 13:-0.894737 14:-0.948454 15:-0.949749 16:-0.97 17:-0.953704 18:-0.962441 19:-0.954545 20:-0.981982 21:-0.939914 22:-0.931915 23:-0.982906 24:-0.910204 25:-0.904 26:-0.951807 27:-0.899225 28:-0.931818 29:-0.967611 30:-0.938697 31:-0.937984 32:-0.929134 
-0.009164421588669605 -0 2.015478029856232 1:-0.793103 2:-0.780822 3:-0.772727 4:-0.821782 5:-0.875 6:-0.872 7:-0.925373 8:-0.931507 9:-0.88535 10:-0.951515 11:-0.954023 12:-0.922652 13:-0.926316 14:-0.989691 15:-0.969849 16:-0.96 17:-1 18:-0.962441 19:-1 20:-1 21:-0.991416 22:-0.982979 23:-1 24:-1 25:-1 26:-0.991968 27:-1 28:-0.992424 29:-1 30:-1 31:-1 32:-1 
-0.08565420148396415 -0 28.27903620323839 1:-0.758621 2:-0.753425 3:-0.727273 4:-0.821782 5:-0.821429 6:-0.84 7:-0.865672 8:-0.835616 9:-0.834395 10:-0.842424 11:-0.83908 12:-0.834254 13:-0.821053 14:-0.865979 15:-0.879397 16:-0.87 17:-0.87963 18:-0.896714 19:-0.9 20:-0.927928 21:-0.888412 22:-0.880851 23:-0.940171 24:-0.869388 25:-0.864 26:-0.927711 27:-0.875969 28:-1 29:-0.959514 30:-0.94636 31:-0.945736 32:-0.952756 
-0.4816020157785588 -0.8632285196482615 0 1:-1 2:-0.945205 3:-0.954545 4:-1 5:-0.982143 6:-1 7:-1 8:-1 9:-1 10:-1 11:-1 12:-1 13:-1 14:-1 15:-1 16:-1 17:-0.981481 18:-1 19:-0.963636 20:-0.972973 21:-0.93133 22:-0.923404 23:-0.991453 24:-0.97551 25:-0.936 26:-0.943775 27:-0.899225 28:-0.962121 29:-0.975709 30:-0.969349 31:-0.96124 32:-0.968504 
-0.02851373737547733 -0 0 1:-0.586207 2:-0.643836 3:-0.727273 4:-0.722772 5:-0.803571 6:-0.808 7:-0.895522 8:-0.876712 9:-0.898089 10:-0.878788 11:-0.908046 12:-0.922652 13:-0.915789 14:-0.938144 15:-0.969849 16:-0.98 17:-0.953704 18:-0.953052 19:-0.963636 20:-0.963964 21:-0.93133 22:-0.923404 23:-0.974359 24:-0.934694 25:-0.904 26:-0.983936 27:-0.922481 28:-0.977273 29:-0.991903 30:-0.984674 31:-0.984496 32:-0.968504 
-0.2365446023144356 -0.3418080003532558 9.21934640047275 1:-0.482759 2:-0.808219 3:-0.818182 4:-0.821782 5:-0.839286 6:-0.872 7:-0.895522 8:-0.890411 9:-0.898089 10:-0.90303 11:-0.91954 12:-0.911602 13:-0.894737 14:-0.948454 15:-0.959799 16:-0.96 17:-0.953704 18:-0.962441 19:-0.954545 20:-0.981982 21:-0.939914 22:-0.940426 23:-0.974359 24:-0.910204 25:-0.904 26:-0.951807 27:-0.899225 28:-0.939394 29:-0.959514 30:-0.94636 31:-0.937984 32:-0.92126 
-0.3992688659474449 -0.4371943075426964 -4.117855631694272 1:-0.793103 2:-0.780822 3:-0.772727 4:-0.841584 5:-0.875 6:-0.872 7:-0.940299 8:-0.917808 9:-0.88535 10:-0.963636 11:-0.954023 12:-0.922652 13:-0.926316 14:-0.989691 15:-0.959799 16:-0.95 17:-1 18:-0.962441 19:-1 20:-1 21:-0.991416 22:-0.974468 23:-0.965812 24:-0.934694 25:-0.992 26:-1 27:-0.945736 28:-0.878788 29:-0.846154 30:-0.89272 31:-0.860465 32:-0.834646 
-0.7141372519465439 -2.200201149386361 -0 1:-0.655172 2:-0.69863 3:-0.727273 4:-0.782178 5:-0.767857 6:-0.776 7:-0.80597 8:-0.780822 9:-0.783439 10:-0.769697 11:-0.770115 12:-0.767956 13:-0.747368 14:-0.783505 15:-0.798995 16:-0.78 17:-0.731481 18:-0.737089 19:-0.763636 20:-0.792793 21:-0.751073 22:-0.770213 23:-0.811966 24:-0.779592 25:-0.76 26:-0.839357 27:-0.775194 28:-0.818182 29:-0.854251 30:-0.854406 31:-0.844961 32:-0.818898 
-0.1096668017897583 -0 -0 1:-0.965517 2:-1 3:-0.931818 4:-0.960396 5:-0.946429 6:-0.936 7:-0.970149 8:-0.90411 9:-0.898089 10:-0.927273 11:-0.942529 12:-0.922652 13:-0.894737 14:-0.886598 15:-0.919598 16:-0.92 17:-0.888889 18:-0.953052 19:-0.890909 20:-0.882883 21:-0.862661 22:-0.838298 23:-0.905983 24:-0.844898 25:-0.784 26:-0.855422 27:-0.821705 28:-0.886364 29:-0.919028 30:-0.900383 31:-0.891473 32:-0.889764 
-0.02904830446181623 -0 -23.45763976287741 1:-0.655172 2:-0.671233 3:-0.75 4:-0.782178 5:-0.785714 6:-0.792 7:-0.820896 8:-0.808219 9:-0.808917 10:-0.781818 11:-0.83908 12:-0.856354 13:-0.852632 14:-0.85567 15:-0.859296 16:-0.91 17:-0.87963 18:-0.887324 19:-0.9 20:-0.90991 21:-0.871245 22:-0.86383 23:-0.91453 24:-0.877551 25:-0.84 26:-0.927711 27:-0.852713 28:-0.924242 29:-0.935223 30:-0.938697 31:-0.930233 32:-0.897638 
-0 -0 -3.957783029246765 1:-0.862069 2:-0.890411 3:-0.863636 4:-0.881188 5:-0.910714 6:-0.888 7:-0.940299 8:-0.931507 9:-0.88535 10:-0.951515 11:-0.954023 12:-0.900552 13:-0.915789 14:-0.979381 15:-0.939698 16:-0.93 17:-0.972222 18:-0.943662 19:-0.981818 20:-0.981982 21:-0.982833 22:-0.965957 23:-0.948718 24:-0.918367 25:-0.944 26:-0.935743 27:-0.914729 28:-0.969697 29:-0.967611 30:-0.984674 31:-1 32:-0.952756 
-0.4534847784244107 -0.7540018802966758 -16.26789180248598 1:-0.931034 2:-0.917808 3:-1 4:-1 5:-1 6:-1 7:-1 8:-0.986301 9:-0.949045 10:-0.963636 11:-0.965517 12:-0.955801 13:-0.947368 14:-0.969072 15:-0.959799 16:-0.97 17:-0.953704 18:-0.962441 19:-0.945455 20:-0.954955 21:-0.914163 22:-0.889362 23:-0.957265 24:-0.893878 25:-0.872 26:-0.911647 27:-0.883721 28:-0.924242 29:-0.935223 30:-0.923372 31:-0.914729 32:-0.92126 
-0 -0 -21.98567717235251 1:-0.689655 2:-0.726027 3:-0.727273 4:-0.782178 5:-0.803571 6:-0.776 7:-0.835821 8:-0.835616 9:-0.88535 10:-0.866667 11:-0.793103 12:-0.878453 13:-0.810526 14:-0.917526 15:-0.889447 16:-0.92 17:-0.814815 18:-0.896714 19:-0.909091 20:-0.918919 21:-0.879828 22:-0.880851 23:-0.931624 24:-0.893878 25:-0.856 26:-0.935743 27:-0.860465 28:-0.931818 29:-0.94332 30:-0.938697 31:-0.937984 32:-0.92126 
-0 -0 -30.01795563942654 1:-0.827586 2:-0.835616 3:-0.818182 4:-0.861386 5:-0.857143 6:-0.856 7:-0.910448 8:-0.890411 9:-0.859873 10:-0.915152 11:-0.91954 12:-0.878453 13:-0.894737 14:-0.948454 15:-0.929648 16:-0.91 17:-0.962963 18:-0.924883 19:-0.963636 20:-0.963964 21:-0.957082 22:-0.948936 23:-0.931624 24:-0.918367 25:-0.944 26:-0.951807 27:-0.953488 28:-0.954545 29:-0.967611 30:-0.984674 31:-0.992248 32:-0.984252 
-0 -0 -1.102006208876094 1:-0.827586 2:-0.835616 3:-0.795455 4:-0.841584 5:-0.839286 6:-0.84 7:-0.850746 8:-0.821918 9:-0.821656 10:-0.818182 11:-0.747126 12:-0.812155 13:-0.8 14:-0.835052 15:-0.849246 16:-0.86 17:-0.842593 18:-0.859155 19:-0.845455 20:-0.891892 21:-0.845494 22:-0.846809 23:-0.905983 24:-0.820408 25:-0.848 26:-0.903614 27:-0.844961 28:-0.893939 29:-0.935223 30:-0.816092 31:-0.914729 32:-0.937008 
