svm_type c_svc
kernel_type rbf
gamma 0.0078125
nr_class 2
total_sv 18
rho -1.00045
label 0 1
nr_sv 10 8
SV
0.02847606119553726 1:-1 2:-0.818182 3:-0.625 4:-0.461538 5:-0.583333 6:-0.615385 7:-0.647059 8:-0.166667 9:-0.473684 10:1 11:0.866667 12:-0.307692 13:-0.428571 14:-0.130435 15:-0.25 16:0.724138 17:0.677419 18:-0.0526316 19:0.2 20:-0.393939 21:-0.103448 22:-0.352941 23:-0.5 24:0.294118 25:0.625 26:0.04 27:-0.0344828 28:-0.209302 29:-0.384615 30:-0.151515 31:-0.351351 32:-0.230769 
0.03125 1:1 2:-0.272727 3:-0.125 4:-0.307692 5:-0.166667 6:-0.384615 7:0.176471 8:0.5 9:0.157895 10:-0.314286 11:0.6 12:-0.153846 13:-0.371429 14:0.130435 15:-0.0833333 16:-0.241379 17:-0.290323 18:0.0526316 19:0.6 20:-0.333333 21:0.0344828 22:-0.352941 23:-0.5 24:0.529412 25:0.75 26:-0.12 27:-0.0344828 28:-0.44186 29:-0.435897 30:-0.333333 31:-0.189189 32:-0.307692 
0.03125 1:-0.647059 2:-0.363636 5:-0.0833333 6:0.230769 7:-0.411765 8:-0.166667 9:0.0526316 10:-0.257143 11:1 12:0.384615 13:-0.314286 14:0.304348 16:-0.241379 17:1 18:1 19:0.733333 20:0.151515 21:0.241379 22:-0.235294 23:-0.4 24:0.411765 25:1 26:-0.04 27:1 28:-0.44186 29:-0.692308 30:-0.333333 31:-0.405405 32:-0.0769231 
0.01044337447160323 1:-0.764706 2:-0.545455 3:-0.125 4:-0.615385 5:-0.583333 6:-0.692308 7:-0.235294 8:-0.25 9:-0.157895 10:-0.6 11:-0.2 12:-0.538462 13:-0.657143 14:1 15:-0.5 16:-0.517241 17:-0.677419 18:-0.473684 19:0.2 20:-0.636364 21:-0.586207 22:-0.352941 23:-0.7 24:0.882353 25:0.75 26:-0.68 27:-0.37931 28:-0.44186 29:-0.538462 30:1 31:1 32:-0.307692 
0.02080662552839677 1:-0.470588 2:-0.272727 4:1 5:0.0833333 6:-0.0769231 7:0.117647 8:0.416667 9:0.368421 10:-0.314286 11:0.733333 13:-0.371429 14:0.304348 15:0.0833333 16:0.586207 17:0.0967742 18:-0.157895 19:-0.466667 20:-0.333333 21:0.310345 22:-0.411765 23:-0.3 24:1 25:-1 26:0.28 27:-0.586207 28:0.906977 29:-0.230769 30:-0.272727 31:-0.459459 32:-0.153846 
0.03125 1:-0.882353 2:1 3:0.75 5:-0.5 6:-0.230769 7:-0.529412 8:0.333333 9:0.684211 10:-0.428571 11:0.2 12:-0.230769 13:-0.428571 14:0.0434783 15:-0.25 16:-0.37931 17:-0.354839 18:-0.157895 19:1 20:-0.454545 21:-0.37931 22:-0.470588 23:-0.35 24:0.294118 25:0.75 26:-0.36 27:0.0344828 28:-0.348837 29:-0.487179 30:-0.212121 31:-0.135135 32:-0.461538 
0.004234380436616847 1:-0.823529 2:-0.818182 3:-1 4:-0.769231 5:0.0833333 6:-1 7:-0.882353 8:0.416667 9:-1 10:-0.2 11:0.866667 12:-1 13:-0.942857 14:-0.826087 15:-1 16:-1 17:-1 18:-1 19:-1 20:-1 21:-1 22:-1 23:-1 24:-1 25:-0.75 26:-1 27:-1 28:-1 29:-0.948718 30:-0.818182 31:-0.945946 32:-1 
0.0297895583678459 1:-0.529412 2:-1 3:-1 4:-0.923077 5:-0.833333 6:-1 7:-0.705882 8:-0.583333 9:-0.894737 10:-0.885714 11:-0.6 12:-1 13:-1 14:-0.652174 15:-0.75 16:-0.931034 17:-0.870968 18:-0.789474 19:-1 20:-0.939394 21:-0.862069 22:-1 23:-1 24:-1 25:-0.625 26:-0.92 27:-0.793103 28:-0.953488 29:-1 30:-1 31:-1 32:-1 
0.03125 1:-0.647059 2:-0.454545 3:-0.125 4:-0.0769231 5:-0.25 6:-0.307692 7:-0.411765 8:0.25 9:-0.157895 10:-0.6 11:-0.0666667 12:-0.153846 13:-0.6 14:-0.304348 15:0.0833333 16:-0.517241 17:-0.677419 18:-0.368421 19:-0.333333 20:-0.454545 21:-0.172414 22:-0.235294 23:-0.8 24:-0.294118 26:0.36 27:-0.655172 28:-0.488372 29:0.641026 30:-0.333333 31:-0.513514 32:1 
0.03125 1:-0.470588 2:0.818182 3:0.125 4:-0.153846 6:1 7:0.294118 9:0.368421 10:-0.314286 11:0.733333 12:1 13:-0.314286 14:0.130435 15:0.166667 16:0.241379 17:-0.354839 18:0.894737 19:0.333333 20:-0.272727 21:0.241379 22:-0.411765 23:1 24:0.647059 25:0.25 26:0.2 27:-0.448276 28:1 29:0.384615 30:0.69697 31:-0.243243 32:-0.153846 
-0.03125 1:-0.647059 2:-0.363636 3:0.625 4:-0.307692 5:-0.166667 6:-0.153846 7:-0.294118 9:0.263158 10:-0.257143 11:0.866667 12:-0.153846 13:-0.371429 14:0.217391 15:0.416667 16:-0.0344828 17:-0.225806 18:0.473684 19:0.6 20:-0.0909091 21:-0.0344828 22:-0.294118 23:-0.6 24:0.176471 25:0.25 26:-0.6 27:-0.310345 28:-0.674419 29:-0.282051 30:-0.69697 31:0.513514 32:-0.615385 
-0.03125 1:-0.882353 2:-1 3:-1 4:-1 5:-1 6:-0.0769231 7:-1 8:-1 9:-1 10:-1 11:-1 12:-0.0769231 13:-1 14:-1 15:-0.416667 16:-0.448276 17:-0.935484 18:-0.894737 19:-0.733333 20:-0.757576 21:-0.862069 22:-0.941176 23:-0.9 24:-0.529412 25:0.5 26:-0.68 27:-0.724138 28:-0.906977 29:-0.794872 30:-0.757576 31:-0.675676 32:-0.846154 
-0.03125 1:-0.588235 2:-0.363636 3:0.125 4:-0.230769 5:-0.166667 6:-0.0769231 7:-0.411765 8:0.166667 9:0.157895 10:-0.2 11:0.866667 12:-0.153846 13:-0.371429 14:-0.304348 16:0.0344828 17:-0.548387 18:0.263158 19:0.733333 20:1 21:-0.37931 22:-0.411765 23:-0.2 24:0.294118 25:0.5 26:0.2 27:-0.172414 28:-0.0697674 29:1 30:-0.393939 31:-0.297297 
-0.03125 1:-0.705882 2:-0.545455 3:-0.125 4:-0.307692 5:-0.25 6:-0.384615 7:-0.411765 8:-0.166667 9:0.157895 10:-0.428571 11:0.333333 12:-0.230769 13:-0.371429 14:-0.130435 15:-0.5 16:-0.586207 17:-0.677419 18:-0.473684 19:-0.0666667 20:0.0909091 21:-0.517241 22:-0.705882 23:-0.8 24:-0.176471 25:-0.25 26:-0.36 27:-0.655172 28:-0.674419 29:-0.435897 30:-0.515152 31:-0.72973 32:-0.615385 
-0.03125 1:-0.647059 2:-0.272727 3:-0.125 4:0.307692 5:0.916667 6:-0.230769 7:-0.294118 8:0.166667 9:1 10:-0.0857143 11:1 12:0.692308 13:-0.257143 14:0.217391 15:1 16:0.793103 17:-0.0322581 18:0.263158 19:0.866667 20:-0.212121 21:-0.103448 22:1 23:-0.15 24:0.529412 25:0.625 26:1 27:-0.0344828 28:0.116279 29:-0.487179 30:-0.212121 31:-0.297297 32:-0.230769 
-0.03125 1:-0.882353 2:-0.818182 3:1 4:-0.769231 5:-0.583333 6:-0.692308 8:0.25 9:-0.157895 10:-0.257143 11:0.0666667 13:-0.714286 14:0.913043 15:-0.333333 16:-0.448276 17:-0.419355 18:0.368421 19:0.2 20:-0.151515 21:-0.310345 22:-0.470588 23:-0.55 24:0.647059 25:0.25 26:-0.36 27:-0.241379 28:0.348837 29:-0.538462 30:-0.454545 31:-0.405405 32:-0.230769 
-0.03125 1:-0.411765 2:-0.181818 4:-0.0769231 5:1 6:-0.0769231 7:-0.294118 8:-0.166667 9:0.0526316 10:-0.142857 11:0.466667 12:-0.153846 13:1 14:-0.0434783 15:-0.25 16:1 17:-0.419355 18:0.0526316 19:0.333333 20:-0.333333 21:1 22:-0.470588 23:-0.45 24:0.411765 25:0.625 26:-0.04 27:0.172414 28:-0.395349 29:-0.435897 30:0.0909091 31:-0.297297 32:-0.384615 
-0.03125 1:-0.647059 2:0.636364 3:-0.75 4:-0.461538 5:0.333333 6:-0.461538 7:1 8:1 9:-0.0526316 10:-0.314286 11:0.333333 12:0.923077 13:0.371429 14:-0.217391 15:0.833333 16:0.103448 17:-0.548387 18:0.368421 19:0.2 20:-0.393939 21:-0.517241 22:-0.647059 23:-0.3 24:0.411765 25:0.125 26:0.2 27:-0.586207 28:-0.209302 29:-0.179487 30:-0.333333 31:-0.459459 
