svm_type c_svc
kernel_type rbf
gamma 0.5
nr_class 4
total_sv 26
rho 0.212699 0.307716 0.208962 -0.148861 -0.253278 0.514263
label 0 1 2 3
nr_sv 5 6 8 7
SV
0 0.4448587788363664 0.4103880372131163 1:0.849057 2:1 3:0.954545 4:0.961165 5:0.965217 6:0.984127 7:0.957447 8:0.960526 9:1 10:0.919075 11:0.942857 12:0.957447 13:0.979275 14:0.950249 15:1 16:0.981043 17:0.963801 18:0.972851 19:1 20:0.948276 21:0.893443 22:0.925926 23:1 24:1 25:0.928287 26:1 27:0.96139 28:1 29:0.976471 30:0.91791 31:0.969582 32:0.992248 
0 0.3823870737342739 0.3544761548161142 1:1 2:0.87013 3:1 4:1 5:0.965217 6:1 7:0.957447 8:1 9:0.950311 10:0.919075 11:1 12:0.93617 13:0.989637 14:1 15:0.93578 16:0.943128 17:1 18:1 19:0.923077 20:0.931034 21:0.934426 22:0.901235 23:0.933054 24:0.902439 25:0.928287 26:0.833992 27:0.92278 28:0.837209 29:0.866667 30:0.843284 31:0.923954 32:0.914729 
3.92853453126154 0 0 1:0.924528 2:0.844156 3:0.977273 4:0.941748 5:0.965217 6:0.984127 7:1 8:0.973684 9:0.950311 10:1 11:1 12:0.925532 13:0.968912 14:1 15:0.926606 16:0.933649 17:1 18:0.936652 19:0.991453 20:0.922414 21:0.909836 22:0.901235 23:0.90795 24:0.910569 25:0.952191 26:0.841897 27:0.915058 28:0.844961 29:0.87451 30:0.820896 31:0.91635 32:0.914729 
3.387368762279408 0 0 1:0.962264 2:0.792208 3:0.931818 4:0.883495 5:0.913043 6:0.920635 7:0.87234 8:0.934211 9:0.875776 10:0.745665 11:0.942857 12:0.851064 13:0.906736 14:0.940299 15:0.807339 16:0.886256 17:0.972851 18:0.909502 19:0.957265 20:0.956897 21:0.92623 22:0.934156 23:0.949791 24:0.943089 25:0.952191 26:0.841897 27:0.96139 28:0.852713 29:0.858824 30:0.820896 31:0.923954 32:0.922481 
2.240846769167813 0.7094766947020363 0.6557615724020024 1:0.698113 2:0.662338 3:0.772727 4:0.728155 5:0.756522 6:0.761905 7:0.730496 8:0.776316 9:0.950311 10:0.768786 11:0.885714 12:0.765957 13:0.813472 14:0.850746 15:0.798165 16:0.85782 17:0.918552 18:0.909502 19:0.897436 20:0.956897 21:0.934426 22:0.925926 23:0.983264 24:0.869919 25:0.952191 26:0.920949 27:0.945946 28:0.821705 29:0.905882 30:0.813433 31:0.923954 32:0.930233 
-8 0.8515414987991984 0.7466572894759542 1:0.849057 2:0.792208 3:0.931818 4:0.902913 5:0.965217 6:0.920635 7:0.87234 8:0.921053 9:0.875776 10:0.884393 11:0.931429 12:0.861702 13:0.917098 14:0.920398 15:0.788991 16:0.867299 17:0.972851 18:0.864253 19:0.931624 20:0.931034 21:0.844262 22:0.909465 23:0.916318 24:0.934959 25:0.960159 26:0.849802 27:0.907336 28:0.806202 29:0.843137 30:0.783582 31:0.885932 32:0.868217 
-0.6880449428862262 0.7670938617698331 0.6694568081463822 1:0.283019 2:0.168831 3:0.295455 4:0.203883 5:0.182609 6:0.111111 7:0.0780142 8:0.0131579 9:-0.0310559 10:-0.0404624 11:-0.0285714 12:-0.0638298 13:-0.015544 14:0.00497512 15:-0.0825688 16:-0.0521327 17:0.00452489 18:-0.00452489 19:0.0512821 21:-0.0327869 22:-0.119342 23:-0.154812 24:-0.203252 25:-0.211155 26:-0.304348 27:-0.212355 28:-0.294574 29:-0.32549 30:-0.30597 31:-0.292776 32:-0.310078 
-0.4421497206142982 0.4480092203014593 0.4437935614483552 1:-0.0566038 2:-0.116883 3:-0.0681818 4:-0.145631 5:-0.252174 6:-0.301587 7:-0.361702 8:-0.355263 9:-0.391304 10:-0.433526 11:-0.417143 12:-0.468085 13:-0.46114 14:-0.502488 15:-0.486239 16:-0.516588 17:-0.457014 18:-0.502262 19:-0.487179 20:-0.456897 21:-0.5 22:-0.506173 23:-0.556485 24:-0.560976 25:-0.521912 26:-0.770751 27:-0.521236 28:-0.604651 29:-0.6 30:-0.61194 31:-0.558935 32:-0.589147 
-0 0.2363644389815437 0.0661126865131763 1:-0.169811 2:-0.246753 3:-0.272727 4:-0.320388 5:-0.304348 6:-0.349206 7:-0.375887 8:-0.394737 9:-0.378882 10:-0.421965 11:-0.462857 12:-0.457447 13:-0.430052 14:-0.442786 15:-0.504587 16:-0.526066 17:-0.466063 18:-0.502262 19:-0.547009 20:-0.482759 21:-0.47541 22:-0.506173 23:-0.531381 24:-0.512195 25:-0.498008 26:-0.525692 27:-0.482625 28:-0.55814 29:-0.545098 30:-0.552239 31:-0.498099 32:-0.542636 
-0.3728855716841897 0.3179691844497856 0.3746801903009589 1:-0.433962 2:-0.376623 3:-0.295455 4:-0.359223 5:-0.373913 6:-0.349206 7:-0.347518 8:-0.355263 9:-0.329193 10:-0.398844 11:-0.417143 12:-0.382979 13:-0.388601 14:-0.402985 15:-0.394495 16:-0.374408 17:-0.420814 18:-0.420814 19:-0.393162 20:-0.413793 21:-0.42623 22:-0.44856 23:-0.414226 24:-0.430894 25:-0.466135 26:-0.43083 27:-0.490347 28:-0.44186 29:-0.458824 30:-0.470149 31:-0.452471 32:-0.44186 
-0.05366982752404663 0.00619111703914282 0 1:-0.132075 2:-0.168831 3:-0.0227273 4:-0.106796 5:-0.026087 6:-0.126984 7:-0.163121 8:-0.157895 9:-0.204969 10:-0.213873 11:-0.211429 12:-0.276596 13:-0.233161 14:-0.233831 15:-0.321101 16:-0.2891 17:-0.248869 18:-0.294118 19:-0.239316 20:-0.241379 21:-0.229508 22:-0.26749 23:-0.263598 24:-0.276423 25:-0.2749 26:-0.272727 27:-0.274131 28:-0.325581 29:-0.309804 30:-0.320896 31:-0.285171 32:-0.302326 
-0.6920301903413991 -1.150756402533271 1.51457981669564 1:-0.0188679 2:-0.038961 3:0.0454545 4:-0.00970874 5:-0.00869565 6:-0.0793651 7:-0.120567 8:-0.131579 9:-0.167702 10:-0.236994 11:-0.131429 12:0.308511 13:0.865285 14:0.9801 15:0.825688 16:0.905213 17:0.936652 18:0.954751 19:0.888889 20:0.887931 21:0.860656 22:-0.563786 23:-0.732218 24:-0.780488 25:-0.74502 26:-0.873518 27:-0.837838 28:-0.937984 29:-0.960784 30:-0.955224 31:-0.923954 32:-0.899225 
-0.4217257038914984 -0.6233545448453806 0 1:-1 2:-1 3:-1 4:-1 5:-1 6:-0.952381 7:-0.971631 8:-0.934211 9:-0.925466 10:-0.976879 11:-0.942857 12:-0.904255 13:-0.875648 14:-0.880597 15:-0.853211 16:-0.85782 17:-0.873303 18:-0.819005 19:-0.82906 20:-0.818966 21:-0.811475 22:-0.81893 23:-0.790795 24:-0.861789 25:-0.880478 26:-0.849802 27:-0.868726 28:-0.860465 29:-0.858824 30:-0.910448 31:-0.901141 32:-0.891473 
-0 -0 8 1:-0.622642 2:-0.714286 3:-0.75 4:-0.728155 5:-0.773913 6:-0.825397 7:-0.843972 8:-0.842105 9:-0.838509 10:-0.861272 11:-0.874286 12:-0.87234 13:-0.854922 14:-0.860697 15:-0.889908 16:-0.895735 17:-0.846154 18:-0.882353 19:-0.837607 20:-0.862069 21:-0.836066 22:-0.860082 23:-0.90795 24:-0.886179 25:-0.87251 26:-0.913043 27:-0.861004 28:-0.914729 29:-0.913725 30:-0.910448 31:-0.893536 32:-0.922481 
-0 -0 8 1:-0.54717 2:-0.844156 3:-0.863636 4:-0.825243 5:-0.826087 6:-0.857143 7:-0.843972 8:-0.855263 9:-0.875776 10:-0.895954 11:-0.897143 12:-0.893617 13:-0.865285 14:-0.860697 15:-0.899083 16:-0.924171 17:-0.873303 18:-0.900452 19:-0.837607 20:-0.862069 21:-0.836066 22:-0.868313 23:-0.916318 24:-0.902439 25:-0.856574 26:-0.928854 27:-0.868726 28:-0.922481 29:-0.945098 30:-0.91791 31:-0.878327 32:-0.906977 
-0 -0 6.292932695844748 1:-0.773585 2:-0.792208 3:-0.795455 4:-0.84466 5:-0.843478 6:-0.857143 7:-0.87234 8:-0.855263 9:-0.875776 10:-0.884393 11:-0.874286 12:-0.904255 13:-0.88601 14:-0.860697 15:-0.87156 16:-0.905213 17:-0.846154 18:-0.882353 19:-0.846154 20:-0.836207 21:-0.770492 22:-0.843621 23:-0.90795 24:-0.918699 25:-0.896414 26:-0.968379 27:-0.88417 28:-0.976744 29:-0.976471 30:-0.977612 31:-0.969582 32:-0.968992 
-0 -0 5.004107951287324 1:-0.962264 2:-0.87013 3:-0.931818 4:-0.92233 5:-0.947826 6:-0.936508 7:-0.971631 8:-0.921053 9:-0.925466 10:-0.976879 11:-0.954286 12:-0.93617 13:-0.937824 14:-0.920398 15:-0.862385 16:-0.905213 17:-0.891403 18:-0.891403 19:-0.897436 20:-0.853448 21:-0.868852 22:-0.876543 23:-0.857741 24:-0.934959 25:-0.896414 26:-0.857708 27:-0.876448 28:-0.860465 29:-0.858824 30:-0.880597 31:-0.863118 32:-0.844961 
-0.4229666530397791 -0.8530583739623112 0.8930889794074728 1:-0.471698 2:-0.636364 3:-0.636364 4:-0.708738 5:-0.721739 6:-0.761905 7:-0.77305 8:-0.776316 9:-0.801242 10:-0.803468 11:-0.84 12:-0.851064 13:-0.813472 14:-0.820896 15:-0.87156 16:-0.867299 17:-0.809955 18:-0.846154 19:-0.794872 20:-0.801724 21:-0.786885 22:-0.81893 23:-0.866109 24:-0.853659 25:-0.840637 26:-0.849802 27:-0.822394 28:-0.883721 29:-0.898039 30:-0.895522 31:-0.855513 32:-0.891473 
-0 -0 8 1:-0.698113 2:-0.714286 3:-0.727273 4:-0.76699 5:-0.808696 6:-0.825397 7:-0.843972 8:-0.842105 9:-0.850932 10:-0.872832 11:-0.862857 12:-0.893617 13:-0.875648 14:-0.860697 15:-0.87156 16:-0.895735 17:-0.828054 18:-0.864253 19:-0.846154 20:-0.862069 21:-0.819672 22:-0.835391 23:-0.90795 24:-0.894309 25:-0.880478 26:-0.936759 27:-0.853282 28:-0.96124 29:-0.968627 30:-0.970149 31:-0.946768 32:-0.937984 
-0.6407779835725042 -1.036306607594633 -2.304166389333042 1:-0.811321 2:-0.844156 3:-0.886364 4:-0.92233 5:-0.930435 6:-0.920635 7:-0.943262 8:-0.907895 9:-0.913043 10:-0.976879 11:-0.977143 12:-0.925532 13:-0.84456 14:-0.58209 15:-0.192661 16:0.21327 17:-0.420814 18:-0.484163 19:-0.470085 20:-0.560345 21:-0.672131 22:-0.744856 23:-0.757322 24:-0.796748 25:-0.848606 26:-0.889328 27:-0.92278 28:-0.922481 29:-0.921569 30:-0.843284 31:-0.946768 32:-0.945736 
-0 -0 -8 1:-0.622642 2:-0.688312 3:-0.75 4:-0.825243 5:-0.86087 6:-0.904762 7:-0.914894 8:-0.921053 9:-0.925466 10:-0.953757 11:-0.965714 12:-0.957447 13:-0.927461 14:-0.930348 15:-0.954128 16:-0.962085 17:-0.918552 18:-0.945701 19:-0.871795 20:-0.887931 21:-0.893443 22:-0.909465 23:-0.924686 24:-0.902439 25:-0.880478 26:-0.889328 27:-0.88417 28:-0.899225 29:-0.898039 30:-0.932836 31:-0.901141 32:-0.945736 
-0.174920020461409 -0.1729076333190601 -0 1:-0.660377 2:-0.714286 3:-0.75 4:-0.84466 5:-0.878261 6:-0.904762 7:-0.943262 8:-0.947368 9:-0.913043 10:-0.988439 11:-0.988571 12:-1 13:-1 14:-1 15:-0.990826 16:-1 17:-1 18:-1 19:-1 20:-0.974138 21:-1 22:-1 23:-1 24:-1 25:-1 26:-1 27:-0.992278 28:-1 29:-0.992157 30:-0.992537 31:-0.977186 32:-0.976744 
-0.304450210913713 -0.5927736108290835 -7.348498022025706 1:-0.433962 2:-0.558442 3:-0.636364 4:-0.631068 5:-0.756522 6:-0.809524 7:-0.787234 8:-0.828947 9:-0.863354 10:-0.849711 11:-0.885714 12:-0.893617 13:-0.875648 14:-0.870647 15:-0.880734 16:-0.914692 17:-0.855204 18:-0.900452 19:-0.854701 20:-0.887931 21:-0.868852 22:-0.901235 23:-0.941423 24:-0.926829 25:-0.928287 26:-0.952569 27:-0.969112 28:-0.968992 29:-0.984314 30:-0.970149 31:-0.939163 32:-0.984496 
-0.3004775494836068 -0.4987126841420507 -4.961274537700644 1:-0.849057 2:-0.896104 3:-0.931818 4:-0.961165 5:-0.982609 6:-1 7:-1 8:-1 9:-1 10:-1 11:-1 12:-0.989362 13:-0.958549 14:-0.950249 15:-1 16:-0.981043 17:-0.873303 18:-0.954751 19:-0.905983 20:-1 21:-0.901639 22:-0.934156 23:-0.966527 24:-0.943089 25:-0.928287 26:-0.968379 27:-0.92278 28:-0.976744 29:-0.976471 30:-0.977612 31:-0.954373 32:-0.976744 
-0 -0 -7.090770494175789 1:-0.698113 2:-0.714286 3:-0.727273 4:-0.825243 5:-0.843478 6:-0.888889 7:-0.914894 8:-0.921053 9:-0.925466 10:-0.942197 11:-0.954286 12:-0.946809 13:-0.927461 14:-0.920398 15:-0.944954 16:-0.952607 17:-0.909502 18:-0.945701 19:-0.888889 20:-0.913793 21:-0.901639 22:-0.917695 23:-0.958159 24:-0.934959 25:-0.928287 26:-0.968379 27:-0.915058 28:-0.96124 29:-0.976471 30:-0.962687 31:-0.931559 32:-0.968992 
-0 -0 -8 1:-0.584906 2:-0.662338 3:-0.704545 4:-0.805825 5:-0.843478 6:-0.888889 7:-0.886525 8:-0.894737 9:-0.913043 10:-0.919075 11:-0.942857 12:-0.925532 13:-0.88601 14:-0.870647 15:-0.889908 16:-0.895735 17:-0.846154 18:-0.882353 19:-0.837607 20:-0.862069 21:-0.803279 22:-0.860082 23:-0.899582 24:-0.886179 25:-0.87251 26:-0.913043 27:-0.861004 28:-0.930233 29:-0.937255 30:-0.925373 31:-0.901141 32:-0.96124 
