svm_type c_svc
kernel_type rbf
gamma 0.125
nr_class 4
total_sv 165
rho 1.08147 0.0349555 0.686962 0.0539961 -0.64773 -0.525202
label 0 1 2 3
nr_sv 44 56 53 12
SV
0.8114826145527947 0 0 1:0.0410959 2:0.670886 3:0.947826 4:0.919192 5:0.933333 6:0.984848 7:0.972028 8:0.960265 9:1 10:0.952381 11:0.940476 12:1 13:0.977401 14:0.94382 15:1 16:1 17:0.922652 18:0.955307 19:0.943503 20:0.949495 21:0.866667 22:0.910112 23:0.965909 24:0.944134 25:0.833333 26:0.967391 27:0.849711 28:0.988889 29:0.976879 30:1 31:0.953757 32:0.951807 
0 0 0.4180154235319526 1:0.0136986 2:0.670886 3:0.895652 4:0.858586 5:0.883333 6:0.954545 7:0.958042 8:0.933775 9:1 10:0.933333 11:0.916667 12:1 13:0.943503 14:0.88764 15:0.966851 16:0.911602 17:0.867403 18:0.854749 19:0.830508 20:0.848485 21:0.822222 22:0.853933 23:0.886364 24:0.877095 25:0.785714 26:0.913043 27:0.780347 28:0.9 29:0.861272 30:-0.0751445 31:-0.0982659 32:-0.204819 
8 4.786981236390989 8 1:-0.39726 2:-0.240506 3:-0.234783 4:-0.676768 5:-0.75 6:-0.69697 7:-0.748252 8:-0.721854 9:-0.734177 10:-0.361905 11:-0.595238 12:-0.478261 13:-0.694915 14:-0.674157 15:-0.657459 16:-0.624309 17:-0.679558 18:-0.675978 19:-0.649718 20:-0.191919 21:-0.511111 22:-0.505618 23:-0.522727 24:-0.418994 25:-0.583333 26:-0.478261 27:-0.421965 28:-0.488889 29:-0.283237 30:-0.132948 31:0.0289017 32:0.0843373 
8 8 8 1:0.726027 2:0.670886 3:0.373913 4:-0.0505051 5:-0.2 6:-0.257576 7:-0.048951 8:-0.125828 9:-0.417722 10:-0.114286 11:-0.27381 12:-0.282609 13:-0.389831 14:-0.404494 15:-0.447514 16:-0.447514 17:-0.149171 18:-0.0726257 19:-0.0621469 20:0.111111 21:0.0444444 22:0.0337079 23:0.0340909 24:0.0726257 25:0.047619 27:0.109827 28:0.0333333 29:0.0289017 30:0.0751445 31:0.121387 32:0.120482 
8 8 8 1:0.452055 2:0.0886076 3:0.182609 4:-0.313131 5:-0.233333 6:-0.242424 7:-0.230769 8:-0.178808 9:-0.164557 10:0.0952381 11:-0.130952 12:-0.0326087 13:-0.118644 14:-0.0561798 15:0.0165746 16:-0.00552486 17:0.00552486 18:0.0391061 19:0.039548 20:0.191919 21:0.0777778 22:0.146067 23:0.125 24:0.0726257 25:0.142857 26:0.0869565 27:0.132948 28:0.0555556 29:0.156069 30:0.121387 31:0.132948 32:-0.0240964 
8 5.674565896166699 8 1:-0.260274 2:-0.0126582 3:0.182609 4:-0.313131 5:-0.25 6:-0.181818 7:-0.188811 8:-0.231788 9:-0.21519 10:0.0380952 11:-0.130952 12:-0.0434783 13:-0.0960452 14:-0.0786517 15:-0.0607735 16:-0.0497238 17:-0.0165746 18:-0.0391061 19:-0.0508475 20:0.0909091 21:-0.566667 22:-0.573034 23:-0.693182 24:-0.642458 25:-0.702381 26:-0.543478 27:-0.641618 28:-0.677778 29:-0.676301 30:-0.618497 31:-0.560694 32:-0.722892 
5.124784718907983 0 0 1:0.0136986 2:0.721519 3:0.947826 4:0.939394 5:0.95 6:0.954545 7:0.986014 8:0.986755 9:0.936709 10:0.990476 11:0.964286 12:0.956522 13:0.988701 14:0.966292 15:0.955801 16:0.911602 17:1 18:0.96648 19:1 20:1 21:0.988889 22:0.977528 23:0.931818 24:0.955307 25:0.97619 26:0.902174 27:0.976879 28:0.888889 29:0.861272 30:0.942197 31:0.953757 32:0.879518 
0.2498684458669034 0.2043546976106991 0 1:0.0684932 2:0.746835 3:1 4:1 5:0.966667 6:0.984848 7:0.958042 8:1 9:0.987342 10:0.971429 11:0.988095 12:0.978261 13:0.954802 14:1 15:0.977901 16:0.878453 17:0.944751 18:1 19:0.954802 20:1 21:0.944444 22:1 23:0.943182 24:0.910615 25:0.988095 26:0.847826 27:0.965318 28:0.822222 29:0.861272 30:0.895954 31:0.884393 32:0.903614 
6.603869725231218 0 0.7986403345065841 1:0.0410959 2:0.64557 3:0.930435 4:0.79798 5:0.933333 6:0.939394 7:0.972028 8:0.986755 9:0.949367 10:0.980952 11:0.97619 12:0.978261 13:1 14:0.966292 15:0.966851 16:0.933702 17:0.966851 18:0.96648 19:1 20:0.979798 21:0.988889 22:0.988764 23:0.954545 24:0.988827 25:0.988095 26:0.923913 27:0.988439 28:0.922222 29:0.895954 30:0.965318 31:0.965318 32:0.939759 
3.898124995065511 0 0 1:0.0410959 2:0.696203 3:0.947826 4:0.959596 5:0.983333 6:0.969697 7:0.986014 8:1 9:0.962025 10:0.961905 11:0.97619 12:0.98913 13:0.966102 14:1 15:0.977901 16:0.911602 17:0.966851 18:0.955307 19:1 20:0.979798 21:1 22:0.977528 23:0.931818 24:0.977654 25:0.964286 26:0.891304 27:0.976879 28:0.888889 29:0.83815 30:0.895954 31:0.919075 32:0.855422 
0 8 0 1:-0.479452 2:-0.265823 3:0.0434783 4:-0.353535 5:-0.233333 6:-0.287879 7:-0.174825 8:-0.125828 9:-0.0886076 10:0.142857 11:-0.0119048 12:0.0543478 13:-0.00564972 14:0.0674157 15:0.116022 16:0.0828729 17:0.160221 18:0.150838 19:0.129944 20:0.313131 21:0.233333 22:0.269663 23:0.25 24:0.206704 25:0.285714 26:0.173913 27:0.317919 28:0.177778 29:0.271676 30:0.225434 31:0.294798 32:0.373494 
8 8 0 1:-0.232877 2:-0.139241 3:0.2 4:-0.252525 5:-0.166667 6:-0.0909091 7:-0.048951 8:-0.00662252 9:-0.0253165 10:0.228571 11:0.0357143 12:0.0869565 13:0.118644 14:0.101124 15:0.149171 16:0.116022 17:0.19337 18:0.139665 19:0.186441 20:0.30303 21:0.2 22:0.235955 23:0.227273 24:0.240223 25:0.238095 26:0.25 27:0.317919 28:0.266667 29:0.213873 30:0.294798 31:0.34104 32:0.325301 
0 8 0 1:-0.39726 2:-0.265823 3:0.113043 4:-0.272727 5:-0.3 6:-0.181818 7:-0.118881 8:-0.0728477 9:0.0126582 10:0.190476 11:-0.047619 12:0.119565 13:0.0847458 14:0.0337079 15:0.104972 16:0.171271 17:0.138122 18:0.106145 19:0.129944 20:0.232323 21:0.177778 22:0.179775 23:0.329545 24:0.184358 25:0.154762 26:0.402174 27:0.260116 28:0.4 29:0.364162 30:0.410405 31:0.410405 32:0.313253 
6.680811717372024 8 0 1:-0.452055 2:-0.341772 3:0.026087 4:-0.333333 5:-0.233333 6:-0.181818 7:-0.174825 8:-0.139073 9:-0.101266 10:0.142857 11:-0.047619 12:0.0326087 13:0.0508475 14:0.0898876 15:0.038674 16:0.0607735 17:0.127072 18:0.128492 19:0.141243 20:0.242424 21:0.2 22:0.213483 23:0.170455 24:0.22905 25:0.22619 26:0.206522 27:0.294798 28:0.222222 29:0.225434 30:0.317919 31:0.352601 32:0.325301 
8 4.572397213678662 0 1:-0.178082 2:-0.113924 3:0.165217 4:-0.191919 5:-0.166667 6:-0.121212 7:-0.0629371 8:-0.0331126 9:0.0126582 10:0.219048 11:0.0595238 12:0.0869565 13:0.0960452 14:0.101124 15:0.160221 16:0.127072 17:0.171271 18:0.173184 19:0.20904 20:0.323232 21:0.333333 22:0.303371 23:0.295455 24:0.26257 25:0.285714 26:0.217391 27:0.352601 28:0.244444 29:0.260116 30:0.294798 31:0.34104 32:0.349398 
7.843483043954945 8 0 1:-0.424658 2:-0.291139 3:0.0782609 4:-0.272727 5:-0.216667 6:-0.121212 7:-0.118881 8:-0.0860927 9:-0.0632911 10:0.161905 11:-0.0119048 12:0.076087 13:-0.00564972 14:0.0674157 15:0.104972 16:0.104972 17:0.160221 18:0.150838 19:0.163842 20:0.353535 21:0.244444 22:0.325843 23:0.272727 24:0.240223 25:0.27381 26:0.206522 27:0.364162 28:0.188889 29:0.283237 30:0.202312 31:0.271676 32:0.385542 
1.53107695413496 8 0 1:-0.39726 2:-0.21519 3:0.0782609 4:-0.373737 5:-0.133333 6:-0.136364 7:-0.0909091 8:-0.00662252 9:-0.0632911 10:0.171429 11:-0.047619 12:0.0217391 13:0.0169492 14:0.0561798 15:0.104972 16:0.0939227 17:0.127072 18:0.0949721 19:0.129944 20:0.222222 21:0.133333 22:0.191011 23:0.0909091 24:0.139665 25:0.154762 26:0.206522 27:0.271676 28:-0.266667 29:0.16763 30:0.294798 31:0.306358 32:0.180723 
8 0 0 1:-0.369863 2:-0.164557 3:0.0782609 4:-0.272727 5:-0.216667 6:-0.136364 7:-0.0909091 8:-0.0463576 9:-0.0253165 10:0.161905 11:-0.0357143 12:0.0978261 13:0.118644 14:-0.0224719 15:0.149171 16:0.18232 17:0.149171 18:0.173184 19:0.175141 20:0.272727 21:0.211111 22:0.224719 23:0.318182 24:0.351955 25:0.261905 26:0.445652 27:0.294798 28:0.422222 29:0.387283 30:0.479769 31:0.456647 32:0.373494 
0 8 0 1:-0.479452 2:-0.316456 3:0.0434783 4:-0.292929 5:-0.233333 6:-0.181818 7:-0.118881 8:-0.0728477 9:-0.0759494 10:0.161905 11:-0.047619 12:0.0326087 13:0.039548 14:0.0674157 15:0.116022 16:0.0939227 17:0.138122 18:0.128492 19:0.163842 20:0.292929 21:0.233333 22:0.258427 23:0.227273 24:0.240223 25:0.25 26:0.25 27:0.306358 28:0.2 29:0.236994 30:0.32948 31:0.352601 32:0.39759 
8 8 0 1:-0.287671 2:-0.265823 3:0.147826 4:-0.171717 5:-0.116667 6:-0.030303 7:-0.034965 8:0.0198675 9:0.0126582 10:0.247619 11:0.0119048 12:0.0869565 13:0.039548 14:0.101124 15:0.127072 16:0.104972 17:0.116022 18:0.117318 19:0.163842 20:0.313131 21:0.211111 22:0.280899 23:0.215909 24:0.240223 25:0.261905 26:0.206522 27:0.306358 28:0.233333 29:0.121387 30:0.260116 31:0.306358 32:0.289157 
8 8 0 1:-0.424658 2:-0.139241 3:0.182609 4:-0.292929 5:-0.233333 6:-0.136364 7:-0.104895 8:-0.0860927 9:-0.0506329 10:0.180952 12:0.0869565 13:0.00564972 14:0.0898876 15:0.127072 16:0.0939227 17:0.149171 18:0.0726257 19:0.163842 20:0.292929 21:0.255556 22:0.292135 23:0.25 24:0.0391061 25:0.285714 26:0.184783 27:0.375723 28:0.222222 29:0.271676 30:0.283237 31:0.294798 32:0.421687 
0 8 0 1:-0.424658 2:-0.417722 3:0.026087 4:-0.676768 5:-0.216667 6:-0.227273 7:-0.160839 8:-0.125828 9:-0.139241 10:0.152381 11:-0.0952381 12:0.0217391 13:-0.0169492 14:-0.011236 15:0.0828729 16:0.0607735 17:0.116022 18:0.0949721 19:0.129944 20:0.252525 21:0.2 22:0.235955 23:0.215909 24:0.26257 25:0.214286 26:0.25 27:0.306358 28:0.233333 29:0.213873 30:0.317919 31:0.375723 32:0.313253 
8 8 0 1:-0.260274 2:-0.367089 3:0.0434783 4:-0.272727 5:-0.216667 6:-0.136364 7:-0.132867 8:-0.112583 9:-0.0253165 10:0.133333 11:-0.0833333 12:0.108696 13:0.0734463 14:-0.011236 15:0.0939227 16:0.149171 17:0.0718232 18:0.128492 19:0.141243 20:0.262626 21:0.144444 22:0.157303 23:0.238636 24:0.284916 25:0.0833333 26:0.380435 27:0.213873 28:0.4 29:0.271676 30:0.398844 31:0.387283 32:0.313253 
2.232247728872287 8 0 1:-0.479452 2:-0.316456 3:0.026087 4:-0.292929 5:-0.3 6:-0.19697 7:-0.174825 8:-0.125828 9:-0.126582 10:0.12381 11:-0.130952 12:0.0217391 13:0.00564972 14:0.0337079 15:0.0497238 16:0.0165746 17:0.127072 18:-0.027933 19:0.141243 20:0.242424 21:0.177778 22:0.202247 23:0.159091 24:0.206704 25:0.190476 26:0.184783 27:0.294798 28:0.188889 29:0.16763 30:0.283237 31:0.294798 32:0.313253 
8 5.897427287878416 0 1:-0.369863 2:-0.21519 3:0.00869565 4:-0.292929 5:-0.183333 6:-0.212121 7:-0.104895 8:-0.0993377 9:-0.113924 10:0.2 11:0.0357143 12:0.130435 13:0.0734463 14:0.101124 15:0.149171 16:0.0939227 17:0.19337 18:0.173184 19:0.19774 20:0.292929 21:0.211111 22:0.258427 23:0.25 24:0.307263 25:0.261905 26:0.228261 27:0.317919 28:0.222222 29:0.283237 30:0.271676 31:0.317919 32:0.289157 
8 8 0 1:-0.260274 2:-0.139241 3:0.0956522 4:-0.292929 5:-0.216667 6:-0.121212 7:-0.104895 8:-0.0596026 9:-0.0759494 10:0.152381 11:-0.0357143 12:0.0217391 13:0.0282486 14:0.0449438 15:0.0828729 16:0.0718232 17:0.0939227 18:0.117318 19:0.141243 20:0.262626 21:0.166667 22:0.202247 23:0.159091 24:0.22905 25:0.214286 26:0.195652 27:0.248555 28:0.177778 29:0.16763 30:0.202312 31:0.306358 32:0.289157 
8 8 1.653337214714934 1:-0.479452 2:-0.265823 3:0.0434783 4:-0.373737 5:-0.266667 6:-0.212121 7:-0.258741 8:-0.125828 9:-0.101266 10:0.142857 11:-0.261905 12:0.0108696 13:-0.0508475 14:0.0337079 15:0.0828729 16:0.0497238 17:0.104972 18:0.0837989 19:0.0847458 20:0.242424 21:0.188889 22:0.213483 23:0.159091 24:0.195531 25:0.190476 26:0.184783 27:0.283237 28:0.222222 29:0.190751 30:0.271676 31:0.32948 32:0.301205 
0 8 2.029460589414727 1:-0.369863 2:-0.316456 3:0.0434783 4:-0.333333 5:-0.25 6:-0.19697 7:-0.188811 8:-0.125828 9:-0.0886076 10:0.142857 11:-0.047619 12:0.0434783 13:-0.0282486 14:0.0449438 15:0.116022 16:0.0828729 17:0.116022 18:0.139665 19:0.107345 20:0.292929 21:0.2 22:0.269663 23:0.261364 24:0.162011 25:0.25 26:0.163043 27:0.34104 28:0.177778 29:0.248555 30:0.179191 31:0.248555 32:0.361446 
8 8 0 1:-0.260274 2:-0.21519 3:-0.026087 4:-0.333333 5:-0.25 6:-0.166667 7:-0.0909091 8:-0.0993377 10:0.142857 11:-0.0952381 12:0.108696 13:0.0621469 14:0.0224719 15:0.138122 16:0.138122 17:0.0828729 18:0.0391061 19:0.163842 20:0.242424 21:0.311111 22:0.202247 23:0.170455 24:0.240223 25:0.178571 26:0.369565 27:0.248555 28:0.4 29:0.34104 30:0.398844 31:0.433526 32:0.349398 
8 8 0 1:-0.369863 2:-0.291139 3:0.0608696 4:-0.393939 5:-0.283333 6:-0.19697 7:-0.174825 8:-0.0596026 9:-0.139241 10:0.171429 11:-0.0714286 13:0.00564972 14:0.0449438 15:0.0497238 16:0.0276243 17:0.0828729 18:0.128492 19:0.118644 20:0.222222 21:0.166667 22:0.157303 23:0.170455 24:0.162011 25:0.190476 26:0.184783 27:0.248555 28:0.166667 29:0.132948 30:0.271676 31:0.271676 32:0.240964 
0 8 0 1:-0.534247 2:-0.417722 3:-0.304348 4:-0.454545 5:-0.283333 6:-0.712121 7:-0.174825 8:-0.125828 9:-0.177215 10:0.12381 11:-0.214286 13:0.0169492 14:0.0337079 15:0.0607735 16:0.038674 17:0.0939227 18:0.0837989 19:0.129944 20:0.262626 21:0.211111 22:0.202247 23:0.204545 24:0.206704 25:0.214286 26:0.184783 27:0.248555 28:0.188889 29:0.179191 30:0.271676 31:0.317919 32:0.301205 
0 8 0 1:-0.452055 2:-0.367089 3:0.026087 4:-0.252525 5:-0.25 6:-0.212121 7:-0.160839 8:-0.0860927 9:-0.0759494 10:0.12381 11:-0.0357143 12:0.076087 13:-0.00564972 14:0.0786517 15:0.0828729 16:0.0718232 17:0.160221 18:0.139665 19:0.118644 20:0.272727 21:0.255556 22:0.269663 23:0.181818 24:0.184358 25:0.261905 26:0.184783 27:0.317919 28:0.188889 29:0.294798 30:0.225434 31:0.260116 32:0.373494 
8 8 0 1:-0.369863 2:-0.265823 3:0.0956522 4:-0.292929 5:-0.183333 6:-0.121212 7:-0.118881 8:-0.0993377 9:-0.0886076 10:0.152381 11:-0.0595238 12:0.0978261 13:0.0734463 14:0.0337079 15:0.127072 16:0.20442 17:0.127072 18:0.150838 19:0.152542 20:0.232323 21:0.2 22:0.202247 23:0.284091 24:0.340782 25:0.190476 26:0.369565 27:0.213873 28:0.377778 29:0.352601 30:0.410405 31:0.421965 32:0.325301 
8 8 3.532193465096424 1:-0.589041 2:-0.443038 3:-0.113043 4:-0.737374 5:-0.55 6:-0.530303 7:-0.524476 8:-0.417219 9:-0.405063 10:-0.104762 11:-0.392857 12:-0.315217 13:-0.322034 14:-0.292135 15:-0.226519 16:-0.292818 17:-0.237569 18:-0.240223 19:-0.231638 20:-0.0606061 21:-0.155556 22:-0.134831 23:-0.159091 24:-0.0949721 25:-0.119048 26:-0.141304 27:-0.0751445 28:-0.122222 29:-0.0867052 30:-0.00578035 31:-0.017341 32:-0.0722892 
8 8 8 1:-0.178082 2:-0.164557 3:0.113043 4:-0.414141 5:-0.216667 6:-0.272727 7:-0.370629 8:-0.311258 9:-0.329114 10:-0.047619 11:-0.238095 12:-0.173913 13:-0.220339 14:-0.168539 15:-0.171271 16:-0.171271 17:-0.149171 18:-0.162011 19:-0.141243 20:0.030303 21:-0.1 22:-0.0561798 23:-0.0795455 24:-0.106145 25:-0.0714286 26:-0.119565 27:-0.0289017 28:-0.1 29:-0.0982659 30:-0.121387 31:0.017341 32:0.0120482 
8 8 0 1:-0.342466 2:-0.392405 3:-0.113043 4:-0.555556 5:-0.516667 6:-0.454545 7:-0.468531 8:-0.403974 9:-0.367089 10:-0.114286 11:-0.380952 12:-0.217391 13:-0.333333 14:-0.224719 15:-0.127072 16:-0.248619 17:-0.19337 18:-0.117318 19:-0.231638 20:-0.020202 21:-0.155556 22:-0.0786517 23:-0.102273 24:-0.150838 25:-0.0952381 26:-0.0978261 27:-0.017341 28:-0.144444 29:-0.0520231 30:-0.109827 31:-0.0867052 32:0.0722892 
8 8 4.827889997263324 1:-0.315068 2:-0.21519 3:0.00869565 4:-0.474747 5:-0.483333 6:-0.469697 7:-0.412587 8:-0.403974 9:-0.303797 10:0.00952381 11:-0.392857 12:-0.195652 13:-0.254237 14:-0.292135 15:-0.20442 16:-0.116022 17:-0.20442 18:-0.162011 19:-0.141243 20:-0.252525 21:-0.188889 22:-0.157303 23:-0.113636 24:0.00558659 25:-0.154762 26:0.0652174 27:-0.0289017 28:-0.0444444 29:0.017341 30:0.0867052 31:0.121387 32:0.0722892 
8 8 0.5394639910717379 1:-0.342466 2:-0.443038 3:-0.182609 4:-0.0707071 5:-0.833333 6:-0.545455 7:-0.468531 8:-0.483444 9:-0.392405 10:-0.12381 11:-0.464286 12:-0.380435 13:-0.333333 14:-0.325843 15:-0.281768 16:-0.292818 17:-0.270718 18:-0.251397 19:-0.231638 20:-0.10101 21:-0.277778 22:-0.134831 23:-0.147727 24:-0.128492 25:-0.130952 26:-0.130435 27:-0.0520231 28:-0.111111 29:-0.121387 30:-0.0751445 31:-0.0289017 32:-0.0361446 
8 0 2.921955191639459 1:-0.342466 2:0.189873 3:0.582609 4:0.353535 5:0.45 6:0.439394 7:0.454545 8:0.443709 9:0.417722 10:0.542857 11:0.404762 12:0.423913 13:0.40113 14:0.370787 15:0.359116 16:0.314917 17:0.348066 18:0.284916 19:0.310734 20:0.383838 21:0.3 22:0.258427 23:0.238636 24:0.26257 25:0.202381 26:0.217391 27:0.236994 28:0.177778 29:0.121387 30:0.202312 31:0.213873 32:0.192771 
2.105254165192853 1.906841385258074 0 1:0.0136986 2:0.443038 3:0.843478 4:0.636364 5:0.65 6:0.575758 7:0.622378 8:0.615894 9:0.544304 10:0.628571 11:0.488095 12:0.532609 13:0.491525 14:0.505618 15:0.436464 16:0.392265 17:0.414365 18:0.385475 19:0.40113 20:0.414141 21:0.311111 22:0.303371 23:0.295455 24:0.284916 25:0.238095 26:0.184783 27:0.248555 28:0.2 29:0.156069 30:0.213873 31:0.16763 32:0.204819 
8 7.054214346569585 1.483622213563391 1:-0.561644 2:-0.544304 3:-0.2 4:-0.838384 5:-0.683333 6:-0.545455 7:-0.51049 8:-0.549669 9:-0.734177 10:-0.171429 11:-0.52381 12:-0.336957 13:-0.40113 14:-0.674157 15:-0.281768 16:-0.314917 17:-0.314917 18:-0.284916 19:-0.310734 20:-0.0909091 21:-0.2 22:-0.168539 23:-0.170455 24:-0.217877 25:-0.202381 26:-0.217391 27:-0.0520231 28:-0.2 29:-0.109827 30:-0.16763 31:-0.121387 32:-0.0361446 
8 8 7.758469248341291 1:-0.205479 2:-0.240506 3:-0.0608696 4:-0.676768 5:-0.466667 6:-0.454545 7:-0.328671 8:-0.284768 9:-0.316456 10:-0.0571429 11:-0.345238 12:-0.217391 13:-0.231638 14:-0.258427 15:-0.21547 16:-0.226519 17:-0.171271 18:-0.217877 19:-0.186441 20:-0.020202 21:-0.111111 22:-0.0786517 23:-0.125 24:-0.0391061 25:-0.0952381 26:-0.0543478 27:-0.00578035 28:-0.122222 29:-0.109827 30:-0.0635838 31:-0.0289017 32:-0.060241 
8 8 8 1:-0.671233 2:-0.21519 3:0.00869565 4:-0.353535 5:-0.383333 6:-0.333333 7:-0.300699 8:-0.324503 9:-0.316456 10:-0.00952381 11:-0.25 12:-0.195652 13:-0.288136 14:-0.191011 15:-0.160221 16:-0.21547 17:-0.171271 18:-0.173184 19:-0.220339 20:0.030303 21:-0.111111 22:-0.0786517 23:-0.0227273 24:-0.184358 25:-0.142857 26:-0.228261 27:-0.0867052 28:-0.2 29:-0.0867052 30:-0.190751 31:-0.16763 32:0.0120482 
8 8 0 1:-0.315068 2:-0.417722 3:-0.130435 4:-0.636364 5:-0.533333 6:-0.515152 7:-0.524476 8:-0.430464 9:-0.443038 10:-0.114286 11:-0.380952 12:-0.26087 13:-0.322034 14:-0.348315 15:-0.325967 16:-0.270718 17:-0.226519 18:-0.284916 19:-0.254237 20:-0.10101 21:-0.188889 22:-0.157303 23:-0.170455 24:-0.139665 25:-0.178571 26:-0.152174 27:-0.0751445 28:-0.144444 29:-0.132948 30:-0.109827 31:-0.00578035 32:-0.0120482 
-0 8 3.854694407886354 1:-0.123288 2:0.240506 3:0.33913 4:0.030303 5:-0.0333333 6:-0.0454545 7:0.034965 8:-0.152318 9:0.0886076 10:0.171429 11:-0.214286 12:-0.0978261 13:-0.220339 14:-0.269663 15:-0.237569 16:-0.0718232 17:-0.038674 18:-0.307263 19:-0.265537 20:-0.0505051 21:-0.177778 22:-0.157303 23:-0.261364 24:-0.307263 25:-0.47619 26:-0.195652 27:-0.433526 28:-0.0222222 29:-0.32948 30:-0.225434 31:-0.260116 32:-0.313253 
-0 5.104968565474727 0 1:0.260274 2:0.417722 3:0.495652 4:0.0909091 5:-0.233333 6:-0.287879 7:-0.146853 8:-0.390728 9:-0.455696 10:-0.133333 11:-0.464286 12:-0.347826 13:-0.242938 14:-0.146067 15:-0.0939227 16:-0.149171 17:-0.0718232 18:-0.0614525 19:-0.0282486 20:0.10101 21:-0.0111111 22:0.0674157 23:0.0113636 24:0.00558659 25:0.0238095 26:-0.0108696 27:0.0751445 28:0.0222222 29:-0.0520231 30:0.0867052 31:0.109827 32:0.0963855 
-8 8 8 1:-0.260274 2:0.0126582 3:0.269565 4:-0.252525 5:-0.166667 6:-0.166667 7:-0.230769 8:-0.139073 9:-0.164557 10:0.0571429 11:-0.0952381 12:-0.0217391 13:-0.107345 14:-0.0224719 15:0.0165746 16:0.00552486 17:0.00552486 18:0.0391061 19:0.0734463 20:0.252525 21:0.0777778 22:0.168539 23:0.136364 24:0.0949721 25:0.130952 26:0.0869565 27:0.132948 28:-0.166667 29:-0.236994 30:-0.317919 31:-0.236994 32:-0.060241 
-0 8 5.736705375288719 1:-0.205479 2:0.0126582 3:0.130435 4:-0.232323 5:-0.2 6:-0.19697 7:-0.202797 8:-0.152318 9:-0.291139 10:0.12381 11:-0.166667 12:-0.076087 13:-0.0847458 14:-0.134831 15:-0.0939227 16:-0.21547 17:-0.712707 18:-0.597765 19:-0.649718 20:-0.515152 21:-0.7 22:-0.606742 23:-0.636364 24:-0.519553 25:-0.738095 26:-0.532609 27:-0.641618 28:-0.688889 29:-0.66474 30:-0.66474 31:-0.549133 32:-0.710843 
-8 8 3.445752218276247 1:-0.369863 2:-0.518987 3:-0.2 4:-0.494949 5:-0.516667 6:-0.681818 7:-0.692308 8:-0.668874 9:-0.544304 10:-0.114286 11:-0.559524 12:-0.467391 13:-0.491525 14:-0.516854 15:-0.491713 16:-0.59116 17:-0.414365 18:-0.530726 19:-0.514124 20:-0.121212 21:-0.0888889 22:-0.0337079 23:-0.0340909 24:0.0167598 25:0.0119048 26:0.076087 27:0.121387 28:0.0444444 29:0.0404624 30:0.109827 31:0.121387 32:0.192771 
-5.568458471489543 8 0 1:0.232877 2:0.21519 3:0.304348 4:0.131313 5:-0.266667 6:-0.0454545 7:-0.104895 8:-0.271523 9:-0.265823 10:0.0666667 11:-0.166667 12:-0.0869565 13:-0.141243 14:-0.0561798 15:-0.0165746 16:-0.0607735 17:-0.00552486 18:-0.0391061 19:-0.00564972 20:0.151515 21:0.0333333 22:0.0561798 23:0.0454545 24:0.0837989 25:0.0238095 26:0.0326087 27:0.144509 28:0.0444444 29:0.0751445 30:0.0982659 31:0.179191 32:0.204819 
-8 8 4.173679822658233 1:-0.178082 2:0.139241 3:0.286957 4:-0.171717 5:-0.116667 6:-0.106061 7:-0.118881 8:-0.112583 9:-0.113924 10:0.12381 11:-0.0714286 12:0.0108696 13:-0.0169492 14:0.011236 15:-0.00552486 16:0.0497238 17:0.0497238 18:0.0391061 19:0.0847458 20:0.262626 21:0.144444 22:-0.123596 23:-0.204545 24:-0.240223 25:-0.202381 26:-0.206522 27:-0.0982659 28:-0.244444 29:-0.16763 30:-0.190751 31:-0.0751445 32:-0.0120482 
-0 8 0.6346634938714237 1:-0.260274 2:-0.113924 3:0.182609 4:-0.272727 5:-0.183333 6:-0.19697 7:-0.244755 8:-0.152318 9:-0.202532 10:0.047619 11:-0.607143 12:-0.543478 13:-0.683616 14:-0.662921 15:-0.668508 16:-0.745856 17:-0.723757 18:-0.709497 19:-0.661017 20:-0.474747 21:-0.5 22:-0.651685 23:-0.647727 24:-0.553073 25:-0.678571 26:-0.630435 27:-0.572254 28:-0.511111 29:-0.537572 30:-0.433526 31:-0.317919 32:-0.409639 
-0 8 5.101923928781736 1:0.643836 2:0.670886 3:0.634783 4:0.353535 5:0.0833333 6:0.0454545 7:-0.034965 8:-0.0728477 9:-0.113924 10:0.190476 11:-0.321429 12:-0.271739 13:-0.378531 14:-0.41573 15:-0.359116 16:-0.370166 17:-0.414365 18:-0.351955 19:-0.231638 20:-0.252525 21:-0.422222 22:-0.325843 23:-0.261364 24:-0.329609 25:-0.27381 26:0.0652174 27:0.0404624 28:0.122222 29:0.132948 30:0.225434 31:0.179191 32:0.0843373 
-8 8 6.687456781175519 1:-0.342466 2:-0.21519 3:0.0782609 4:-0.474747 5:-0.35 6:-0.439394 7:-0.482517 8:-0.483444 9:-0.531646 10:-0.161905 11:-0.488095 12:-0.152174 13:-0.129944 14:-0.134831 15:-0.0718232 16:-0.0828729 17:-0.00552486 18:0.027933 19:0.00564972 20:0.141414 21:0.1 22:0.101124 23:0.0795455 24:0.139665 25:0.130952 26:0.119565 27:0.202312 28:0.0666667 29:0.144509 30:0.225434 31:0.32948 32:0.240964 
-8 0.4052103890906054 0.175428173108063 1:0.0410959 2:0.64557 3:0.895652 4:0.919192 5:0.95 6:0.939394 7:0.986014 8:1 9:0.962025 10:1 11:0.97619 12:0.978261 13:0.988701 14:1 15:0.955801 16:0.933702 17:0.977901 18:0.955307 19:1 20:0.989899 21:0.988889 22:0.988764 23:0.954545 24:0.988827 25:0.97619 26:0.934783 27:0.988439 28:0.933333 29:0.895954 30:0.976879 31:0.988439 32:0.939759 
-8 0 0 1:0.0410959 2:0.670886 3:0.947826 4:0.979798 5:0.95 6:0.969697 7:1 8:0.986755 9:0.949367 10:0.990476 11:0.964286 12:0.967391 13:0.988701 14:0.977528 15:0.977901 16:0.922652 17:0.977901 18:0.932961 19:0.977401 20:0.969697 21:0.988889 22:0.977528 23:0.943182 24:0.955307 25:0.964286 26:0.880435 27:0.895954 28:0.844444 29:0.791908 30:0.872832 31:0.895954 32:0.879518 
-0 3.107218557568782 0.648874467060786 1:0.0410959 2:0.21519 3:0.391304 4:-0.010101 5:0.383333 6:0.0757576 7:-0.048951 8:-0.0463576 9:0.151899 10:0.295238 11:-0.0714286 12:0.0108696 13:-0.152542 14:-0.0674157 15:-0.127072 16:0.0165746 17:-0.00552486 18:-0.00558659 19:-0.0734463 20:0.10101 21:-0.133333 22:-0.101124 23:-0.284091 24:-0.296089 25:-0.369048 26:-0.347826 27:-0.294798 28:-0.333333 29:-0.317919 30:-0.375723 31:-0.294798 32:-0.228916 
-0 0 3.059502249729586 1:-0.589041 2:-0.417722 3:0.0608696 4:-0.636364 5:-0.633333 6:-0.727273 7:-0.538462 8:-0.735099 9:-0.670886 10:-0.371429 11:-0.702381 12:-0.565217 13:-0.468927 14:-0.573034 15:-0.58011 16:-0.524862 17:-0.558011 18:-0.530726 19:-0.536723 20:-0.333333 21:-0.433333 22:-0.438202 23:-0.227273 24:-0.00558659 25:-0.0119048 26:0.0543478 27:0.0751445 28:0.0666667 29:0.0520231 30:0.213873 31:0.294798 32:0.192771 
-0.8264436709004408 8 0 1:-0.150685 2:0.113924 3:0.234783 4:-0.0909091 5:-0.116667 6:-0.0909091 7:-0.132867 8:-0.125828 9:-0.0886076 10:0.171429 12:0.076087 13:0.0169492 14:0.0337079 15:0.116022 16:0.0276243 17:0.160221 18:0.0726257 19:0.163842 20:0.242424 21:0.211111 22:0.213483 23:0.136364 24:0.217877 26:0.0652174 27:-0.0404624 28:-0.0444444 29:-0.156069 30:-0.0867052 31:0.0289017 32:-0.0240964 
-0 8 0.2721130296292379 1:-0.260274 2:-0.0126582 3:0.217391 4:-0.212121 5:-0.166667 6:-0.166667 7:-0.174825 8:-0.125828 9:-0.139241 10:0.0952381 11:-0.0952381 12:-0.0217391 13:-0.118644 14:-0.674157 15:-0.635359 16:-0.679558 17:-0.657459 18:-0.72067 19:-0.683616 20:-0.464646 21:-0.577778 22:-0.58427 23:-0.636364 24:-0.597765 25:-0.702381 26:-0.576087 27:-0.352601 28:-0.577778 29:-0.630058 30:-0.606936 31:-0.260116 32:-0.349398 
-0 7.278909406461976 0.5993454736173262 1:1 2:0.772152 3:0.982609 4:0.313131 5:0.45 6:0.0757576 7:0.034965 8:0.0198675 9:-0.101266 10:0.142857 11:-0.0119048 12:0.119565 13:-0.141243 14:0.0786517 15:-0.0276243 16:-0.248619 17:-0.226519 18:-0.329609 19:-0.333333 20:-0.151515 21:-0.0777778 22:-0.292135 23:-0.329545 24:-0.307263 25:-0.345238 26:-0.358696 27:-0.260116 28:-0.344444 29:-0.144509 30:-0.0635838 31:0.0289017 32:0.0963855 
-8 8 0 1:-0.780822 2:-0.21519 3:-0.269565 4:-0.717172 5:-0.616667 6:-0.424242 7:-0.566434 8:-0.549669 9:-0.518987 10:-0.2 11:-0.345238 12:-0.445652 13:-0.457627 14:-0.494382 15:-0.226519 16:-0.458564 17:-0.171271 18:-0.0949721 19:-0.00564972 20:0.181818 21:0.0777778 22:0.101124 23:0.0909091 24:0.162011 25:0.0595238 26:0.130435 27:0.202312 28:0.155556 29:0.0982659 30:0.225434 31:0.283237 32:0.216867 
-8 8 0 1:0.452055 2:0.265823 3:0.321739 4:-0.171717 5:-0.183333 6:-0.106061 7:-0.174825 8:-0.139073 9:-0.113924 10:0.0952381 11:-0.142857 12:0.0326087 13:-0.0282486 14:-0.0786517 15:0.0276243 16:-0.00552486 17:-0.0607735 18:0.00558659 19:0.0169492 20:0.141414 21:0.0555556 22:0.0898876 23:0.136364 24:0.162011 26:0.217391 27:0.0520231 28:0.2 29:0.179191 30:0.248555 31:0.213873 32:0.0722892 
-8 8 0 1:-0.150685 2:0.113924 3:0.286957 4:-0.171717 5:-0.05 6:-0.0909091 7:-0.048951 8:-0.0596026 9:-0.0632911 10:0.228571 11:-0.0833333 12:0.0869565 13:0.039548 14:0.101124 15:0.0939227 16:0.0607735 17:0.104972 18:0.106145 19:0.107345 20:-0.040404 21:0.155556 22:-0.0561798 23:0.0454545 24:-0.0502793 25:-0.119048 26:-0.0543478 27:-0.0404624 28:-0.0777778 29:0.0520231 30:-0.00578035 31:0.0635838 32:0.108434 
-0 0 5.701913220658037 1:-0.287671 2:-0.0126582 3:0.182609 4:-0.171717 5:-0.183333 6:-0.212121 7:-0.188811 8:-0.178808 9:-0.734177 10:-0.390476 11:-0.607143 12:-0.673913 13:-0.785311 14:-0.741573 15:-0.701657 16:-0.723757 17:-0.535912 18:-0.709497 19:-0.762712 20:-0.525253 21:-0.588889 22:-0.617978 23:-0.625 24:-0.47486 25:-0.583333 26:-0.48913 27:-0.387283 28:-0.522222 29:-0.387283 30:-0.294798 31:-0.479769 32:-0.518072 
-2.442082353881107 0 0 1:-0.0410959 2:0.56962 3:0.773913 4:0.737374 5:0.766667 6:0.757576 7:0.72028 8:0.761589 9:0.822785 10:0.828571 11:0.690476 12:-0.195652 13:-0.276836 14:-0.382022 15:-0.0939227 16:-0.0276243 17:-0.038674 18:-0.0167598 19:-0.00564972 20:0.0707071 21:0.0555556 22:0.0449438 23:0.113636 24:0.139665 25:-0.0119048 26:0.228261 27:0.0635838 28:0.211111 29:0.190751 30:0.236994 31:0.236994 32:0.13253 
-6.660797761366722 5.511594081424176 0 1:-0.0684932 2:0.493671 3:0.234783 4:-0.212121 5:-0.15 6:-0.19697 7:-0.174825 8:-0.152318 9:-0.126582 10:0.142857 11:-0.0238095 13:0.00564972 14:-0.011236 15:0.0607735 16:-0.00552486 17:0.138122 18:0.106145 19:0.152542 20:0.242424 21:0.177778 22:0.202247 23:0.181818 24:0.195531 25:0.214286 26:0.206522 27:0.248555 28:0.188889 29:0.179191 30:0.283237 31:0.260116 32:-0.120482 
-0 8 5.614936130259857 1:-0.0410959 2:0.265823 3:0.373913 4:-0.0707071 5:-0.05 7:-0.00699301 8:-0.0596026 9:-0.0886076 10:0.209524 11:-0.178571 12:-0.0978261 13:-0.0734463 14:-0.134831 15:-0.171271 16:0.0165746 17:-0.127072 18:-0.240223 19:-0.163842 21:-0.0333333 22:-0.0674157 23:-0.0909091 24:-0.150838 25:-0.142857 26:-0.326087 27:-0.0520231 28:-0.344444 29:-0.364162 30:-0.317919 31:-0.387283 32:-0.0963855 
-2.64661066428841 0 1.214677640100197 1:-0.69863 2:-0.291139 3:-0.0782609 4:-0.818182 5:-0.65 6:-0.621212 7:-0.678322 8:-0.668874 9:-0.658228 10:-0.352381 11:-0.761905 12:-0.521739 13:-0.480226 14:-0.539326 15:-0.624309 16:-0.61326 17:-0.546961 18:-0.463687 19:-0.548023 20:-0.131313 21:-0.411111 22:-0.449438 23:-0.454545 24:-0.251397 25:-0.47619 26:-0.369565 27:-0.32948 28:-0.2 29:-0.0404624 30:0.0520231 31:0.213873 32:0.216867 
-0 7.366938156268669 0.3051434679103897 1:0.972603 2:0.670886 3:0.634783 4:-0.151515 5:-0.233333 6:-0.0454545 7:-0.216783 8:-0.364238 9:-0.35443 10:-0.12381 11:-0.357143 12:-0.0869565 13:-0.322034 14:-0.393258 15:-0.403315 16:-0.0828729 17:-0.116022 18:0.0167598 19:-0.00564972 20:0.121212 21:0.0222222 22:0.0449438 23:0.136364 24:0.117318 26:0.23913 27:0.0520231 28:0.266667 29:0.190751 30:0.236994 31:0.294798 32:0.144578 
-0 4.401846657875018 7.132470132712183 1:0.205479 2:0.417722 3:0.182609 4:-0.252525 5:-0.133333 6:-0.106061 7:-0.160839 8:-0.125828 9:-0.151899 10:0.161905 11:-0.0714286 13:-0.0169492 14:0.0449438 15:0.0718232 16:0.0276243 17:0.104972 18:0.0837989 19:0.141243 20:0.242424 21:0.188889 22:0.224719 23:0.147727 24:0.184358 25:0.178571 26:0.173913 27:0.248555 28:0.2 29:0.144509 30:0.225434 31:-0.109827 32:-0.204819 
-4.04472689762127 1.325506501985344 5.830545047642711 1:-0.287671 2:-0.113924 3:0.113043 4:-0.191919 5:-0.183333 6:-0.136364 7:-0.188811 8:-0.139073 9:-0.139241 10:0.114286 11:-0.119048 12:-0.0108696 13:-0.0960452 15:-0.0165746 16:-0.038674 17:0.0497238 18:0.0391061 19:-0.0282486 20:-0.393939 21:-0.5 22:-0.550562 23:-0.613636 24:-0.608939 25:-0.619048 26:-0.608696 27:-0.50289 28:-0.5 29:-0.583815 30:-0.583815 31:-0.468208 32:-0.53012 
-0 8 0 1:-0.0958904 2:0.240506 3:0.286957 4:-0.010101 5:-0.0333333 6:0.0151515 7:-0.0769231 8:-0.0198675 9:-0.151899 10:0.0952381 11:-0.166667 12:-0.076087 13:-0.19774 14:-0.168539 15:-0.0828729 16:-0.20442 17:-0.160221 18:0.0502793 19:-0.129944 21:0.133333 22:-0.0674157 23:-0.284091 24:-0.340782 25:-0.0952381 26:-0.380435 27:-0.260116 28:-0.377778 29:-0.387283 30:-0.537572 31:-0.479769 32:-0.192771 
-7.320711286347787 7.501811876680984 0.06772312749207658 1:-0.616438 2:-0.493671 3:-0.182609 4:-0.757576 5:-0.683333 6:-0.712121 7:-0.51049 8:-0.523179 9:-0.658228 10:-0.304762 11:-0.464286 12:-0.51087 13:-0.59322 14:-0.325843 15:-0.491713 16:-0.513812 17:-0.226519 18:-0.251397 19:-0.40113 20:-0.242424 21:-0.366667 22:-0.348315 23:-0.318182 24:0.0614525 26:0.076087 27:0.16763 28:0.0777778 29:0.0867052 30:0.156069 31:0.213873 32:0.204819 
-2.270386301067111 8 0 1:-0.150685 2:0.139241 3:0.356522 4:-0.151515 5:-0.05 6:-0.121212 7:-0.118881 8:-0.125828 9:-0.0632911 10:0.133333 11:-0.047619 12:0.0652174 13:0.0508475 14:0.0561798 15:0.0607735 16:0.0718232 17:0.0939227 18:0.0949721 19:0.152542 20:0.292929 21:0.188889 22:0.224719 23:0.147727 24:0.22905 25:0.214286 26:0.0434783 27:-0.0751445 28:-0.133333 29:-0.0982659 30:-0.0404624 31:0.017341 32:-0.168675 
-8 8 0 1:-0.342466 2:-0.772152 3:0.0956522 4:-0.212121 5:-0.1 6:-0.030303 7:-0.00699301 8:-0.00662252 9:0.0379747 10:0.171429 11:-0.0238095 12:0.173913 13:0.118644 14:0.0674157 15:0.149171 16:0.18232 17:0.160221 18:0.173184 19:0.152542 20:0.272727 21:0.177778 22:0.202247 23:0.25 24:0.307263 25:0.166667 26:0.413043 27:0.260116 28:0.355556 29:0.32948 30:0.433526 31:0.398844 32:0.313253 
-8 8 0 1:-0.39726 2:-0.291139 3:0.026087 4:-0.333333 5:-0.233333 6:-0.151515 7:-0.0909091 8:-0.0596026 9:-0.0632911 10:0.180952 11:0.0238095 12:0.0978261 13:0.0960452 14:0.0898876 15:0.127072 16:0.104972 17:0.149171 18:0.162011 19:0.19774 20:0.323232 21:0.244444 22:0.280899 23:0.227273 24:0.26257 25:0.22619 26:0.25 27:0.34104 28:0.288889 29:0.236994 30:0.32948 31:0.364162 32:0.361446 
-8 8 0 1:-0.452055 2:-0.316456 3:0.0608696 4:-0.272727 5:-0.2 6:-0.212121 7:-0.160839 8:-0.0728477 9:-0.164557 10:0.133333 11:-0.0595238 12:-0.0434783 13:0.00564972 14:0.0561798 15:0.0828729 16:0.0718232 17:0.149171 18:0.150838 19:0.163842 20:0.262626 21:0.188889 22:0.258427 23:0.215909 24:0.206704 25:0.214286 26:0.184783 27:0.294798 28:0.0888889 29:0.190751 30:0.283237 31:0.317919 32:0.325301 
-8 8 0 1:-0.260274 2:-0.189873 3:0.165217 4:-0.252525 5:-0.15 6:-0.0909091 7:-0.118881 8:-0.0728477 9:-0.0126582 10:0.171429 11:0.0595238 12:0.108696 13:0.0508475 14:0.0786517 15:0.19337 16:0.160221 17:0.248619 18:0.22905 19:0.254237 20:0.40404 21:0.333333 22:0.337079 23:0.363636 24:0.273743 25:0.357143 26:0.23913 27:0.410405 28:0.288889 29:0.317919 30:0.283237 31:0.306358 32:0.409639 
-8 8 0 1:-0.452055 2:-0.341772 3:0.0434783 4:-0.333333 5:-0.233333 6:-0.181818 7:-0.118881 8:-0.0860927 9:-0.0632911 10:0.2 11:-0.0238095 12:0.076087 13:0.0734463 14:0.0898876 15:0.116022 16:0.0828729 17:0.149171 18:0.139665 19:0.175141 20:0.282828 21:0.2 22:0.247191 23:0.238636 24:0.284916 25:0.190476 26:0.25 27:0.306358 28:0.255556 29:0.271676 30:0.364162 31:0.34104 32:0.325301 
-8 8 0 1:-0.150685 2:-0.113924 3:0.165217 4:-0.131313 5:-0.15 6:-0.0151515 7:-0.048951 8:-0.0728477 9:0.0126582 10:0.152381 11:-0.0833333 12:0.119565 13:0.0734463 14:0.0674157 15:0.149171 16:0.19337 17:0.104972 18:0.150838 19:0.152542 20:0.242424 21:0.155556 22:0.168539 23:0.215909 24:0.273743 25:-0.154762 26:0.369565 27:0.225434 28:0.366667 29:0.283237 30:0.364162 31:0.352601 32:0.26506 
-8 8 0 1:-0.342466 2:-0.21519 3:0.0956522 4:-0.333333 5:-0.216667 6:-0.106061 7:-0.0769231 8:-0.00662252 9:-0.0253165 10:0.2 12:0.108696 13:0.0847458 14:0.123596 15:0.127072 16:0.138122 17:0.127072 18:0.173184 19:0.20904 20:0.333333 21:0.277778 22:0.292135 23:0.272727 24:0.273743 25:0.238095 26:0.26087 27:0.364162 28:0.288889 29:0.260116 30:0.375723 31:0.421965 32:0.433735 
-8 8 0 1:-0.260274 2:-0.189873 3:0.0434783 4:-0.353535 6:-0.212121 7:-0.132867 8:-0.0860927 9:-0.0632911 10:0.171429 11:-0.047619 12:0.0543478 13:-0.00564972 14:0.0337079 15:0.0939227 16:0.0718232 17:0.138122 18:0.106145 19:0.186441 20:0.282828 21:0.222222 22:0.235955 23:0.238636 24:0.26257 25:0.27381 26:0.217391 27:0.317919 28:0.233333 29:0.271676 30:0.306358 31:0.34104 32:0.337349 
-8 8 0 1:-0.260274 2:0.0379747 3:0.304348 4:-0.131313 5:-0.0833333 6:-0.0909091 7:-0.104895 8:-0.00662252 9:0.0126582 10:0.209524 11:0.0357143 12:0.108696 13:0.0847458 14:0.179775 15:0.21547 16:0.160221 17:0.20442 18:0.195531 19:0.163842 20:0.343434 21:0.266667 22:0.258427 23:0.227273 24:0.22905 25:0.27381 26:0.163043 27:0.294798 28:0.2 29:0.271676 30:0.236994 31:0.260116 32:0.373494 
-8 8 0 1:-0.369863 2:-0.189873 3:0.0782609 4:-0.313131 5:-0.216667 6:-0.151515 7:-0.104895 8:-0.0198675 9:-0.0632911 10:0.180952 11:-0.0238095 12:0.119565 13:0.0508475 14:0.0786517 15:0.0828729 16:0.0607735 17:0.160221 18:0.162011 19:0.20904 20:0.292929 21:0.244444 22:0.280899 23:0.238636 24:0.26257 25:0.261905 26:0.163043 27:0.317919 28:0.255556 29:0.260116 30:0.352601 31:0.375723 32:0.337349 
-8 8 0 1:-0.178082 2:-0.113924 3:0.0956522 4:-0.313131 5:-0.233333 6:-0.106061 7:-0.132867 8:-0.0993377 9:-0.0126582 10:0.152381 11:-0.0833333 12:0.108696 13:0.0621469 14:0.0224719 15:0.104972 16:0.104972 17:0.0828729 18:0.0614525 19:0.0847458 20:0.20202 21:0.122222 22:0.11236 23:0.227273 24:0.26257 25:0.142857 26:0.336957 27:0.179191 28:0.366667 29:0.306358 30:0.398844 31:0.364162 32:0.289157 
-8 8 0 1:-0.205479 2:-0.468354 3:0.113043 4:-0.212121 5:-0.433333 6:-0.0606061 7:-0.034965 8:-0.0993377 9:-0.0253165 10:0.238095 11:0.0595238 12:0.108696 13:0.0960452 14:0.101124 15:0.160221 16:0.171271 17:0.226519 18:0.184358 19:0.231638 20:0.333333 21:0.3 22:0.280899 23:0.261364 24:0.296089 25:0.297619 26:0.25 27:0.32948 28:0.266667 29:0.283237 30:0.34104 31:0.375723 32:0.361446 
-0 1.513252290144546 0 1:-0.39726 2:-0.417722 3:-0.026087 4:-0.474747 5:-0.483333 6:-0.454545 7:-0.524476 8:-0.549669 9:-0.531646 10:-0.2 11:-0.47619 12:-0.543478 13:-0.457627 14:-0.41573 15:-0.513812 16:-0.712707 17:-0.524862 18:-0.530726 19:-0.581921 20:-0.272727 21:-0.4 22:-0.370787 23:-0.340909 24:-0.486034 25:-0.333333 26:-0.467391 27:-0.375723 28:-0.477778 29:-0.445087 30:-0.421965 31:-0.433526 32:-0.289157 
-0.528497763544732 0 2.131796023086672 1:0.0410959 2:-0.113924 3:0.00869565 4:-0.575758 5:-0.466667 6:-0.454545 7:-0.496503 8:-0.390728 9:-0.531646 10:-0.171429 11:-0.5 12:-0.326087 13:-0.435028 14:-0.52809 15:-0.469613 16:-0.524862 17:-0.502762 18:-0.463687 19:-0.525424 20:-0.383838 21:-0.422222 22:-0.449438 23:-0.511364 24:-0.441341 25:-0.607143 26:-0.391304 27:-0.537572 28:-0.355556 29:-0.410405 30:-0.34104 31:-0.468208 32:-0.493976 
-4.772288938644362 0 0 1:-0.506849 2:-0.392405 3:-0.130435 4:-0.656566 5:-0.6 6:-0.621212 7:-0.552448 8:-0.536424 9:-0.607595 10:-0.219048 11:-0.559524 12:-0.413043 13:-0.502825 14:-0.460674 15:-0.447514 16:-0.491713 17:-0.458564 18:-0.374302 19:-0.536723 20:-0.282828 21:-0.433333 22:-0.460674 23:-0.397727 24:-0.407821 25:-0.5 26:-0.5 27:-0.445087 28:-0.522222 29:-0.537572 30:-0.491329 31:-0.50289 32:-0.433735 
-0 0 2.805199390417289 1:-0.369863 2:-0.594937 3:-0.130435 4:-0.717172 5:-0.666667 6:-0.712121 7:-0.664336 8:-0.629139 9:-0.683544 10:-0.847619 11:-0.690476 12:-0.717391 13:-0.638418 14:-0.696629 15:-0.657459 16:-0.624309 17:-0.679558 18:-0.743017 19:-0.661017 20:-0.464646 21:-0.622222 22:-0.629213 23:-0.590909 24:-0.497207 25:-0.702381 26:-0.413043 27:-0.583815 28:-0.422222 29:-0.456647 30:-0.352601 31:-0.387283 32:-0.481928 
-8 0 0 1:-0.315068 2:-0.291139 3:-0.026087 4:-0.454545 5:-0.383333 6:-0.363636 7:-0.286713 8:-0.430464 9:-0.518987 10:-0.209524 11:-0.52381 12:-0.358696 13:-0.502825 14:-0.505618 15:-0.436464 16:-0.436464 17:-0.414365 18:-0.430168 19:-0.322034 20:-0.353535 21:-0.433333 22:-0.460674 23:-0.488636 24:-0.430168 25:-0.559524 26:-0.543478 27:-0.526012 28:-0.477778 29:-0.514451 30:-0.445087 31:-0.190751 32:-0.349398 
-8 8 8 1:-0.287671 2:-0.189873 3:0.00869565 4:-0.414141 5:-0.616667 6:-0.363636 7:-0.370629 8:-0.311258 9:-0.35443 10:-0.00952381 11:-0.22619 12:-0.141304 13:-0.129944 14:-0.146067 15:-0.116022 16:-0.171271 17:-0.138122 18:-0.139665 19:-0.0508475 20:0.0505051 22:0.0449438 23:-0.0795455 24:-0.0391061 25:-0.0119048 26:-0.076087 27:0.0520231 28:-0.0444444 29:-0.017341 30:-0.00578035 31:0.0635838 32:0.0361446 
-0 7.557899885345159 0 1:-0.479452 2:-0.518987 3:-0.513043 4:-0.858586 5:-0.9 6:-0.848485 7:-0.874126 8:-0.94702 9:-0.873418 10:-0.542857 11:-0.940476 12:-0.771739 13:-0.920904 14:-0.876404 15:-0.812155 16:-0.922652 17:-0.878453 18:-0.899441 19:-0.988701 20:-0.606061 21:-0.955556 22:-0.865169 23:-0.897727 24:-0.899441 25:-0.940476 26:-0.880435 27:-0.872832 28:-0.922222 29:-0.919075 30:-0.953757 31:-0.930636 32:-0.771084 
-0 0 1.29593690051196 1:-0.506849 2:-0.620253 3:-0.2 4:-0.959596 5:-0.866667 6:-0.818182 7:-0.776224 8:-0.960265 9:-0.860759 10:-0.52381 11:-0.880952 12:-0.695652 13:-0.887006 14:-0.842697 15:-0.856354 16:-0.790055 17:-1 18:-0.96648 19:-0.80791 20:-0.676768 21:-0.866667 22:-1 23:-0.795455 24:-0.72067 25:-1 26:-0.565217 27:-0.872832 28:-0.655556 29:-0.768786 30:-0.710983 31:-0.653179 32:-0.807229 
-0 1.668345659807755 0 1:-0.232877 2:-0.265823 3:-0.408696 4:-0.919192 5:-0.65 6:-0.909091 7:-0.832168 8:-0.86755 9:-0.898734 10:-0.504762 11:-1 12:-1 13:-0.932203 14:-1 15:-0.944751 16:-0.790055 17:-0.977901 18:-1 19:-1 20:-0.838384 21:-1 22:-1 23:-1 24:-1 25:-0.964286 26:-1 27:-1 28:-1 29:-1 30:-1 31:-1 32:-1 
-0 0 1.182386748987626 1:-0.178082 2:-0.518987 3:-0.026087 4:-0.717172 5:-0.866667 6:-0.712121 7:-0.72028 8:-0.748344 9:-0.797468 10:-0.333333 11:-0.785714 12:-0.663043 13:-0.762712 14:-0.719101 15:-0.723757 16:-0.779006 17:-0.712707 18:-0.787709 19:-0.830508 20:-0.565657 21:-0.766667 22:-0.651685 23:-0.590909 24:-0.631285 25:-0.630952 26:-0.576087 27:-0.526012 28:-0.666667 29:-0.491329 30:-0.687861 31:-0.606936 32:-0.542169 
-8 8 2.608351061472782 1:-0.479452 2:-0.493671 3:-0.217391 4:-0.656566 5:-0.55 6:-0.545455 7:-0.524476 8:-0.483444 9:-0.417722 10:-0.171429 11:-0.440476 12:-0.271739 13:-0.322034 14:-0.359551 15:-0.314917 16:-0.292818 17:-0.292818 18:-0.307263 19:-0.254237 20:-0.111111 21:-0.222222 22:-0.247191 23:-0.181818 24:-0.0167598 25:-0.238095 26:-0.0108696 27:-0.179191 28:0.0111111 29:-0.0982659 30:-0.00578035 31:-0.00578035 32:-0.108434 
-8 8 2.043381353940113 1:-0.479452 2:-0.468354 3:-0.130435 4:-0.535354 5:-0.55 6:-0.454545 7:-0.51049 8:-0.496689 9:-0.43038 10:-0.0952381 11:-0.428571 12:-0.358696 13:-0.446328 14:-0.393258 15:-0.281768 16:-0.314917 17:-0.270718 18:-0.307263 19:-0.322034 20:-0.121212 21:-0.222222 22:-0.213483 23:-0.204545 24:-0.273743 25:-0.190476 26:-0.293478 27:-0.109827 28:-0.233333 29:-0.375723 30:-0.317919 31:-0.734104 32:-0.060241 
-8 8 7.675400333724881 1:-0.315068 2:-0.392405 3:-0.182609 4:-0.676768 5:-0.533333 6:-0.454545 7:-0.524476 8:-0.443709 9:-0.417722 10:-0.180952 11:-0.47619 12:-0.456522 13:-0.389831 14:-0.404494 15:-0.458564 16:-0.381215 17:-0.314917 18:-0.340782 19:-0.310734 20:-0.181818 21:-0.277778 22:-0.247191 23:-0.193182 24:-0.150838 25:-0.261905 26:-0.0869565 27:-0.225434 28:-0.0555556 29:-0.0867052 30:-0.0404624 31:-0.0289017 32:-0.156627 
-0.7878916068280367 -8 1.717889988210977 1:-0.205479 2:0.113924 3:0.252174 4:-0.111111 5:-0.15 6:-0.151515 7:-0.230769 8:-0.192053 9:-0.151899 10:0.0666667 11:-0.166667 12:-0.0543478 13:-0.107345 14:-0.0449438 15:-0.0828729 16:-0.0607735 17:-0.0276243 18:0.0167598 19:-0.039548 20:0.131313 21:0.0333333 22:0.0561798 23:0.0568182 24:0.0502793 25:0.047619 26:-0.0108696 27:0.0751445 28:-0.566667 29:-0.653179 30:-0.687861 31:-0.676301 32:-0.445783 
-0 -8 6.488434044853311 1:0.0136986 2:0.265823 3:0.33913 4:-0.030303 5:-0.0666667 6:-0.0757576 7:-0.132867 8:-0.0728477 9:-0.0632911 10:0.180952 11:0.0119048 12:0.0326087 13:-0.231638 15:-0.127072 16:-0.0276243 17:-0.19337 18:-0.117318 19:-0.231638 20:-0.0707071 21:-0.222222 22:-0.0898876 23:-0.181818 24:-0.195531 25:-0.0952381 26:-0.217391 27:0.0751445 28:-0.322222 29:-0.375723 30:-0.398844 31:-0.572254 32:-0.289157 
-0.6377966753233016 -2.507698174713076 0.6514491335211868 1:-0.0136986 2:0.594937 3:0.878261 4:0.858586 5:0.85 6:0.893939 7:0.748252 8:0.774834 9:0.746835 10:0.819048 11:0.785714 12:0.815217 13:0.841808 14:0.831461 15:0.845304 16:0.723757 17:-0.701657 18:-0.620112 19:-0.559322 20:-0.434343 21:-0.533333 22:-0.505618 23:-0.284091 24:-0.486034 25:-0.583333 26:-0.532609 27:-0.387283 28:-0.222222 29:-0.0520231 30:0.0751445 31:0.0867052 32:0.0843373 
-0 -8 1.892138823686681 1:0.287671 2:0.291139 3:0.182609 4:-0.313131 5:-0.316667 6:-0.121212 7:-0.398601 8:-0.417219 9:-0.43038 11:-0.547619 12:-0.380435 13:-0.480226 14:-0.325843 15:-0.149171 16:-0.0939227 17:-0.104972 18:-0.0949721 19:-0.0734463 20:0.111111 21:-0.0333333 22:0.011236 24:0.106145 25:-0.047619 26:0.184783 27:0.121387 28:0.2 29:0.0982659 30:0.236994 31:0.190751 32:0.13253 
-8 -8 0 1:-0.342466 2:-0.0632911 3:0.0608696 4:-0.333333 5:-0.3 6:-0.287879 7:-0.230769 8:-0.152318 9:-0.164557 10:0.0761905 11:-0.166667 12:-0.0326087 13:-0.0734463 14:-0.0449438 15:0.0276243 16:-0.0276243 17:0.116022 18:-0.00558659 19:0.118644 20:0.191919 21:0.166667 22:0.157303 23:0.102273 24:0.173184 25:0.154762 26:0.0543478 27:-0.16763 28:-0.222222 29:-0.260116 30:-0.156069 31:-0.0520231 32:-0.180723 
-2.804339071827014 -8 6.270427104683118 1:-0.452055 2:-0.189873 3:0.0956522 4:-0.313131 5:-0.283333 6:-0.212121 7:-0.258741 8:-0.165563 9:-0.240506 10:0.047619 11:-0.178571 12:-0.0869565 13:-0.186441 14:-0.224719 15:-0.712707 16:-0.690608 17:-0.745856 18:-0.743017 19:-0.762712 20:-0.545455 21:-0.677778 22:-0.640449 23:-0.670455 24:-0.687151 25:-0.738095 26:-0.586957 27:-0.456647 28:-0.711111 29:-0.583815 30:-0.572254 31:-0.514451 32:-0.590361 
-0 -1.224207440216334 2.528591440484994 1:0.589041 2:0.594937 3:0.513043 4:0.030303 5:-0.05 6:0.0454545 7:-0.174825 8:-0.205298 9:-0.177215 10:0.209524 11:-0.0357143 12:-0.163043 13:-0.288136 14:-0.393258 15:-0.392265 16:-0.414365 17:-0.392265 18:-0.385475 19:-0.457627 20:-0.252525 21:-0.377778 22:-0.382022 23:-0.147727 24:-0.296089 25:-0.428571 26:-0.336957 27:-0.352601 28:-0.211111 29:-0.0289017 30:-0.0289017 31:0.0289017 32:0.13253 
-8 -6.6971820334045 3.739188023206602 1:-0.561644 2:-0.544304 3:-0.217391 4:-0.69697 5:-0.416667 6:-0.606061 7:-0.608392 8:-0.364238 9:-0.632911 10:-0.0666667 11:-0.559524 12:-0.326087 13:-0.559322 14:-0.382022 15:-0.160221 16:-0.171271 17:-0.038674 18:-0.0614525 19:-0.0169492 20:0.151515 21:0.1 22:0.0449438 23:0.0568182 24:0.117318 25:0.0714286 26:0.0652174 27:0.179191 28:0.111111 29:0.16763 30:0.202312 31:0.283237 32:0.192771 
-0.3399078531818299 -7.686064204388119 8 1:0.0410959 2:0.0379747 3:0.113043 4:-0.333333 5:-0.266667 6:-0.287879 7:-0.286713 8:-0.231788 9:-0.189873 10:0.0190476 11:-0.214286 12:0.0108696 13:-0.107345 14:-0.191011 15:-0.0276243 16:-0.0165746 17:-0.0718232 18:-0.0167598 19:-0.0169492 20:0.10101 21:-0.0777778 23:0.0454545 24:0.0949721 25:-0.0238095 26:0.184783 27:0.017341 28:0.155556 29:-0.433526 30:-0.468208 31:-0.364162 32:-0.578313 
-0 -8 2.781772660336711 1:-0.205479 2:0.0632911 3:0.217391 4:-0.232323 5:-0.133333 6:-0.166667 7:-0.118881 8:-0.0860927 9:-0.126582 10:0.114286 11:-0.0357143 13:-0.0169492 14:-0.123596 15:-0.237569 16:-0.325967 17:-0.171271 18:-0.340782 19:-0.175141 20:-0.10101 21:-0.0555556 23:-0.0227273 24:-0.206704 25:-0.25 26:-0.217391 27:-0.132948 28:-0.244444 29:-0.32948 30:-0.283237 31:-0.364162 32:-0.26506 
-8 -8 7.848573575628353 1:-0.287671 2:-0.265823 3:-0.113043 4:-0.919192 5:-0.633333 6:-0.80303 7:-0.65035 8:-0.682119 9:-0.797468 10:-0.27619 11:-0.797619 12:-0.706522 13:-0.706215 14:-0.550562 15:-0.668508 16:-0.690608 17:-0.624309 18:-0.75419 19:-0.457627 20:-0.444444 21:-0.3 22:-0.314607 23:-0.295455 24:-0.519553 25:-0.261905 26:-0.532609 27:-0.479769 28:-0.544444 29:-0.491329 30:-0.179191 31:0.0289017 32:0.13253 
-2.509652937329744 -8 4.592009191286209 1:0.671233 2:0.518987 3:0.565217 4:-0.292929 5:-0.3 6:-0.287879 7:-0.412587 8:-0.430464 9:-0.367089 10:-0.161905 11:-0.47619 12:-0.336957 13:-0.502825 14:-0.41573 15:-0.18232 16:-0.303867 17:-0.171271 18:-0.0502793 19:-0.039548 20:0.121212 21:0.0555556 22:0.0786517 23:0.0795455 24:-0.0167598 25:0.0833333 26:-0.0108696 27:0.121387 28:-0.0111111 29:0.109827 30:0.0635838 31:0.0404624 32:0.253012 
-0 -4.99533562322645 0 1:-0.232877 2:-0.0126582 3:0.234783 4:-0.151515 5:-0.233333 6:-0.136364 7:-0.202797 8:-0.112583 9:-0.164557 10:0.12381 11:-0.107143 12:-0.0108696 13:-0.107345 14:-0.0449438 15:-0.58011 16:-0.701657 17:-0.60221 18:-0.608939 19:-0.638418 20:-0.393939 21:-0.5 22:-0.539326 23:-0.545455 24:-0.586592 25:-0.52381 26:-0.554348 27:-0.526012 28:-0.6 29:-0.606936 30:-0.572254 31:-0.352601 32:-0.457831 
-0 -7.913939665929456 0 1:0.835616 2:1 3:0.617391 4:0.171717 5:0.1 6:0.0151515 7:0.146853 8:0.112583 9:0.0759494 10:0.2 11:-0.166667 12:-0.0869565 13:-0.152542 14:-0.11236 15:-0.104972 16:-0.348066 17:-0.303867 18:-0.128492 19:-0.367232 20:-0.151515 21:-0.3 22:-0.0674157 23:-0.340909 24:-0.363128 25:-0.357143 26:-0.163043 27:-0.109827 28:-0.355556 29:-0.364162 30:-0.271676 31:-0.00578035 32:0.168675 
-3.797263541731549 -7.81924870299898 1.73079377221576 1:-0.452055 2:-0.620253 3:-0.286957 4:-0.818182 5:-0.75 6:-0.712121 7:-0.398601 8:-0.642384 9:-0.56962 10:-0.209524 11:-0.595238 12:-0.217391 13:-0.514124 14:-0.292135 15:-0.524862 16:-0.447514 17:-0.392265 18:-0.396648 19:-0.0847458 20:0.111111 21:0.0777778 22:0.101124 23:0.0909091 24:0.150838 25:0.142857 26:0.108696 27:0.190751 28:0.177778 29:0.0867052 30:0.225434 31:0.32948 32:0.228916 
-5.843882795828754 -8 0 1:0.534247 2:0.443038 3:0.165217 4:-0.191919 5:-0.333333 6:-0.272727 7:-0.314685 8:-0.205298 9:-0.101266 10:0.0571429 11:-0.178571 12:0.0434783 13:-0.0169492 14:-0.0898876 15:0.0607735 16:0.0497238 17:-0.0718232 18:0.027933 19:-0.0282486 20:0.111111 21:0.0444444 22:0.0449438 23:0.125 24:0.0837989 25:0.0595238 26:0.25 27:0.0867052 28:0.255556 29:0.202312 30:0.248555 31:0.16763 32:0.253012 
-4.375795982733457 -8 0.1485324332426224 1:-0.287671 2:-0.0126582 3:0.182609 4:-0.191919 5:-0.2 6:-0.166667 7:-0.104895 8:-0.0993377 9:-0.101266 10:0.152381 11:-0.047619 12:0.0326087 13:0.0169492 14:0.0561798 15:0.149171 16:0.0165746 17:0.116022 18:0.150838 19:0.118644 20:0.262626 21:0.177778 22:0.123596 23:0.0909091 24:-0.117318 25:-0.166667 26:-0.0652174 27:-0.0635838 28:0.0444444 29:-0.0982659 30:-0.0751445 31:0.0635838 32:0.0120482 
-7.463454533845121 -8 8 1:-0.315068 2:-0.113924 3:0.0956522 4:-0.292929 5:-0.266667 6:-0.227273 7:-0.244755 8:-0.218543 9:-0.21519 10:0.0761905 11:-0.642857 12:-0.619565 13:-0.728814 14:-0.561798 15:-0.679558 16:-0.535912 17:-0.524862 18:-0.441341 19:-0.514124 20:-0.393939 21:-0.611111 22:-0.539326 23:-0.659091 24:-0.519553 25:-0.630952 26:-0.652174 27:-0.317919 28:-0.666667 29:-0.491329 30:-0.537572 31:-0.537572 32:-0.361446 
-0 -8 0.9038529269095565 1:0.671233 2:0.594937 3:0.582609 4:0.0505051 5:0.0166667 6:0.212121 7:-0.0909091 8:-0.139073 9:0.0759494 10:0.0857143 11:-0.166667 12:-0.141304 13:-0.254237 14:-0.337079 15:-0.348066 16:-0.314917 17:-0.348066 18:-0.307263 19:-0.310734 20:-0.222222 21:-0.311111 22:-0.235955 23:-0.352273 24:-0.385475 25:-0.119048 26:-0.423913 27:-0.317919 28:-0.211111 29:0.0635838 30:0.00578035 31:0.0635838 32:0.180723 
-2.015316110568307 -0 0 1:-0.452055 2:-0.544304 3:-0.217391 4:-0.757576 5:-0.633333 6:-0.590909 7:-0.300699 8:-0.350993 9:-0.594937 10:-0.257143 11:-0.583333 12:-0.380435 13:-0.491525 14:-0.449438 15:-0.502762 16:-0.458564 17:-0.127072 18:-0.0167598 19:0.00564972 20:0.181818 21:0.111111 22:0.146067 23:0.0795455 24:0.173184 25:0.178571 26:0.141304 27:0.121387 28:0.144444 29:0.132948 30:0.225434 31:0.387283 32:0.313253 
-8 -8 0 1:0.123288 2:0.113924 3:0.147826 4:-0.313131 5:-0.3 6:-0.19697 7:-0.160839 8:-0.165563 9:-0.113924 10:0.12381 11:-0.130952 13:-0.0734463 14:-0.0898876 15:-0.0165746 16:-0.0165746 17:-0.0718232 18:0.00558659 19:0.0169492 20:0.131313 21:-0.0333333 22:0.0674157 23:0.125 24:0.162011 25:0.0357143 26:0.23913 27:0.0982659 28:0.244444 29:0.213873 30:0.283237 31:0.236994 32:0.144578 
-3.524289697954682 -8 8 1:-0.232877 2:0.0379747 3:0.165217 4:-0.232323 5:-0.166667 6:-0.166667 7:-0.118881 8:-0.0993377 9:-0.101266 10:0.209524 11:-0.0357143 12:0.0652174 13:0.039548 14:0.0674157 15:0.0165746 16:0.0497238 17:0.104972 18:0.128492 19:0.163842 20:0.252525 21:0.177778 22:-0.134831 23:0.0568182 24:-0.0949721 25:-0.166667 26:-0.0869565 27:0.00578035 28:-0.0444444 29:0.109827 30:0.00578035 31:-0.0520231 32:-0.120482 
-0 -8 1.030568010319218 1:-0.260274 2:-0.0886076 3:0.0434783 4:-0.292929 5:-0.25 6:-0.212121 7:-0.174825 8:-0.258278 9:-0.164557 10:0.0761905 11:-0.119048 12:-0.48913 13:-0.706215 14:-0.573034 15:-0.646409 16:-0.657459 17:-0.701657 18:-0.664804 19:-0.627119 20:-0.444444 21:-0.633333 22:-0.561798 23:-0.579545 24:-0.653631 25:-0.630952 26:-0.543478 27:-0.549133 28:-0.611111 29:-0.560694 30:-0.50289 31:-0.144509 32:-0.373494 
-0 -8 3.090213161763009 1:0.643836 2:0.746835 3:0.826087 4:0.232323 5:-0.0333333 6:0.166667 7:0.0629371 8:-0.139073 9:-0.177215 10:0.152381 11:-0.166667 12:-0.076087 13:-0.0960452 14:-0.123596 15:-0.138122 16:-0.325967 17:-0.18232 18:-0.396648 19:-0.412429 20:-0.161616 21:-0.355556 22:-0.292135 23:-0.102273 24:-0.217877 25:-0.22619 26:-0.434783 27:-0.0635838 28:-0.211111 29:-0.34104 30:-0.387283 31:-0.0404624 32:0.0722892 
-8 -8 0 1:-0.39726 2:-0.291139 3:0.0608696 4:-0.272727 5:-0.2 6:-0.166667 7:-0.0909091 8:-0.0596026 9:-0.0379747 10:0.171429 11:-0.047619 12:0.0434783 13:0.0282486 14:0.0898876 15:0.138122 16:0.0718232 17:0.127072 18:0.139665 19:0.175141 20:0.282828 21:0.233333 22:0.247191 23:0.238636 24:0.273743 25:0.27381 26:0.217391 27:0.317919 28:0.222222 29:0.213873 30:0.294798 31:0.352601 32:0.337349 
-8 -8 0 1:-0.150685 2:0.0379747 3:0.165217 4:-0.212121 5:-0.183333 6:-0.151515 7:-0.146853 8:-0.0596026 9:-0.0379747 10:0.2 11:0.047619 12:0.076087 13:0.0508475 14:0.11236 15:0.171271 16:0.104972 17:0.160221 18:0.173184 19:0.129944 20:0.30303 21:0.233333 22:0.235955 23:0.215909 24:0.173184 25:0.22619 26:0.163043 27:0.283237 28:0.166667 29:0.236994 30:0.179191 31:0.236994 32:0.349398 
-8 -8 0 1:-0.205479 2:-0.240506 3:0.2 4:-0.191919 5:-0.166667 6:-0.121212 7:-0.034965 8:0.00662252 9:-0.0506329 10:0.2 11:0.0119048 12:0.0978261 13:0.0847458 14:0.0449438 15:0.116022 16:0.0939227 17:0.171271 18:0.162011 19:0.175141 20:0.282828 21:0.277778 22:0.235955 23:0.261364 24:0.173184 25:0.261905 26:0.271739 27:0.213873 28:0.277778 29:0.271676 30:0.398844 31:0.421965 32:0.373494 
-8 -5.797372179773854 0 1:-0.506849 2:-0.392405 3:0.0434783 4:-0.333333 5:-0.25 6:-0.181818 7:-0.146853 8:-0.0993377 9:-0.0253165 10:0.12381 11:-0.0952381 12:0.0869565 13:-0.039548 14:-0.0224719 15:0.0939227 16:0.127072 17:0.104972 18:0.139665 19:0.129944 20:0.232323 21:0.133333 22:0.146067 23:0.238636 24:0.296089 25:0.154762 26:0.358696 27:0.236994 28:0.388889 29:0.34104 30:0.398844 31:0.352601 32:0.313253 
-8 -8 0 1:-0.260274 2:-0.139241 3:0.234783 4:-0.0505051 5:-0.0833333 6:-0.030303 7:-0.034965 8:-0.0331126 10:0.238095 11:0.0357143 12:0.163043 13:0.107345 14:0.134831 15:0.171271 16:0.0939227 17:0.18232 18:0.195531 19:0.220339 20:0.353535 21:0.266667 22:0.280899 23:0.238636 24:0.217877 25:0.261905 26:0.25 27:0.283237 28:0.266667 29:0.248555 30:0.306358 31:0.375723 32:0.325301 
-8 -8 0 1:-0.39726 2:-0.265823 3:0.0782609 4:-0.252525 5:-0.183333 6:-0.121212 7:-0.104895 8:-0.0993377 9:-0.0759494 10:0.152381 11:-0.0238095 12:0.0326087 13:0.0169492 14:0.101124 15:0.127072 16:0.138122 17:0.149171 18:0.217877 19:0.163842 20:0.363636 21:0.244444 22:0.235955 23:0.25 24:0.284916 25:0.238095 26:0.26087 27:0.294798 28:0.255556 29:0.283237 30:0.236994 31:0.352601 32:0.325301 
-8 -8 0 1:-0.342466 2:-0.0886076 3:0.182609 4:-0.272727 5:-0.2 6:-0.0909091 7:-0.104895 8:-0.0860927 9:-0.0506329 10:0.171429 11:-0.0119048 12:0.0434783 13:-0.299435 14:0.0561798 15:-0.160221 16:-0.00552486 17:0.149171 18:0.162011 19:0.20904 20:0.262626 21:0.211111 22:0.168539 23:0.25 24:0.206704 25:0.25 26:0.119565 27:0.317919 28:0.177778 29:0.236994 30:0.190751 31:0.213873 32:0.289157 
-8 -8 0 1:-0.260274 2:-0.189873 3:0.182609 4:-0.151515 5:-0.1 6:-0.106061 7:-0.034965 8:-0.0331126 9:-0.0253165 10:0.2 11:0.0119048 12:0.0869565 13:0.0734463 14:0.11236 15:0.138122 16:0.0939227 17:0.160221 18:0.184358 19:0.20904 20:0.333333 21:0.322222 22:0.314607 23:0.329545 24:0.340782 25:0.345238 26:0.304348 27:0.387283 28:0.333333 29:0.271676 30:0.387283 31:0.387283 32:0.373494 
-8 -8 0 1:-0.39726 2:-0.341772 3:0.026087 4:-0.313131 5:-0.266667 6:-0.212121 7:-0.146853 8:-0.112583 9:-0.0126582 10:0.152381 11:-0.0714286 12:0.0978261 13:0.0734463 14:0.0449438 15:0.116022 16:0.149171 17:0.104972 18:0.128492 19:0.118644 20:0.232323 21:0.144444 22:0.157303 23:0.25 24:0.296089 25:0.130952 26:0.347826 27:0.225434 28:0.377778 29:0.306358 30:0.364162 31:0.387283 32:0.325301 
-8 -8 0 1:-0.178082 2:-0.21519 3:0.130435 4:-0.171717 5:-0.0833333 6:-0.0606061 7:-0.0769231 8:0.00662252 9:-0.0126582 10:0.2 11:0.0238095 12:0.0978261 13:0.107345 14:0.11236 15:0.149171 16:0.0939227 17:0.149171 18:0.139665 19:0.163842 20:0.282828 21:0.244444 22:0.224719 23:0.193182 24:0.251397 25:0.261905 26:0.228261 27:0.283237 28:0.233333 29:0.236994 30:0.260116 31:0.317919 32:0.337349 
-8 -8 0 1:-0.39726 2:-0.164557 3:0.0434783 4:-0.393939 5:-0.2 6:-0.136364 7:-0.0909091 8:-0.0728477 9:-0.0253165 10:0.190476 11:-0.0119048 12:0.0326087 13:0.0508475 14:0.0898876 15:0.116022 16:0.0939227 17:0.18232 18:0.173184 19:0.186441 20:0.313131 21:0.255556 22:0.269663 23:0.25 24:0.240223 25:0.297619 26:0.25 27:0.32948 28:0.277778 29:0.271676 30:0.352601 31:0.375723 32:0.421687 
-8 -1.666384996622712 0 1:-0.424658 2:-0.265823 3:0.0782609 4:-0.353535 5:-0.266667 6:-0.151515 7:-0.146853 8:-0.125828 9:-0.0886076 10:0.152381 11:-0.0357143 12:0.076087 13:-0.039548 14:0.0337079 15:0.104972 16:0.00552486 17:0.127072 18:0.150838 19:-0.00564972 20:0.272727 21:0.188889 22:0.258427 23:0.215909 24:0.195531 25:0.261905 26:0.173913 27:0.317919 28:0.177778 29:0.236994 30:0.213873 31:0.260116 32:0.349398 
-8 -0 0 1:-0.589041 2:-0.620253 3:-0.026087 4:-0.373737 5:-0.266667 6:-0.227273 7:-0.216783 8:-0.178808 10:0.27619 11:-0.142857 12:0.304348 13:0.231638 14:-0.0449438 15:0.0165746 16:0.0718232 17:0.0276243 18:0.0391061 19:0.0621469 20:0.161616 21:0.333333 22:0.359551 23:0.443182 24:0.240223 25:0.333333 26:0.532609 27:0.156069 28:0.244444 29:0.236994 30:0.549133 31:0.456647 32:0.457831 
-8 -8 0 1:-0.534247 2:-0.341772 3:0.0608696 4:-0.313131 5:-0.2 6:-0.212121 7:-0.188811 8:-0.125828 9:-0.113924 10:0.142857 11:-0.0595238 12:-0.0108696 13:0.039548 14:0.0674157 15:0.116022 16:0.20442 17:0.0828729 18:-0.00558659 19:0.186441 20:0.252525 21:0.111111 22:0.202247 23:0.170455 24:0.206704 25:0.22619 26:0.108696 27:0.306358 28:0.2 29:0.179191 30:0.248555 31:0.271676 32:0.277108 
-8 -3.128896390552957 0 1:-0.39726 2:-0.291139 3:-0.0782609 4:-0.393939 5:-0.25 6:-0.227273 7:-0.398601 8:-0.205298 9:-0.126582 10:0.133333 11:-0.0952381 12:0.0326087 13:-0.00564972 14:0.011236 15:0.0497238 16:0.038674 17:0.116022 18:0.117318 19:0.175141 20:0.232323 21:0.188889 22:0.191011 23:0.170455 24:0.206704 25:0.178571 26:0.163043 27:0.213873 28:0.222222 29:0.179191 30:0.271676 31:0.34104 32:0.228916 
-1.882350293580427 -8 4.381423104634466 1:-0.260274 2:-0.316456 3:0.147826 4:-0.373737 5:-0.266667 6:-0.227273 7:-0.258741 8:-0.178808 9:-0.202532 10:0.104762 11:-0.22619 12:-0.141304 13:-0.163842 14:-0.168539 15:-0.0607735 16:-0.160221 17:-0.0939227 18:-0.106145 19:-0.107345 20:0.0505051 21:-0.0222222 22:0.011236 23:-0.0113636 24:-0.027933 25:-0.297619 26:-0.0217391 27:0.017341 28:-0.0222222 29:-0.0289017 30:-0.0289017 31:0.0520231 32:-0.0361446 
-8 -1.360193854218536 7.613539727425298 1:-0.424658 2:-0.468354 3:-0.113043 4:-0.535354 5:-0.533333 6:-0.378788 7:-0.412587 8:-0.377483 9:-0.35443 10:-0.0666667 11:-0.321429 12:-0.195652 13:-0.265537 14:-0.134831 15:-0.149171 16:-0.171271 17:-0.171271 18:-0.139665 19:-0.502825 20:0.030303 21:-0.0777778 22:-0.0561798 23:-0.0227273 24:-0.0726257 25:-0.0357143 26:-0.0978261 27:0.0635838 28:-0.0777778 29:-0.00578035 30:-0.0289017 31:0.00578035 32:0.120482 
-8 -7.922339682683949 8 1:-0.424658 2:-0.468354 3:-0.0782609 4:-0.555556 5:-0.4 6:-0.409091 7:-0.370629 8:-0.337748 9:-0.265823 10:-0.0380952 11:-0.309524 12:-0.130435 13:-0.220339 14:-0.213483 15:-0.138122 16:-0.104972 17:-0.0718232 18:-0.139665 19:-0.0847458 20:0.0606061 21:-0.111111 22:-0.0898876 23:-0.0227273 24:0.00558659 25:-0.130952 26:0.0869565 27:-0.00578035 28:0.155556 29:0.0751445 30:0.16763 31:0.144509 32:-0.0120482 
-8 -0 0 1:-0.369863 2:-0.341772 3:-0.0782609 4:-0.515152 5:-0.433333 6:-0.333333 7:-0.328671 8:-0.284768 9:-0.253165 11:-0.238095 12:-0.130435 13:-0.175141 14:-0.123596 15:-0.116022 16:-0.149171 17:-0.0828729 18:0.117318 19:-0.276836 20:0.0909091 22:0.0674157 23:0.0227273 24:0.027933 25:0.0595238 26:0.0869565 27:0.144509 28:0.0666667 29:0.0751445 30:0.16763 31:0.179191 32:0.192771 
-8 -8 2.160720092778168 1:-0.260274 2:-0.164557 3:0.0782609 4:-0.232323 5:-0.3 6:-0.272727 7:-0.244755 8:-0.192053 9:-0.253165 10:0.0571429 11:-0.202381 12:-0.0434783 13:-0.107345 14:-0.123596 15:-0.0718232 16:-0.116022 17:-0.0718232 18:-0.117318 19:-0.0847458 20:0.0505051 21:-0.0555556 22:-0.011236 24:0.0614525 25:0.0357143 26:-0.0217391 27:0.0520231 28:-0.0444444 29:0.00578035 30:0.0520231 31:0.0867052 32:0.0240964 
-8 -0 0 1:-0.342466 2:-0.417722 3:-0.130435 4:-0.616162 5:-0.383333 6:-0.409091 7:-0.370629 8:-0.298013 9:-0.367089 10:-0.0190476 11:-0.309524 12:-0.228261 13:-0.220339 14:-0.213483 15:-0.160221 16:-0.21547 17:-0.436464 18:-0.162011 19:-0.231638 20:-0.030303 21:-0.1 22:-0.0337079 23:-0.0568182 24:-0.139665 25:-0.047619 26:-0.0434783 27:0.017341 28:-0.0333333 29:-0.00578035 30:0.0289017 31:0.0982659 32:0.0843373 
-8 -0 0 1:-0.479452 2:-0.417722 3:-0.147826 4:-0.616162 5:-0.483333 6:-0.409091 7:-0.356643 8:-0.324503 9:-0.303797 10:-0.0285714 11:-0.27381 12:-0.184783 13:-0.242938 14:-0.157303 15:-0.127072 16:-0.138122 17:-0.127072 18:-0.0949721 19:-0.0508475 20:0.0808081 21:-0.0111111 22:0.0224719 23:-0.0227273 24:-0.0614525 25:-0.0119048 26:-0.0434783 27:0.0867052 28:-0.0111111 29:0.0404624 30:-0.00578035 31:0.0289017 32:0.168675 
-1.13621904295724 -6.503089698362674 0 1:-0.534247 2:-0.392405 3:0.0434783 4:-0.414141 5:-0.433333 6:-0.333333 7:-0.314685 8:-0.350993 9:-0.202532 10:0.00952381 11:-0.321429 12:-0.152174 13:-0.129944 14:-0.179775 15:-0.0828729 16:-0.0497238 17:-0.127072 18:0.0614525 19:-0.118644 20:0.030303 21:-0.0222222 22:-0.134831 23:0.0340909 24:-0.0502793 25:-0.0714286 26:0.173913 27:-0.0982659 28:0.177778 29:0.16763 30:0.260116 31:0.260116 32:0.168675 
-8 -0 0 1:-0.287671 2:-0.265823 3:-0.026087 4:-0.353535 5:-0.25 6:-0.242424 7:-0.174825 8:-0.178808 9:-0.21519 10:0.0571429 11:-0.130952 12:-0.0543478 13:-0.0960452 14:-0.0674157 15:-0.0607735 16:-0.104972 17:0.0165746 18:-0.0167598 19:-0.0169492 20:0.141414 21:0.0555556 22:0.0337079 23:0.0340909 24:0.00558659 25:0.0357143 26:-0.0108696 27:0.0404624 28:-0.0666667 29:0.0289017 30:0.0404624 31:0.0982659 32:0.13253 
-0.978621919863665 -8 1.624701906316844 1:-0.671233 2:-1 3:-1 4:-1 5:-1 6:-1 7:-1 8:-1 9:-1 10:-1 11:-1 12:-0.923913 13:-1 14:-0.910112 15:-1 16:-1 17:-0.922652 18:-0.910615 19:-0.988701 20:-0.707071 21:-0.911111 22:-0.94382 23:-0.909091 24:-0.955307 25:-0.97619 26:-0.869565 27:-0.861272 28:-0.988889 29:-0.919075 30:-0.988439 31:-1 32:-0.819277 
-8 -8 0 1:-0.232877 2:-0.21519 3:0.2 4:-0.313131 5:-0.216667 6:-0.181818 7:-0.132867 8:-0.178808 9:-0.139241 10:0.12381 11:-0.142857 12:0.0217391 13:-0.0508475 14:-0.0449438 15:0.0497238 16:-0.0276243 17:0.038674 18:0.0167598 19:-0.0169492 20:0.151515 21:0.0888889 22:0.0449438 23:0.0681818 24:0.0837989 25:0.0714286 26:0.076087 27:0.16763 28:0.0555556 29:0.0635838 30:0.121387 31:0.16763 32:0.108434 
-0 -3.521549381036142 0.2921401809662054 1:-0.479452 2:0.21519 3:0.217391 4:-0.454545 5:-0.283333 6:-0.454545 7:-0.482517 8:-0.576159 9:-0.531646 10:-0.247619 11:-0.595238 12:-0.413043 13:-0.683616 14:-0.651685 15:-0.558011 16:-0.745856 17:-0.59116 18:-0.497207 19:-0.615819 20:-0.030303 21:-0.0222222 22:-0.123596 23:-0.0909091 24:0.72067 25:-0.0833333 26:-0.108696 27:-0.0289017 28:-0.0444444 29:-0.144509 30:0.791908 31:0.780347 32:0.722892 
-8 -0 0 1:-0.39726 2:-0.367089 3:0.026087 4:-0.373737 5:-0.283333 6:-0.30303 7:-0.174825 8:-0.139073 9:-0.164557 10:0.114286 11:-0.107143 12:-0.0217391 13:-0.039548 15:0.0165746 16:-0.0165746 17:0.038674 18:-0.027933 19:0.0621469 20:0.20202 21:0.1 22:0.146067 23:0.147727 24:0.173184 25:0.142857 26:0.0326087 27:0.213873 28:0.122222 29:0.132948 30:0.202312 31:0.213873 32:0.240964 
-8 -0 0 1:-0.506849 2:-0.291139 3:0.0608696 4:-0.515152 5:-0.383333 6:-0.348485 7:-0.300699 8:-0.271523 9:-0.240506 10:0.0190476 11:-0.285714 12:-0.076087 13:-0.186441 14:-0.0898876 15:-0.127072 16:-0.0828729 17:-0.038674 18:-0.0614525 19:-0.0621469 20:-0.141414 21:0.0111111 22:0.0674157 23:0.0113636 24:-0.00558659 25:0.0357143 26:-0.0326087 27:0.0867052 28:0.0111111 29:0.0982659 30:0.00578035 31:0.0867052 32:0.192771 
-8 -8 -8 1:0.0958904 2:0.0379747 3:0.0434783 4:-0.393939 5:-0.266667 6:-0.30303 7:-0.286713 8:-0.231788 9:-0.253165 10:0.0761905 11:-0.130952 12:-0.0543478 13:-0.107345 14:-0.0674157 15:-0.0276243 16:-0.0497238 17:0.00552486 18:0.0391061 19:0.0734463 20:0.222222 21:0.122222 22:0.123596 23:0.125 24:0.128492 25:0.154762 26:0.119565 27:0.202312 28:0.177778 29:0.0867052 30:-0.213873 31:-0.121387 32:-0.313253 
-5.170013616329965 -8 -6.482900123565448 1:-0.287671 2:-0.164557 3:0.00869565 4:-0.353535 5:-0.266667 6:-0.257576 7:-0.258741 8:-0.205298 9:-0.21519 10:0.0761905 11:-0.22619 12:-0.0434783 13:-0.107345 14:-0.146067 15:-0.0497238 16:-0.038674 17:-0.0828729 18:-0.106145 19:-0.706215 20:-0.545455 21:-0.688889 22:-0.719101 23:-0.590909 24:-0.497207 25:-0.845238 26:-0.521739 27:-0.537572 28:-0.555556 29:-0.491329 30:-0.468208 31:-0.572254 32:-0.614458 
-3.767842679609038 -8 -8 1:-0.0958904 2:0.0886076 3:0.182609 4:-0.030303 6:-0.0757576 7:0.104895 8:0.00662252 9:-0.253165 11:-0.25 12:-0.184783 13:-0.220339 14:-0.247191 15:-0.18232 16:-0.0497238 17:-0.18232 18:-0.363128 19:-0.412429 20:-0.111111 21:-0.177778 22:-0.359551 23:-0.238636 24:-0.296089 25:-0.464286 26:-0.445652 27:-0.398844 28:-0.355556 29:-0.445087 30:-0.479769 31:-0.294798 32:-0.325301 
-8 -8 -8 1:-0.835616 2:-0.772152 3:-0.130435 4:-0.979798 5:-0.633333 6:-0.80303 7:-0.776224 8:-0.748344 9:-0.746835 10:-0.190476 11:-0.595238 12:-0.521739 13:-0.638418 14:-0.505618 15:-0.524862 16:-0.502762 17:-0.535912 18:-0.553073 19:-0.536723 20:-0.121212 21:-0.1 22:-0.0337079 23:-0.0454545 24:0.00558659 25:0.047619 26:0.0217391 27:0.0520231 28:0.0222222 29:0.0982659 30:0.0751445 31:0.179191 32:0.168675 
-8 -8 -8 1:0.205479 2:0.113924 3:0.478261 4:-0.353535 5:-0.1 6:-0.409091 7:-0.356643 8:-0.298013 9:-0.21519 10:0.0285714 11:-0.178571 12:-0.108696 13:-0.163842 14:-0.0898876 15:-0.0497238 16:-0.149171 17:-0.0607735 18:-0.0502793 19:-0.0169492 20:0.181818 21:0.0222222 22:0.0898876 24:0.027933 25:0.0714286 27:0.132948 28:0.0333333 29:0.0635838 30:0.0289017 31:0.144509 32:0.253012 
-8 -8 -8 1:-0.315068 2:-0.0632911 3:0.182609 4:-0.272727 5:-0.25 6:-0.242424 7:-0.160839 8:-0.125828 9:-0.139241 10:0.142857 11:-0.0714286 13:-0.0169492 14:-0.0224719 15:0.00552486 16:-0.0165746 17:0.0497238 18:0.0167598 19:0.0621469 20:0.181818 21:-0.255556 22:-0.247191 23:0.0113636 24:-0.106145 25:-0.178571 26:-0.217391 27:-0.156069 28:-0.233333 29:0.017341 30:-0.16763 31:-0.0751445 32:-0.120482 
-0.05482299437896983 -8 -8 1:-0.39726 2:-0.139241 3:0.0956522 4:-0.313131 5:-0.3 6:-0.272727 7:-0.286713 8:-0.298013 9:-0.278481 10:-0.438095 11:-0.666667 12:-0.684783 13:-0.60452 14:-0.797753 15:-0.734807 16:-0.657459 17:-0.723757 18:-0.664804 19:-0.762712 20:-0.59596 21:-0.677778 22:-0.505618 23:-0.590909 24:-0.407821 25:-0.785714 26:-0.478261 27:-0.630058 28:-0.422222 29:-0.433526 30:-0.491329 31:-0.306358 32:-0.53012 
-6.532220950369202 -8 -8 1:0.616438 2:0.518987 3:0.513043 4:-0.010101 5:-0.0666667 6:-0.0909091 7:-0.020979 8:0.0596026 9:-0.253165 10:-0.047619 11:-0.404762 12:-0.347826 13:-0.435028 14:-0.314607 15:-0.392265 16:-0.436464 17:-0.480663 18:-0.284916 19:-0.310734 20:-0.272727 21:-0.333333 22:-0.348315 23:-0.306818 24:-0.407821 25:-0.202381 26:-0.0434783 27:0.0520231 28:0.0444444 29:0.00578035 30:0.109827 31:0.16763 32:0.108434 
-8 -8 -8 1:-0.39726 2:-0.341772 3:-0.0956522 4:-0.59596 5:-0.566667 6:-0.424242 7:-0.524476 8:-0.403974 9:-0.493671 10:-0.247619 11:-0.607143 12:-0.467391 13:-0.242938 14:-0.168539 15:-0.116022 16:-0.0718232 17:-0.00552486 18:-0.027933 19:0.0282486 20:0.181818 21:0.0555556 22:0.0898876 23:0.0909091 24:0.0949721 25:0.0952381 26:0.076087 27:0.179191 28:0.0777778 29:0.132948 30:0.156069 31:0.16763 32:0.216867 
-2.740104843814549 -8 -8 1:-0.342466 2:-0.0379747 3:0.0608696 4:-0.333333 5:-0.316667 6:-0.30303 7:-0.244755 8:-0.284768 9:-0.253165 10:0.0666667 11:-0.178571 12:-0.0978261 13:-0.163842 14:-0.101124 15:-0.0165746 16:-0.0276243 17:0.00552486 18:-0.0391061 19:-0.0847458 20:0.131313 21:0.1 22:0.0898876 23:0.0681818 24:0.0167598 25:0.0595238 26:0.0108696 27:0.132948 28:-0.0555556 29:0.017341 30:-0.734104 31:-0.572254 32:-0.578313 
-8 -8 -8 1:-0.260274 2:-0.0886076 3:0.217391 4:-0.212121 5:-0.183333 6:-0.166667 7:-0.0769231 8:-0.125828 9:-0.139241 10:0.12381 11:-0.0238095 12:0.0108696 13:-0.0169492 14:-0.011236 15:-0.0607735 16:-0.281768 17:-0.303867 18:-0.329609 19:-0.163842 20:0.0606061 21:-0.222222 22:-0.191011 23:-0.215909 24:-0.217877 25:-0.25 26:-0.217391 27:0.121387 28:-0.2 29:-0.190751 30:-0.190751 31:-0.225434 32:-0.253012 
-7.698042584642101 -8 -7.004059178903842 1:-0.287671 2:-0.189873 3:0.026087 4:-0.69697 5:-0.833333 6:-0.80303 7:-0.86014 8:-0.86755 9:-0.772152 10:-0.428571 11:-0.833333 12:-0.619565 13:-0.706215 14:-0.842697 15:-0.657459 16:-0.745856 17:-0.58011 18:-0.877095 19:-0.694915 20:-0.353535 21:-0.666667 22:-0.651685 23:-0.511364 24:-0.497207 25:-0.654762 26:-0.380435 27:-0.537572 28:-0.377778 29:-0.537572 30:-0.0404624 31:-0.260116 32:-0.301205 
